%YAML:1.0
---
opencv_ml_rtrees:
   format: 3
   is_classifier: 1
   var_all: 137
   var_count: 136
   ord_var_count: 136
   cat_var_count: 1
   training_params:
      use_surrogates: 0
      max_categories: 10
      regression_accuracy: 0.
      max_depth: 5
      min_sample_count: 10
      cross_validation_folds: 0
      nactive_vars: 0
   global_var_idx: 1
   var_idx: [ 0, 1, 2, 3, 4, 5, 6, 7, 8, 9, 10, 11, 12, 13, 14, 15, 16,
       17, 18, 19, 20, 21, 22, 23, 24, 25, 26, 27, 28, 29, 30, 31, 32,
       33, 34, 35, 36, 37, 38, 39, 40, 41, 42, 43, 44, 45, 46, 47, 48,
       49, 50, 51, 52, 53, 54, 55, 56, 57, 58, 59, 60, 61, 62, 63, 64,
       65, 66, 67, 68, 69, 70, 71, 72, 73, 74, 75, 76, 77, 78, 79, 80,
       81, 82, 83, 84, 85, 86, 87, 88, 89, 90, 91, 92, 93, 94, 95, 96,
       97, 98, 99, 100, 101, 102, 103, 104, 105, 106, 107, 108, 109, 110,
       111, 112, 113, 114, 115, 116, 117, 118, 119, 120, 121, 122, 123,
       124, 125, 126, 127, 128, 129, 130, 131, 132, 133, 134, 135 ]
   var_type: [ 0, 0, 0, 0, 0, 0, 0, 0, 0, 0, 0, 0, 0, 0, 0, 0, 0, 0, 0,
       0, 0, 0, 0, 0, 0, 0, 0, 0, 0, 0, 0, 0, 0, 0, 0, 0, 0, 0, 0, 0, 0,
       0, 0, 0, 0, 0, 0, 0, 0, 0, 0, 0, 0, 0, 0, 0, 0, 0, 0, 0, 0, 0, 0,
       0, 0, 0, 0, 0, 0, 0, 0, 0, 0, 0, 0, 0, 0, 0, 0, 0, 0, 0, 0, 0, 0,
       0, 0, 0, 0, 0, 0, 0, 0, 0, 0, 0, 0, 0, 0, 0, 0, 0, 0, 0, 0, 0, 0,
       0, 0, 0, 0, 0, 0, 0, 0, 0, 0, 0, 0, 0, 0, 0, 0, 0, 0, 0, 0, 0, 0,
       0, 0, 0, 0, 0, 0, 0, 1 ]
   cat_ofs: [ 0, 0, 0, 0, 0, 0, 0, 0, 0, 0, 0, 0, 0, 0, 0, 0, 0, 0, 0, 0,
       0, 0, 0, 0, 0, 0, 0, 0, 0, 0, 0, 0, 0, 0, 0, 0, 0, 0, 0, 0, 0, 0,
       0, 0, 0, 0, 0, 0, 0, 0, 0, 0, 0, 0, 0, 0, 0, 0, 0, 0, 0, 0, 0, 0,
       0, 0, 0, 0, 0, 0, 0, 0, 0, 0, 0, 0, 0, 0, 0, 0, 0, 0, 0, 0, 0, 0,
       0, 0, 0, 0, 0, 0, 0, 0, 0, 0, 0, 0, 0, 0, 0, 0, 0, 0, 0, 0, 0, 0,
       0, 0, 0, 0, 0, 0, 0, 0, 0, 0, 0, 0, 0, 0, 0, 0, 0, 0, 0, 0, 0, 0,
       0, 0, 0, 0, 0, 0, 0, 0, 0, 0, 0, 0, 0, 0, 0, 0, 0, 0, 0, 0, 0, 0,
       0, 0, 0, 0, 0, 0, 0, 0, 0, 0, 0, 0, 0, 0, 0, 0, 0, 0, 0, 0, 0, 0,
       0, 0, 0, 0, 0, 0, 0, 0, 0, 0, 0, 0, 0, 0, 0, 0, 0, 0, 0, 0, 0, 0,
       0, 0, 0, 0, 0, 0, 0, 0, 0, 0, 0, 0, 0, 0, 0, 0, 0, 0, 0, 0, 0, 0,
       0, 0, 0, 0, 0, 0, 0, 0, 0, 0, 0, 0, 0, 0, 0, 0, 0, 0, 0, 0, 0, 0,
       0, 0, 0, 0, 0, 0, 0, 0, 0, 0, 0, 0, 0, 0, 0, 0, 0, 0, 0, 0, 0, 0,
       0, 0, 0, 0, 0, 0, 0, 0, 0, 0 ]
   class_labels: [ 1, 2, 3, 4, 5, 6, 7 ]
   missing_subst: [ 0., 0., 0., 0., 0., 0., 0., 0., 0., 0., 0., 0., 0.,
       0., 0., 0., 0., 0., 0., 0., 0., 0., 0., 0., 0., 0., 0., 0., 0.,
       0., 0., 0., 0., 0., 0., 0., 0., 0., 0., 0., 0., 0., 0., 0., 0.,
       0., 0., 0., 0., 0., 0., 0., 0., 0., 0., 0., 0., 0., 0., 0., 0.,
       0., 0., 0., 0., 0., 0., 0., 0., 0., 0., 0., 0., 0., 0., 0., 0.,
       0., 0., 0., 0., 0., 0., 0., 0., 0., 0., 0., 0., 0., 0., 0., 0.,
       0., 0., 0., 0., 0., 0., 0., 0., 0., 0., 0., 0., 0., 0., 0., 0.,
       0., 0., 0., 0., 0., 0., 0., 0., 0., 0., 0., 0., 0., 0., 0., 0.,
       0., 0., 0., 0., 0., 0., 0., 0., 0., 0., 0., 0. ]
   oob_error: 2.5600000000000001e-01
   ntrees: 50
   trees:
      -
         nodes:
            -
               depth: 0
               value: 7.
               norm_class_idx: 6
               splits:
                  - { var:113, quality:1.2374275970458984e+02,
                      le:6.3278007507324219e-01 }
            -
               depth: 1
               value: 3.
               norm_class_idx: 2
               splits:
                  - { var:71, quality:5.6152572631835938e+01,
                      le:1.2743943929672241e-01 }
            -
               depth: 2
               value: 3.
               norm_class_idx: 2
               splits:
                  - { var:42, quality:5.0033897399902344e+01,
                      le:-1.4686569571495056e-01 }
            -
               depth: 3
               value: 5.
               norm_class_idx: 4
               splits:
                  - { var:128, quality:3.1881643295288086e+01,
                      le:3.1876021623611450e-01 }
            -
               depth: 4
               value: 3.
               norm_class_idx: 2
               splits:
                  - { var:128, quality:9.1666669845581055e+00,
                      le:2.6276779174804688e-01 }
            -
               depth: 5
               value: 3.
               norm_class_idx: 2
            -
               depth: 5
               value: 7.
               norm_class_idx: 6
            -
               depth: 4
               value: 5.
               norm_class_idx: 4
               splits:
                  - { var:133, quality:3.0529411315917969e+01,
                      le:3.7817126512527466e-01 }
            -
               depth: 5
               value: 3.
               norm_class_idx: 2
            -
               depth: 5
               value: 5.
               norm_class_idx: 4
            -
               depth: 3
               value: 3.
               norm_class_idx: 2
               splits:
                  - { var:109, quality:3.7569892883300781e+01,
                      le:3.1260776519775391e-01 }
            -
               depth: 4
               value: 5.
               norm_class_idx: 4
               splits:
                  - { var:135, quality:1.6399999618530273e+01,
                      le:3.0779528617858887e-01 }
            -
               depth: 5
               value: 3.
               norm_class_idx: 2
            -
               depth: 5
               value: 5.
               norm_class_idx: 4
            -
               depth: 4
               value: 3.
               norm_class_idx: 2
               splits:
                  - { var:105, quality:3.5911109924316406e+01,
                      le:2.4375270307064056e-01 }
            -
               depth: 5
               value: 3.
               norm_class_idx: 2
            -
               depth: 5
               value: 1.
               norm_class_idx: 0
            -
               depth: 2
               value: 6.
               norm_class_idx: 5
               splits:
                  - { var:113, quality:2.6531745910644531e+01,
                      le:5.5894422531127930e-01 }
            -
               depth: 3
               value: 6.
               norm_class_idx: 5
               splits:
                  - { var:81, quality:1.5629630088806152e+01,
                      le:-2.5124222040176392e-01 }
            -
               depth: 4
               value: 6.
               norm_class_idx: 5
               splits:
                  - { var:45, quality:1.7111110687255859e+01,
                      le:-5.4107892513275146e-01 }
            -
               depth: 5
               value: 6.
               norm_class_idx: 5
            -
               depth: 5
               value: 1.
               norm_class_idx: 0
            -
               depth: 4
               value: 2.
               norm_class_idx: 1
            -
               depth: 3
               value: 4.
               norm_class_idx: 3
               splits:
                  - { var:120, quality:2.4272727966308594e+01,
                      le:-2.2290500998497009e-01 }
            -
               depth: 4
               value: 4.
               norm_class_idx: 3
               splits:
                  - { var:59, quality:2.0095237731933594e+01,
                      le:-9.7174182534217834e-02 }
            -
               depth: 5
               value: 4.
               norm_class_idx: 3
            -
               depth: 5
               value: 5.
               norm_class_idx: 4
            -
               depth: 4
               value: 6.
               norm_class_idx: 5
            -
               depth: 1
               value: 7.
               norm_class_idx: 6
               splits:
                  - { var:84, quality:8.7250000000000000e+01,
                      le:2.0605573058128357e-01 }
            -
               depth: 2
               value: 7.
               norm_class_idx: 6
            -
               depth: 2
               value: 4.
               norm_class_idx: 3
      -
         nodes:
            -
               depth: 0
               value: 5.
               norm_class_idx: 4
               splits:
                  - { var:6, quality:1.0208131408691406e+02,
                      le:-6.1250686645507813e-01 }
            -
               depth: 1
               value: 5.
               norm_class_idx: 4
               splits:
                  - { var:127, quality:7.9364227294921875e+01,
                      le:3.4045648574829102e-01 }
            -
               depth: 2
               value: 5.
               norm_class_idx: 4
               splits:
                  - { var:122, quality:5.6963634490966797e+01,
                      le:-9.3966335058212280e-02 }
            -
               depth: 3
               value: 5.
               norm_class_idx: 4
               splits:
                  - { var:11, quality:4.9339622497558594e+01,
                      le:7.1450912952423096e-01 }
            -
               depth: 4
               value: 5.
               norm_class_idx: 4
               splits:
                  - { var:98, quality:5.1039215087890625e+01,
                      le:-2.3032018542289734e-01 }
            -
               depth: 5
               value: 5.
               norm_class_idx: 4
            -
               depth: 5
               value: 3.
               norm_class_idx: 2
            -
               depth: 4
               value: 4.
               norm_class_idx: 3
            -
               depth: 3
               value: 5.
               norm_class_idx: 4
               splits:
                  - { var:106, quality:1.9676191329956055e+01,
                      le:2.6298472285270691e-01 }
            -
               depth: 4
               value: 3.
               norm_class_idx: 2
               splits:
                  - { var:15, quality:1.2076923370361328e+01,
                      le:7.5086349248886108e-01 }
            -
               depth: 5
               value: 6.
               norm_class_idx: 5
            -
               depth: 5
               value: 3.
               norm_class_idx: 2
            -
               depth: 4
               value: 5.
               norm_class_idx: 4
               splits:
                  - { var:73, quality:14., le:-3.3198237419128418e-01 }
            -
               depth: 5
               value: 5.
               norm_class_idx: 4
            -
               depth: 5
               value: 3.
               norm_class_idx: 2
            -
               depth: 2
               value: 1.
               norm_class_idx: 0
               splits:
                  - { var:131, quality:4.7810482025146484e+01,
                      le:4.6351730823516846e-01 }
            -
               depth: 3
               value: 1.
               norm_class_idx: 0
               splits:
                  - { var:43, quality:4.6142856597900391e+01,
                      le:-5.5279791355133057e-01 }
            -
               depth: 4
               value: 6.
               norm_class_idx: 5
               splits:
                  - { var:97, quality:2.1145454406738281e+01,
                      le:4.3430489301681519e-01 }
            -
               depth: 5
               value: 2.
               norm_class_idx: 1
            -
               depth: 5
               value: 6.
               norm_class_idx: 5
            -
               depth: 4
               value: 1.
               norm_class_idx: 0
               splits:
                  - { var:105, quality:4.3424018859863281e+01,
                      le:3.2012167572975159e-01 }
            -
               depth: 5
               value: 3.
               norm_class_idx: 2
            -
               depth: 5
               value: 1.
               norm_class_idx: 0
            -
               depth: 3
               value: 4.
               norm_class_idx: 3
               splits:
                  - { var:8, quality:1.9187500000000000e+01,
                      le:-6.3910222053527832e-01 }
            -
               depth: 4
               value: 4.
               norm_class_idx: 3
               splits:
                  - { var:22, quality:1.8239999771118164e+01,
                      le:5.4453086853027344e-01 }
            -
               depth: 5
               value: 7.
               norm_class_idx: 6
            -
               depth: 5
               value: 4.
               norm_class_idx: 3
            -
               depth: 4
               value: 7.
               norm_class_idx: 6
               splits:
                  - { var:110, quality:12., le:2.0645797252655029e-01 }
            -
               depth: 5
               value: 7.
               norm_class_idx: 6
            -
               depth: 5
               value: 5.
               norm_class_idx: 4
            -
               depth: 1
               value: 7.
               norm_class_idx: 6
               splits:
                  - { var:20, quality:55., le:4.2821264266967773e-01 }
            -
               depth: 2
               value: 7.
               norm_class_idx: 6
            -
               depth: 2
               value: 3.
               norm_class_idx: 2
      -
         nodes:
            -
               depth: 0
               value: 5.
               norm_class_idx: 4
               splits:
                  - { var:113, quality:1.1451203918457031e+02,
                      le:6.4984220266342163e-01 }
            -
               depth: 1
               value: 5.
               norm_class_idx: 4
               splits:
                  - { var:123, quality:7.6393074035644531e+01,
                      le:3.4404319524765015e-01 }
            -
               depth: 2
               value: 5.
               norm_class_idx: 4
               splits:
                  - { var:120, quality:7.3685119628906250e+01,
                      le:-2.7936306595802307e-01 }
            -
               depth: 3
               value: 5.
               norm_class_idx: 4
               splits:
                  - { var:78, quality:6.8305557250976563e+01,
                      le:-1.4903354644775391e-01 }
            -
               depth: 4
               value: 5.
               norm_class_idx: 4
               splits:
                  - { var:110, quality:6.5587303161621094e+01,
                      le:2.2268316149711609e-01 }
            -
               depth: 5
               value: 5.
               norm_class_idx: 4
            -
               depth: 5
               value: 5.
               norm_class_idx: 4
            -
               depth: 4
               value: 4.
               norm_class_idx: 3
            -
               depth: 3
               value: 3.
               norm_class_idx: 2
               splits:
                  - { var:133, quality:1.8653846740722656e+01,
                      le:3.4415522217750549e-01 }
            -
               depth: 4
               value: 1.
               norm_class_idx: 0
               splits:
                  - { var:127, quality:1.2666666984558105e+01,
                      le:2.7440297603607178e-01 }
            -
               depth: 5
               value: 3.
               norm_class_idx: 2
            -
               depth: 5
               value: 1.
               norm_class_idx: 0
            -
               depth: 4
               value: 3.
               norm_class_idx: 2
               splits:
                  - { var:135, quality:13., le:4.3615561723709106e-01 }
            -
               depth: 5
               value: 3.
               norm_class_idx: 2
            -
               depth: 5
               value: 7.
               norm_class_idx: 6
            -
               depth: 2
               value: 3.
               norm_class_idx: 2
               splits:
                  - { var:135, quality:4.4598640441894531e+01,
                      le:4.3795794248580933e-01 }
            -
               depth: 3
               value: 3.
               norm_class_idx: 2
               splits:
                  - { var:104, quality:3.8404998779296875e+01,
                      le:1.0484747588634491e-01 }
            -
               depth: 4
               value: 6.
               norm_class_idx: 5
               splits:
                  - { var:109, quality:3.5229167938232422e+01,
                      le:4.3879732489585876e-01 }
            -
               depth: 5
               value: 1.
               norm_class_idx: 0
            -
               depth: 5
               value: 6.
               norm_class_idx: 5
            -
               depth: 4
               value: 3.
               norm_class_idx: 2
               splits:
                  - { var:134, quality:1.8303030014038086e+01,
                      le:-3.1559806317090988e-02 }
            -
               depth: 5
               value: 3.
               norm_class_idx: 2
            -
               depth: 5
               value: 1.
               norm_class_idx: 0
            -
               depth: 3
               value: 4.
               norm_class_idx: 3
               splits:
                  - { var:91, quality:2.1555555343627930e+01,
                      le:-2.7764546871185303e-01 }
            -
               depth: 4
               value: 4.
               norm_class_idx: 3
               splits:
                  - { var:115, quality:2.3452381134033203e+01,
                      le:5.8595800399780273e-01 }
            -
               depth: 5
               value: 1.
               norm_class_idx: 0
            -
               depth: 5
               value: 4.
               norm_class_idx: 3
            -
               depth: 4
               value: 5.
               norm_class_idx: 4
            -
               depth: 1
               value: 7.
               norm_class_idx: 6
               splits:
                  - { var:90, quality:68., le:5.2645146846771240e-01 }
            -
               depth: 2
               value: 7.
               norm_class_idx: 6
            -
               depth: 2
               value: 4.
               norm_class_idx: 3
      -
         nodes:
            -
               depth: 0
               value: 5.
               norm_class_idx: 4
               splits:
                  - { var:115, quality:1.2642292022705078e+02,
                      le:6.4128965139389038e-01 }
            -
               depth: 1
               value: 5.
               norm_class_idx: 4
               splits:
                  - { var:110, quality:8.2302970886230469e+01,
                      le:2.2897221148014069e-01 }
            -
               depth: 2
               value: 3.
               norm_class_idx: 2
               splits:
                  - { var:69, quality:4.2544330596923828e+01,
                      le:1.5172165632247925e-01 }
            -
               depth: 3
               value: 3.
               norm_class_idx: 2
               splits:
                  - { var:99, quality:3.5973804473876953e+01,
                      le:2.7596223354339600e-01 }
            -
               depth: 4
               value: 3.
               norm_class_idx: 2
               splits:
                  - { var:43, quality:22., le:-4.9162942171096802e-01 }
            -
               depth: 5
               value: 3.
               norm_class_idx: 2
            -
               depth: 5
               value: 1.
               norm_class_idx: 0
            -
               depth: 4
               value: 1.
               norm_class_idx: 0
               splits:
                  - { var:55, quality:2.7453489303588867e+01,
                      le:-3.7391993403434753e-01 }
            -
               depth: 5
               value: 1.
               norm_class_idx: 0
            -
               depth: 5
               value: 3.
               norm_class_idx: 2
            -
               depth: 3
               value: 1.
               norm_class_idx: 0
               splits:
                  - { var:45, quality:2.2716667175292969e+01,
                      le:-5.4169404506683350e-01 }
            -
               depth: 4
               value: 2.
               norm_class_idx: 1
               splits:
                  - { var:96, quality:1.9076923370361328e+01,
                      le:-3.4255504608154297e-01 }
            -
               depth: 5
               value: 2.
               norm_class_idx: 1
            -
               depth: 5
               value: 6.
               norm_class_idx: 5
            -
               depth: 4
               value: 1.
               norm_class_idx: 0
               splits:
                  - { var:6, quality:1.8117647171020508e+01,
                      le:-6.0967445373535156e-01 }
            -
               depth: 5
               value: 1.
               norm_class_idx: 0
            -
               depth: 5
               value: 6.
               norm_class_idx: 5
            -
               depth: 2
               value: 5.
               norm_class_idx: 4
               splits:
                  - { var:99, quality:6.6365386962890625e+01,
                      le:2.9277014732360840e-01 }
            -
               depth: 3
               value: 5.
               norm_class_idx: 4
               splits:
                  - { var:10, quality:6.2558822631835938e+01,
                      le:-4.5814996957778931e-01 }
            -
               depth: 4
               value: 5.
               norm_class_idx: 4
               splits:
                  - { var:27, quality:6.1129032135009766e+01,
                      le:3.3469042181968689e-01 }
            -
               depth: 5
               value: 5.
               norm_class_idx: 4
            -
               depth: 5
               value: 4.
               norm_class_idx: 3
            -
               depth: 4
               value: 3.
               norm_class_idx: 2
            -
               depth: 3
               value: 3.
               norm_class_idx: 2
               splits:
                  - { var:97, quality:1.5401802062988281e+01,
                      le:4.4022899866104126e-01 }
            -
               depth: 4
               value: 3.
               norm_class_idx: 2
               splits:
                  - { var:108, quality:1.8559005737304688e+01,
                      le:3.6733597517013550e-01 }
            -
               depth: 5
               value: 3.
               norm_class_idx: 2
            -
               depth: 5
               value: 5.
               norm_class_idx: 4
            -
               depth: 4
               value: 4.
               norm_class_idx: 3
               splits:
                  - { var:122, quality:9., le:-4.4723421335220337e-02 }
            -
               depth: 5
               value: 4.
               norm_class_idx: 3
            -
               depth: 5
               value: 6.
               norm_class_idx: 5
            -
               depth: 1
               value: 7.
               norm_class_idx: 6
               splits:
                  - { var:120, quality:7.5026313781738281e+01,
                      le:-2.9741704463958740e-01 }
            -
               depth: 2
               value: 4.
               norm_class_idx: 3
            -
               depth: 2
               value: 7.
               norm_class_idx: 6
               splits:
                  - { var:67, quality:75., le:1.9006985425949097e-01 }
            -
               depth: 3
               value: 7.
               norm_class_idx: 6
            -
               depth: 3
               value: 2.
               norm_class_idx: 1
      -
         nodes:
            -
               depth: 0
               value: 7.
               norm_class_idx: 6
               splits:
                  - { var:113, quality:1.3274778747558594e+02,
                      le:6.2450909614562988e-01 }
            -
               depth: 1
               value: 5.
               norm_class_idx: 4
               splits:
                  - { var:118, quality:7.8238945007324219e+01,
                      le:-2.5161951780319214e-01 }
            -
               depth: 2
               value: 5.
               norm_class_idx: 4
               splits:
                  - { var:100, quality:4.9133335113525391e+01,
                      le:-1.6384445130825043e-01 }
            -
               depth: 3
               value: 2.
               norm_class_idx: 1
            -
               depth: 3
               value: 5.
               norm_class_idx: 4
               splits:
                  - { var:123, quality:5.5714286804199219e+01,
                      le:3.6404520273208618e-01 }
            -
               depth: 4
               value: 5.
               norm_class_idx: 4
            -
               depth: 4
               value: 4.
               norm_class_idx: 3
            -
               depth: 2
               value: 3.
               norm_class_idx: 2
               splits:
                  - { var:121, quality:4.2778095245361328e+01,
                      le:4.7020992636680603e-01 }
            -
               depth: 3
               value: 3.
               norm_class_idx: 2
               splits:
                  - { var:112, quality:3.9888889312744141e+01,
                      le:1.0318385809659958e-01 }
            -
               depth: 4
               value: 1.
               norm_class_idx: 0
               splits:
                  - { var:51, quality:2.6090322494506836e+01,
                      le:-6.6788733005523682e-01 }
            -
               depth: 5
               value: 2.
               norm_class_idx: 1
            -
               depth: 5
               value: 1.
               norm_class_idx: 0
            -
               depth: 4
               value: 3.
               norm_class_idx: 2
               splits:
                  - { var:120, quality:3.5242424011230469e+01,
                      le:-2.6799052953720093e-01 }
            -
               depth: 5
               value: 5.
               norm_class_idx: 4
            -
               depth: 5
               value: 3.
               norm_class_idx: 2
            -
               depth: 3
               value: 6.
               norm_class_idx: 5
               splits:
                  - { var:121, quality:1.7133333206176758e+01,
                      le:4.9526420235633850e-01 }
            -
               depth: 4
               value: 6.
               norm_class_idx: 5
               splits:
                  - { var:80, quality:1.3666666984558105e+01,
                      le:-3.2072144746780396e-01 }
            -
               depth: 5
               value: 6.
               norm_class_idx: 5
            -
               depth: 5
               value: 6.
               norm_class_idx: 5
            -
               depth: 4
               value: 4.
               norm_class_idx: 3
            -
               depth: 1
               value: 7.
               norm_class_idx: 6
               splits:
                  - { var:24, quality:95., le:7.0750820636749268e-01 }
            -
               depth: 2
               value: 7.
               norm_class_idx: 6
            -
               depth: 2
               value: 4.
               norm_class_idx: 3
      -
         nodes:
            -
               depth: 0
               value: 7.
               norm_class_idx: 6
               splits:
                  - { var:113, quality:1.2156579589843750e+02,
                      le:6.3278007507324219e-01 }
            -
               depth: 1
               value: 5.
               norm_class_idx: 4
               splits:
                  - { var:108, quality:8.6618965148925781e+01,
                      le:3.9590018987655640e-01 }
            -
               depth: 2
               value: 3.
               norm_class_idx: 2
               splits:
                  - { var:67, quality:4.8121261596679688e+01,
                      le:1.6966003179550171e-01 }
            -
               depth: 3
               value: 3.
               norm_class_idx: 2
               splits:
                  - { var:121, quality:4.0296676635742188e+01,
                      le:2.8814226388931274e-01 }
            -
               depth: 4
               value: 5.
               norm_class_idx: 4
               splits:
                  - { var:128, quality:1.5399999618530273e+01,
                      le:2.8144210577011108e-01 }
            -
               depth: 5
               value: 3.
               norm_class_idx: 2
            -
               depth: 5
               value: 5.
               norm_class_idx: 4
            -
               depth: 4
               value: 3.
               norm_class_idx: 2
               splits:
                  - { var:77, quality:3.9387424468994141e+01,
                      le:-4.5223563909530640e-01 }
            -
               depth: 5
               value: 6.
               norm_class_idx: 5
            -
               depth: 5
               value: 3.
               norm_class_idx: 2
            -
               depth: 3
               value: 6.
               norm_class_idx: 5
               splits:
                  - { var:116, quality:2.2117895126342773e+01,
                      le:-1.1918640136718750e-01 }
            -
               depth: 4
               value: 4.
               norm_class_idx: 3
               splits:
                  - { var:90, quality:1.5250000000000000e+01,
                      le:5.1243472099304199e-01 }
            -
               depth: 5
               value: 4.
               norm_class_idx: 3
            -
               depth: 5
               value: 2.
               norm_class_idx: 1
            -
               depth: 4
               value: 1.
               norm_class_idx: 0
               splits:
                  - { var:56, quality:2.0465116500854492e+01,
                      le:-1.9894083961844444e-02 }
            -
               depth: 5
               value: 2.
               norm_class_idx: 1
            -
               depth: 5
               value: 1.
               norm_class_idx: 0
            -
               depth: 2
               value: 5.
               norm_class_idx: 4
               splits:
                  - { var:65, quality:6.3272727966308594e+01,
                      le:1.3928537070751190e-01 }
            -
               depth: 3
               value: 5.
               norm_class_idx: 4
            -
               depth: 3
               value: 4.
               norm_class_idx: 3
               splits:
                  - { var:135, quality:8.2222223281860352e+00,
                      le:4.5687031745910645e-01 }
            -
               depth: 4
               value: 2.
               norm_class_idx: 1
            -
               depth: 4
               value: 4.
               norm_class_idx: 3
            -
               depth: 1
               value: 7.
               norm_class_idx: 6
               splits:
                  - { var:105, quality:81., le:3.2458385825157166e-01 }
            -
               depth: 2
               value: 7.
               norm_class_idx: 6
            -
               depth: 2
               value: 4.
               norm_class_idx: 3
      -
         nodes:
            -
               depth: 0
               value: 7.
               norm_class_idx: 6
               splits:
                  - { var:133, quality:1.1754219055175781e+02,
                      le:5.4414975643157959e-01 }
            -
               depth: 1
               value: 5.
               norm_class_idx: 4
               splits:
                  - { var:96, quality:9.0371749877929688e+01,
                      le:-3.7675401568412781e-01 }
            -
               depth: 2
               value: 5.
               norm_class_idx: 4
               splits:
                  - { var:125, quality:6.6980155944824219e+01,
                      le:3.7176582217216492e-01 }
            -
               depth: 3
               value: 5.
               norm_class_idx: 4
               splits:
                  - { var:131, quality:61., le:3.3011737465858459e-01 }
            -
               depth: 4
               value: 3.
               norm_class_idx: 2
            -
               depth: 4
               value: 5.
               norm_class_idx: 4
            -
               depth: 3
               value: 4.
               norm_class_idx: 3
               splits:
                  - { var:131, quality:1.5666666984558105e+01,
                      le:4.5650124549865723e-01 }
            -
               depth: 4
               value: 2.
               norm_class_idx: 1
            -
               depth: 4
               value: 4.
               norm_class_idx: 3
            -
               depth: 2
               value: 3.
               norm_class_idx: 2
               splits:
                  - { var:65, quality:5.5763324737548828e+01,
                      le:1.2247613072395325e-01 }
            -
               depth: 3
               value: 3.
               norm_class_idx: 2
               splits:
                  - { var:37, quality:3.5479999542236328e+01,
                      le:-6.9388312101364136e-01 }
            -
               depth: 4
               value: 6.
               norm_class_idx: 5
            -
               depth: 4
               value: 3.
               norm_class_idx: 2
               splits:
                  - { var:120, quality:3.9151515960693359e+01,
                      le:-2.9520994424819946e-01 }
            -
               depth: 5
               value: 5.
               norm_class_idx: 4
            -
               depth: 5
               value: 3.
               norm_class_idx: 2
            -
               depth: 3
               value: 1.
               norm_class_idx: 0
               splits:
                  - { var:131, quality:3.5745414733886719e+01,
                      le:4.7187393903732300e-01 }
            -
               depth: 4
               value: 1.
               norm_class_idx: 0
               splits:
                  - { var:99, quality:4.0947368621826172e+01,
                      le:3.3296340703964233e-01 }
            -
               depth: 5
               value: 3.
               norm_class_idx: 2
            -
               depth: 5
               value: 1.
               norm_class_idx: 0
            -
               depth: 4
               value: 4.
               norm_class_idx: 3
               splits:
                  - { var:67, quality:1.7600000381469727e+01,
                      le:1.6253301501274109e-01 }
            -
               depth: 5
               value: 7.
               norm_class_idx: 6
            -
               depth: 5
               value: 4.
               norm_class_idx: 3
            -
               depth: 1
               value: 7.
               norm_class_idx: 6
               splits:
                  - { var:48, quality:70., le:4.6873521804809570e-01 }
            -
               depth: 2
               value: 7.
               norm_class_idx: 6
            -
               depth: 2
               value: 4.
               norm_class_idx: 3
      -
         nodes:
            -
               depth: 0
               value: 7.
               norm_class_idx: 6
               splits:
                  - { var:117, quality:1.3511692810058594e+02,
                      le:6.2501657009124756e-01 }
            -
               depth: 1
               value: 3.
               norm_class_idx: 2
               splits:
                  - { var:121, quality:6.9733329772949219e+01,
                      le:3.3550173044204712e-01 }
            -
               depth: 2
               value: 5.
               norm_class_idx: 4
               splits:
                  - { var:96, quality:4.6936363220214844e+01,
                      le:-2.7635100483894348e-01 }
            -
               depth: 3
               value: 5.
               norm_class_idx: 4
               splits:
                  - { var:115, quality:4.1500000000000000e+01,
                      le:4.4497904181480408e-01 }
            -
               depth: 4
               value: 5.
               norm_class_idx: 4
            -
               depth: 4
               value: 5.
               norm_class_idx: 4
            -
               depth: 3
               value: 3.
               norm_class_idx: 2
            -
               depth: 2
               value: 1.
               norm_class_idx: 0
               splits:
                  - { var:43, quality:4.5271427154541016e+01,
                      le:-4.8736929893493652e-01 }
            -
               depth: 3
               value: 1.
               norm_class_idx: 0
               splits:
                  - { var:128, quality:3.8782230377197266e+01,
                      le:3.4058088064193726e-01 }
            -
               depth: 4
               value: 1.
               norm_class_idx: 0
               splits:
                  - { var:105, quality:4.2412666320800781e+01,
                      le:2.5823757052421570e-01 }
            -
               depth: 5
               value: 3.
               norm_class_idx: 2
            -
               depth: 5
               value: 1.
               norm_class_idx: 0
            -
               depth: 4
               value: 4.
               norm_class_idx: 3
               splits:
                  - { var:17, quality:1.8086538314819336e+01,
                      le:9.9225980043411255e-01 }
            -
               depth: 5
               value: 4.
               norm_class_idx: 3
            -
               depth: 5
               value: 5.
               norm_class_idx: 4
            -
               depth: 3
               value: 3.
               norm_class_idx: 2
               splits:
                  - { var:121, quality:2.3639999389648438e+01,
                      le:4.1824334859848022e-01 }
            -
               depth: 4
               value: 3.
               norm_class_idx: 2
               splits:
                  - { var:45, quality:2.3083333969116211e+01,
                      le:-4.1143524646759033e-01 }
            -
               depth: 5
               value: 3.
               norm_class_idx: 2
            -
               depth: 5
               value: 5.
               norm_class_idx: 4
            -
               depth: 4
               value: 1.
               norm_class_idx: 0
            -
               depth: 1
               value: 7.
               norm_class_idx: 6
               splits:
                  - { var:94, quality:9.4571426391601563e+01,
                      le:3.0381530523300171e-01 }
            -
               depth: 2
               value: 7.
               norm_class_idx: 6
            -
               depth: 2
               value: 4.
               norm_class_idx: 3
      -
         nodes:
            -
               depth: 0
               value: 5.
               norm_class_idx: 4
               splits:
                  - { var:113, quality:1.0655971527099609e+02,
                      le:6.5867912769317627e-01 }
            -
               depth: 1
               value: 5.
               norm_class_idx: 4
               splits:
                  - { var:128, quality:8.4360740661621094e+01,
                      le:3.5161209106445313e-01 }
            -
               depth: 2
               value: 3.
               norm_class_idx: 2
               splits:
                  - { var:101, quality:5.2208030700683594e+01,
                      le:2.7495849132537842e-01 }
            -
               depth: 3
               value: 3.
               norm_class_idx: 2
               splits:
                  - { var:92, quality:3.5749069213867188e+01,
                      le:4.0209227800369263e-01 }
            -
               depth: 4
               value: 5.
               norm_class_idx: 4
               splits:
                  - { var:100, quality:1.5679738998413086e+01,
                      le:-9.0098112821578979e-02 }
            -
               depth: 5
               value: 5.
               norm_class_idx: 4
            -
               depth: 5
               value: 1.
               norm_class_idx: 0
            -
               depth: 4
               value: 3.
               norm_class_idx: 2
               splits:
                  - { var:96, quality:3.3666667938232422e+01,
                      le:-4.0845376253128052e-01 }
            -
               depth: 5
               value: 5.
               norm_class_idx: 4
            -
               depth: 5
               value: 3.
               norm_class_idx: 2
            -
               depth: 3
               value: 1.
               norm_class_idx: 0
               splits:
                  - { var:131, quality:4.2456607818603516e+01,
                      le:4.7501569986343384e-01 }
            -
               depth: 4
               value: 1.
               norm_class_idx: 0
               splits:
                  - { var:109, quality:2.9541349411010742e+01,
                      le:4.4371902942657471e-01 }
            -
               depth: 5
               value: 1.
               norm_class_idx: 0
            -
               depth: 5
               value: 6.
               norm_class_idx: 5
            -
               depth: 4
               value: 4.
               norm_class_idx: 3
               splits:
                  - { var:118, quality:2.9109195709228516e+01,
                      le:-1.9040974974632263e-01 }
            -
               depth: 5
               value: 4.
               norm_class_idx: 3
            -
               depth: 5
               value: 7.
               norm_class_idx: 6
            -
               depth: 2
               value: 5.
               norm_class_idx: 4
               splits:
                  - { var:16, quality:4.7678569793701172e+01,
                      le:1.5235707163810730e-01 }
            -
               depth: 3
               value: 5.
               norm_class_idx: 4
               splits:
                  - { var:129, quality:5.2538459777832031e+01,
                      le:3.8408529758453369e-01 }
            -
               depth: 4
               value: 5.
               norm_class_idx: 4
               splits:
                  - { var:100, quality:52., le:-1.7929792404174805e-02 }
            -
               depth: 5
               value: 5.
               norm_class_idx: 4
            -
               depth: 5
               value: 2.
               norm_class_idx: 1
            -
               depth: 4
               value: 4.
               norm_class_idx: 3
            -
               depth: 3
               value: 3.
               norm_class_idx: 2
            -
               depth: 1
               value: 7.
               norm_class_idx: 6
               splits:
                  - { var:115, quality:61., le:6.6865891218185425e-01 }
            -
               depth: 2
               value: 4.
               norm_class_idx: 3
            -
               depth: 2
               value: 7.
               norm_class_idx: 6
      -
         nodes:
            -
               depth: 0
               value: 7.
               norm_class_idx: 6
               splits:
                  - { var:109, quality:1.0873327636718750e+02,
                      le:4.3852576613426208e-01 }
            -
               depth: 1
               value: 5.
               norm_class_idx: 4
               splits:
                  - { var:99, quality:7.0611251831054688e+01,
                      le:2.9762521386146545e-01 }
            -
               depth: 2
               value: 5.
               norm_class_idx: 4
               splits:
                  - { var:113, quality:6.3006172180175781e+01,
                      le:4.6310630440711975e-01 }
            -
               depth: 3
               value: 3.
               norm_class_idx: 2
               splits:
                  - { var:108, quality:1.8879999160766602e+01,
                      le:3.7118428945541382e-01 }
            -
               depth: 4
               value: 3.
               norm_class_idx: 2
               splits:
                  - { var:39, quality:1.9818181991577148e+01,
                      le:-5.2263218164443970e-01 }
            -
               depth: 5
               value: 3.
               norm_class_idx: 2
            -
               depth: 5
               value: 1.
               norm_class_idx: 0
            -
               depth: 4
               value: 5.
               norm_class_idx: 4
            -
               depth: 3
               value: 5.
               norm_class_idx: 4
               splits:
                  - { var:4, quality:5.7731884002685547e+01,
                      le:-7.2499537467956543e-01 }
            -
               depth: 4
               value: 5.
               norm_class_idx: 4
               splits:
                  - { var:41, quality:5.8989009857177734e+01,
                      le:-5.8681863546371460e-01 }
            -
               depth: 5
               value: 5.
               norm_class_idx: 4
            -
               depth: 5
               value: 3.
               norm_class_idx: 2
            -
               depth: 4
               value: 3.
               norm_class_idx: 2
               splits:
                  - { var:133, quality:9.5000000000000000e+00,
                      le:4.2705565690994263e-01 }
            -
               depth: 5
               value: 3.
               norm_class_idx: 2
            -
               depth: 5
               value: 4.
               norm_class_idx: 3
            -
               depth: 2
               value: 1.
               norm_class_idx: 0
               splits:
                  - { var:119, quality:2.8833333969116211e+01,
                      le:4.5171990990638733e-01 }
            -
               depth: 3
               value: 1.
               norm_class_idx: 0
               splits:
                  - { var:16, quality:1.8065790176391602e+01,
                      le:8.0681145191192627e-03 }
            -
               depth: 4
               value: 2.
               norm_class_idx: 1
            -
               depth: 4
               value: 1.
               norm_class_idx: 0
               splits:
                  - { var:47, quality:18., le:-6.6277897357940674e-01 }
            -
               depth: 5
               value: 2.
               norm_class_idx: 1
            -
               depth: 5
               value: 1.
               norm_class_idx: 0
            -
               depth: 3
               value: 3.
               norm_class_idx: 2
               splits:
                  - { var:107, quality:2.6244146347045898e+01,
                      le:3.3890065550804138e-01 }
            -
               depth: 4
               value: 3.
               norm_class_idx: 2
               splits:
                  - { var:63, quality:2.4608695983886719e+01,
                      le:1.1276947706937790e-01 }
            -
               depth: 5
               value: 3.
               norm_class_idx: 2
            -
               depth: 5
               value: 5.
               norm_class_idx: 4
            -
               depth: 4
               value: 2.
               norm_class_idx: 1
               splits:
                  - { var:93, quality:1.7694444656372070e+01,
                      le:-3.4613543748855591e-01 }
            -
               depth: 5
               value: 1.
               norm_class_idx: 0
            -
               depth: 5
               value: 2.
               norm_class_idx: 1
            -
               depth: 1
               value: 7.
               norm_class_idx: 6
               splits:
                  - { var:115, quality:8.5274856567382813e+01,
                      le:6.4001226425170898e-01 }
            -
               depth: 2
               value: 6.
               norm_class_idx: 5
               splits:
                  - { var:110, quality:1.8758621215820313e+01,
                      le:2.1622699499130249e-01 }
            -
               depth: 3
               value: 6.
               norm_class_idx: 5
               splits:
                  - { var:49, quality:1.4285714149475098e+01,
                      le:-5.5368566513061523e-01 }
            -
               depth: 4
               value: 6.
               norm_class_idx: 5
               splits:
                  - { var:58, quality:1.1842104911804199e+01,
                      le:-1.8039984628558159e-02 }
            -
               depth: 5
               value: 2.
               norm_class_idx: 1
            -
               depth: 5
               value: 6.
               norm_class_idx: 5
            -
               depth: 4
               value: 1.
               norm_class_idx: 0
            -
               depth: 3
               value: 4.
               norm_class_idx: 3
            -
               depth: 2
               value: 7.
               norm_class_idx: 6
               splits:
                  - { var:99, quality:7.8599998474121094e+01,
                      le:3.7971693277359009e-01 }
            -
               depth: 3
               value: 7.
               norm_class_idx: 6
            -
               depth: 3
               value: 4.
               norm_class_idx: 3
      -
         nodes:
            -
               depth: 0
               value: 7.
               norm_class_idx: 6
               splits:
                  - { var:113, quality:1.2676000213623047e+02,
                      le:6.4984220266342163e-01 }
            -
               depth: 1
               value: 5.
               norm_class_idx: 4
               splits:
                  - { var:110, quality:8.1804504394531250e+01,
                      le:2.2892519831657410e-01 }
            -
               depth: 2
               value: 1.
               norm_class_idx: 0
               splits:
                  - { var:63, quality:5.0470588684082031e+01,
                      le:9.0009324252605438e-02 }
            -
               depth: 3
               value: 3.
               norm_class_idx: 2
               splits:
                  - { var:11, quality:3.2944442749023438e+01,
                      le:5.3856438398361206e-01 }
            -
               depth: 4
               value: 1.
               norm_class_idx: 0
            -
               depth: 4
               value: 3.
               norm_class_idx: 2
               splits:
                  - { var:82, quality:3.0848484039306641e+01,
                      le:-3.8815879821777344e-01 }
            -
               depth: 5
               value: 3.
               norm_class_idx: 2
            -
               depth: 5
               value: 1.
               norm_class_idx: 0
            -
               depth: 3
               value: 1.
               norm_class_idx: 0
               splits:
                  - { var:43, quality:3.6718128204345703e+01,
                      le:-5.5441832542419434e-01 }
            -
               depth: 4
               value: 6.
               norm_class_idx: 5
               splits:
                  - { var:133, quality:1.9436975479125977e+01,
                      le:4.4440686702728271e-01 }
            -
               depth: 5
               value: 6.
               norm_class_idx: 5
            -
               depth: 5
               value: 4.
               norm_class_idx: 3
            -
               depth: 4
               value: 1.
               norm_class_idx: 0
               splits:
                  - { var:3, quality:3.1473146438598633e+01,
                      le:-7.2305887937545776e-02 }
            -
               depth: 5
               value: 1.
               norm_class_idx: 0
            -
               depth: 5
               value: 3.
               norm_class_idx: 2
            -
               depth: 2
               value: 5.
               norm_class_idx: 4
               splits:
                  - { var:98, quality:6.6243942260742188e+01,
                      le:-2.3760420083999634e-01 }
            -
               depth: 3
               value: 5.
               norm_class_idx: 4
               splits:
                  - { var:127, quality:6.4500000000000000e+01,
                      le:3.6159771680831909e-01 }
            -
               depth: 4
               value: 5.
               norm_class_idx: 4
            -
               depth: 4
               value: 4.
               norm_class_idx: 3
            -
               depth: 3
               value: 3.
               norm_class_idx: 2
               splits:
                  - { var:107, quality:1.3329923629760742e+01,
                      le:2.7946573495864868e-01 }
            -
               depth: 4
               value: 3.
               norm_class_idx: 2
               splits:
                  - { var:96, quality:1.3888889312744141e+01,
                      le:-2.9462563991546631e-01 }
            -
               depth: 5
               value: 5.
               norm_class_idx: 4
            -
               depth: 5
               value: 3.
               norm_class_idx: 2
            -
               depth: 4
               value: 4.
               norm_class_idx: 3
               splits:
                  - { var:43, quality:9.4444446563720703e+00,
                      le:-6.5380614995956421e-01 }
            -
               depth: 5
               value: 6.
               norm_class_idx: 5
            -
               depth: 5
               value: 4.
               norm_class_idx: 3
            -
               depth: 1
               value: 7.
               norm_class_idx: 6
      -
         nodes:
            -
               depth: 0
               value: 7.
               norm_class_idx: 6
               splits:
                  - { var:0, quality:1.1400380706787109e+02,
                      le:-7.1582567691802979e-01 }
            -
               depth: 1
               value: 5.
               norm_class_idx: 4
               splits:
                  - { var:96, quality:9.4860031127929688e+01,
                      le:-3.7527924776077271e-01 }
            -
               depth: 2
               value: 5.
               norm_class_idx: 4
               splits:
                  - { var:127, quality:6.5093750000000000e+01,
                      le:3.9365309476852417e-01 }
            -
               depth: 3
               value: 5.
               norm_class_idx: 4
               splits:
                  - { var:133, quality:6.2031745910644531e+01,
                      le:3.3837878704071045e-01 }
            -
               depth: 4
               value: 3.
               norm_class_idx: 2
            -
               depth: 4
               value: 5.
               norm_class_idx: 4
               splits:
                  - { var:84, quality:63., le:1.6156986355781555e-01 }
            -
               depth: 5
               value: 1.
               norm_class_idx: 0
            -
               depth: 5
               value: 5.
               norm_class_idx: 4
            -
               depth: 3
               value: 2.
               norm_class_idx: 1
            -
               depth: 2
               value: 3.
               norm_class_idx: 2
               splits:
                  - { var:119, quality:5.5114482879638672e+01,
                      le:5.7398092746734619e-01 }
            -
               depth: 3
               value: 3.
               norm_class_idx: 2
               splits:
                  - { var:47, quality:5.3575683593750000e+01,
                      le:-6.6795784235000610e-01 }
            -
               depth: 4
               value: 6.
               norm_class_idx: 5
               splits:
                  - { var:115, quality:1.3944444656372070e+01,
                      le:4.7845882177352905e-01 }
            -
               depth: 5
               value: 2.
               norm_class_idx: 1
            -
               depth: 5
               value: 6.
               norm_class_idx: 5
            -
               depth: 4
               value: 3.
               norm_class_idx: 2
               splits:
                  - { var:112, quality:5.0860954284667969e+01,
                      le:1.0302490741014481e-01 }
            -
               depth: 5
               value: 1.
               norm_class_idx: 0
            -
               depth: 5
               value: 3.
               norm_class_idx: 2
            -
               depth: 3
               value: 4.
               norm_class_idx: 3
               splits:
                  - { var:128, quality:1.9028846740722656e+01,
                      le:2.5061598420143127e-01 }
            -
               depth: 4
               value: 7.
               norm_class_idx: 6
               splits:
                  - { var:101, quality:1.4333333015441895e+01,
                      le:3.4669709205627441e-01 }
            -
               depth: 5
               value: 7.
               norm_class_idx: 6
            -
               depth: 5
               value: 6.
               norm_class_idx: 5
            -
               depth: 4
               value: 4.
               norm_class_idx: 3
               splits:
                  - { var:83, quality:13., le:-2.0609384775161743e-01 }
            -
               depth: 5
               value: 4.
               norm_class_idx: 3
            -
               depth: 5
               value: 7.
               norm_class_idx: 6
            -
               depth: 1
               value: 7.
               norm_class_idx: 6
               splits:
                  - { var:52, quality:7.0528167724609375e+01,
                      le:6.6170316934585571e-01 }
            -
               depth: 2
               value: 7.
               norm_class_idx: 6
               splits:
                  - { var:131, quality:71., le:4.8659288883209229e-01 }
            -
               depth: 3
               value: 3.
               norm_class_idx: 2
            -
               depth: 3
               value: 7.
               norm_class_idx: 6
            -
               depth: 2
               value: 3.
               norm_class_idx: 2
      -
         nodes:
            -
               depth: 0
               value: 3.
               norm_class_idx: 2
               splits:
                  - { var:119, quality:1.1258054351806641e+02,
                      le:5.7446360588073730e-01 }
            -
               depth: 1
               value: 3.
               norm_class_idx: 2
               splits:
                  - { var:99, quality:7.2469291687011719e+01,
                      le:3.0896604061126709e-01 }
            -
               depth: 2
               value: 5.
               norm_class_idx: 4
               splits:
                  - { var:120, quality:8.8245613098144531e+01,
                      le:-2.9754248261451721e-01 }
            -
               depth: 3
               value: 5.
               norm_class_idx: 4
               splits:
                  - { var:7, quality:5.5036365509033203e+01,
                      le:3.8148635625839233e-01 }
            -
               depth: 4
               value: 5.
               norm_class_idx: 4
               splits:
                  - { var:72, quality:55., le:-4.4090110063552856e-01 }
            -
               depth: 5
               value: 5.
               norm_class_idx: 4
            -
               depth: 5
               value: 4.
               norm_class_idx: 3
            -
               depth: 4
               value: 3.
               norm_class_idx: 2
            -
               depth: 3
               value: 3.
               norm_class_idx: 2
               splits:
                  - { var:50, quality:4.1488719940185547e+01,
                      le:5.3741639852523804e-01 }
            -
               depth: 4
               value: 1.
               norm_class_idx: 0
               splits:
                  - { var:130, quality:8.2222223281860352e+00,
                      le:8.4623754024505615e-02 }
            -
               depth: 5
               value: 1.
               norm_class_idx: 0
            -
               depth: 5
               value: 3.
               norm_class_idx: 2
            -
               depth: 4
               value: 3.
               norm_class_idx: 2
               splits:
                  - { var:41, quality:4.2828670501708984e+01,
                      le:-6.3963502645492554e-01 }
            -
               depth: 5
               value: 3.
               norm_class_idx: 2
            -
               depth: 5
               value: 3.
               norm_class_idx: 2
            -
               depth: 2
               value: 1.
               norm_class_idx: 0
               splits:
                  - { var:98, quality:3.2716442108154297e+01,
                      le:-2.5361287593841553e-01 }
            -
               depth: 3
               value: 4.
               norm_class_idx: 3
               splits:
                  - { var:89, quality:12., le:-4.5091697573661804e-01 }
            -
               depth: 4
               value: 1.
               norm_class_idx: 0
            -
               depth: 4
               value: 4.
               norm_class_idx: 3
            -
               depth: 3
               value: 1.
               norm_class_idx: 0
               splits:
                  - { var:71, quality:32., le:1.2081900238990784e-01 }
            -
               depth: 4
               value: 3.
               norm_class_idx: 2
               splits:
                  - { var:57, quality:3.0133333206176758e+01,
                      le:-2.5214970111846924e-01 }
            -
               depth: 5
               value: 1.
               norm_class_idx: 0
            -
               depth: 5
               value: 3.
               norm_class_idx: 2
            -
               depth: 4
               value: 1.
               norm_class_idx: 0
               splits:
                  - { var:106, quality:2.1522266387939453e+01,
                      le:1.6997945308685303e-01 }
            -
               depth: 5
               value: 1.
               norm_class_idx: 0
            -
               depth: 5
               value: 2.
               norm_class_idx: 1
            -
               depth: 1
               value: 7.
               norm_class_idx: 6
               splits:
                  - { var:113, quality:7.1500000000000000e+01,
                      le:6.3165670633316040e-01 }
            -
               depth: 2
               value: 4.
               norm_class_idx: 3
               splits:
                  - { var:98, quality:1.0666666984558105e+01,
                      le:-1.9136384129524231e-01 }
            -
               depth: 3
               value: 4.
               norm_class_idx: 3
            -
               depth: 3
               value: 6.
               norm_class_idx: 5
            -
               depth: 2
               value: 7.
               norm_class_idx: 6
               splits:
                  - { var:92, quality:6.7428573608398438e+01,
                      le:4.1149902343750000e-01 }
            -
               depth: 3
               value: 7.
               norm_class_idx: 6
            -
               depth: 3
               value: 7.
               norm_class_idx: 6
      -
         nodes:
            -
               depth: 0
               value: 7.
               norm_class_idx: 6
               splits:
                  - { var:113, quality:1.2813577270507813e+02,
                      le:6.3278007507324219e-01 }
            -
               depth: 1
               value: 5.
               norm_class_idx: 4
               splits:
                  - { var:130, quality:6.1179786682128906e+01,
                      le:1.4359977841377258e-01 }
            -
               depth: 2
               value: 3.
               norm_class_idx: 2
               splits:
                  - { var:71, quality:5.0254173278808594e+01,
                      le:1.0725236684083939e-01 }
            -
               depth: 3
               value: 3.
               norm_class_idx: 2
               splits:
                  - { var:98, quality:5.6688526153564453e+01,
                      le:-2.4712097644805908e-01 }
            -
               depth: 4
               value: 5.
               norm_class_idx: 4
            -
               depth: 4
               value: 3.
               norm_class_idx: 2
               splits:
                  - { var:63, quality:3.7160427093505859e+01,
                      le:9.7855165600776672e-02 }
            -
               depth: 5
               value: 3.
               norm_class_idx: 2
            -
               depth: 5
               value: 1.
               norm_class_idx: 0
            -
               depth: 3
               value: 2.
               norm_class_idx: 1
               splits:
                  - { var:129, quality:2.7673469543457031e+01,
                      le:4.2720094323158264e-01 }
            -
               depth: 4
               value: 1.
               norm_class_idx: 0
               splits:
                  - { var:44, quality:2.2183822631835938e+01,
                      le:1.0947348177433014e-01 }
            -
               depth: 5
               value: 1.
               norm_class_idx: 0
            -
               depth: 5
               value: 2.
               norm_class_idx: 1
            -
               depth: 4
               value: 6.
               norm_class_idx: 5
               splits:
                  - { var:24, quality:1.8124401092529297e+01,
                      le:6.4882385730743408e-01 }
            -
               depth: 5
               value: 6.
               norm_class_idx: 5
            -
               depth: 5
               value: 4.
               norm_class_idx: 3
            -
               depth: 2
               value: 5.
               norm_class_idx: 4
               splits:
                  - { var:98, quality:3.8438095092773438e+01,
                      le:-1.8592977523803711e-01 }
            -
               depth: 3
               value: 5.
               norm_class_idx: 4
               splits:
                  - { var:129, quality:3.3058822631835938e+01,
                      le:3.7296301126480103e-01 }
            -
               depth: 4
               value: 5.
               norm_class_idx: 4
               splits:
                  - { var:108, quality:34., le:3.8545185327529907e-01 }
            -
               depth: 5
               value: 3.
               norm_class_idx: 2
            -
               depth: 5
               value: 5.
               norm_class_idx: 4
            -
               depth: 4
               value: 4.
               norm_class_idx: 3
            -
               depth: 3
               value: 3.
               norm_class_idx: 2
               splits:
                  - { var:108, quality:1.1181818008422852e+01,
                      le:3.9161181449890137e-01 }
            -
               depth: 4
               value: 3.
               norm_class_idx: 2
               splits:
                  - { var:132, quality:11., le:7.1752063930034637e-02 }
            -
               depth: 5
               value: 3.
               norm_class_idx: 2
            -
               depth: 5
               value: 7.
               norm_class_idx: 6
            -
               depth: 4
               value: 2.
               norm_class_idx: 1
            -
               depth: 1
               value: 7.
               norm_class_idx: 6
               splits:
                  - { var:67, quality:8.4274093627929688e+01,
                      le:1.7177143692970276e-01 }
            -
               depth: 2
               value: 7.
               norm_class_idx: 6
               splits:
                  - { var:62, quality:83., le:-1.9183754920959473e-01 }
            -
               depth: 3
               value: 5.
               norm_class_idx: 4
            -
               depth: 3
               value: 7.
               norm_class_idx: 6
            -
               depth: 2
               value: 4.
               norm_class_idx: 3
      -
         nodes:
            -
               depth: 0
               value: 7.
               norm_class_idx: 6
               splits:
                  - { var:119, quality:1.2120655822753906e+02,
                      le:5.8336359262466431e-01 }
            -
               depth: 1
               value: 3.
               norm_class_idx: 2
               splits:
                  - { var:128, quality:8.2520050048828125e+01,
                      le:3.3809319138526917e-01 }
            -
               depth: 2
               value: 3.
               norm_class_idx: 2
               splits:
                  - { var:97, quality:5.4924228668212891e+01,
                      le:4.3229526281356812e-01 }
            -
               depth: 3
               value: 3.
               norm_class_idx: 2
               splits:
                  - { var:101, quality:5.3327274322509766e+01,
                      le:3.0377531051635742e-01 }
            -
               depth: 4
               value: 3.
               norm_class_idx: 2
               splits:
                  - { var:109, quality:4.6428569793701172e+01,
                      le:2.3927101492881775e-01 }
            -
               depth: 5
               value: 5.
               norm_class_idx: 4
            -
               depth: 5
               value: 3.
               norm_class_idx: 2
            -
               depth: 4
               value: 1.
               norm_class_idx: 0
               splits:
                  - { var:132, quality:2.0844444274902344e+01,
                      le:-3.4647947177290916e-03 }
            -
               depth: 5
               value: 2.
               norm_class_idx: 1
            -
               depth: 5
               value: 1.
               norm_class_idx: 0
            -
               depth: 3
               value: 1.
               norm_class_idx: 0
               splits:
                  - { var:109, quality:1.8134920120239258e+01,
                      le:4.8388773202896118e-01 }
            -
               depth: 4
               value: 1.
               norm_class_idx: 0
               splits:
                  - { var:80, quality:1.4266010284423828e+01,
                      le:-2.7886846661567688e-01 }
            -
               depth: 5
               value: 1.
               norm_class_idx: 0
            -
               depth: 5
               value: 4.
               norm_class_idx: 3
            -
               depth: 4
               value: 6.
               norm_class_idx: 5
               splits:
                  - { var:105, quality:1.2500000000000000e+01,
                      le:3.6642968654632568e-01 }
            -
               depth: 5
               value: 6.
               norm_class_idx: 5
            -
               depth: 5
               value: 4.
               norm_class_idx: 3
            -
               depth: 2
               value: 5.
               norm_class_idx: 4
               splits:
                  - { var:109, quality:5.1784313201904297e+01,
                      le:3.6738836765289307e-01 }
            -
               depth: 3
               value: 5.
               norm_class_idx: 4
               splits:
                  - { var:16, quality:4.9040000915527344e+01,
                      le:1.7543390393257141e-01 }
            -
               depth: 4
               value: 5.
               norm_class_idx: 4
               splits:
                  - { var:97, quality:50., le:4.0401557087898254e-01 }
            -
               depth: 5
               value: 5.
               norm_class_idx: 4
            -
               depth: 5
               value: 2.
               norm_class_idx: 1
            -
               depth: 4
               value: 3.
               norm_class_idx: 2
            -
               depth: 3
               value: 4.
               norm_class_idx: 3
               splits:
                  - { var:37, quality:7.3333334922790527e+00,
                      le:-6.5200924873352051e-01 }
            -
               depth: 4
               value: 2.
               norm_class_idx: 1
            -
               depth: 4
               value: 4.
               norm_class_idx: 3
            -
               depth: 1
               value: 7.
               norm_class_idx: 6
               splits:
                  - { var:99, quality:8.2571426391601563e+01,
                      le:3.7971693277359009e-01 }
            -
               depth: 2
               value: 7.
               norm_class_idx: 6
            -
               depth: 2
               value: 4.
               norm_class_idx: 3
               splits:
                  - { var:117, quality:9.2727270126342773e+00,
                      le:6.7357647418975830e-01 }
            -
               depth: 3
               value: 4.
               norm_class_idx: 3
               splits:
                  - { var:125, quality:9.6666669845581055e+00,
                      le:4.7473782300949097e-01 }
            -
               depth: 4
               value: 4.
               norm_class_idx: 3
            -
               depth: 4
               value: 2.
               norm_class_idx: 1
            -
               depth: 3
               value: 7.
               norm_class_idx: 6
      -
         nodes:
            -
               depth: 0
               value: 7.
               norm_class_idx: 6
               splits:
                  - { var:115, quality:1.2420664215087891e+02,
                      le:6.4331924915313721e-01 }
            -
               depth: 1
               value: 3.
               norm_class_idx: 2
               splits:
                  - { var:120, quality:8.1826507568359375e+01,
                      le:-3.0205237865447998e-01 }
            -
               depth: 2
               value: 5.
               norm_class_idx: 4
               splits:
                  - { var:99, quality:6.1933334350585938e+01,
                      le:3.0596131086349487e-01 }
            -
               depth: 3
               value: 5.
               norm_class_idx: 4
            -
               depth: 3
               value: 2.
               norm_class_idx: 1
               splits:
                  - { var:131, quality:1.6388889312744141e+01,
                      le:4.3366670608520508e-01 }
            -
               depth: 4
               value: 2.
               norm_class_idx: 1
               splits:
                  - { var:36, quality:1.1896103858947754e+01,
                      le:-6.0913836956024170e-01 }
            -
               depth: 5
               value: 1.
               norm_class_idx: 0
            -
               depth: 5
               value: 2.
               norm_class_idx: 1
            -
               depth: 4
               value: 4.
               norm_class_idx: 3
               splits:
                  - { var:106, quality:1.0181818008422852e+01,
                      le:2.6155924797058105e-01 }
            -
               depth: 5
               value: 4.
               norm_class_idx: 3
            -
               depth: 5
               value: 2.
               norm_class_idx: 1
            -
               depth: 2
               value: 3.
               norm_class_idx: 2
               splits:
                  - { var:133, quality:5.4200000762939453e+01,
                      le:4.7998610138893127e-01 }
            -
               depth: 3
               value: 3.
               norm_class_idx: 2
               splits:
                  - { var:36, quality:5.0981925964355469e+01,
                      le:-6.2529599666595459e-01 }
            -
               depth: 4
               value: 3.
               norm_class_idx: 2
               splits:
                  - { var:123, quality:3.3670993804931641e+01,
                      le:3.7504762411117554e-01 }
            -
               depth: 5
               value: 3.
               norm_class_idx: 2
            -
               depth: 5
               value: 6.
               norm_class_idx: 5
            -
               depth: 4
               value: 1.
               norm_class_idx: 0
               splits:
                  - { var:99, quality:3.4755733489990234e+01,
                      le:2.9032975435256958e-01 }
            -
               depth: 5
               value: 3.
               norm_class_idx: 2
            -
               depth: 5
               value: 1.
               norm_class_idx: 0
            -
               depth: 3
               value: 4.
               norm_class_idx: 3
               splits:
                  - { var:106, quality:1.5137254714965820e+01,
                      le:2.1099866926670074e-01 }
            -
               depth: 4
               value: 1.
               norm_class_idx: 0
            -
               depth: 4
               value: 4.
               norm_class_idx: 3
               splits:
                  - { var:135, quality:17., le:4.7133207321166992e-01 }
            -
               depth: 5
               value: 3.
               norm_class_idx: 2
            -
               depth: 5
               value: 4.
               norm_class_idx: 3
            -
               depth: 1
               value: 7.
               norm_class_idx: 6
               splits:
                  - { var:92, quality:8.1199996948242188e+01,
                      le:4.3021157383918762e-01 }
            -
               depth: 2
               value: 7.
               norm_class_idx: 6
            -
               depth: 2
               value: 4.
               norm_class_idx: 3
      -
         nodes:
            -
               depth: 0
               value: 7.
               norm_class_idx: 6
               splits:
                  - { var:10, quality:1.0888515472412109e+02,
                      le:-4.5285695791244507e-01 }
            -
               depth: 1
               value: 5.
               norm_class_idx: 4
               splits:
                  - { var:120, quality:8.2073234558105469e+01,
                      le:-3.1998556852340698e-01 }
            -
               depth: 2
               value: 5.
               norm_class_idx: 4
               splits:
                  - { var:107, quality:5.9343750000000000e+01,
                      le:3.4169828891754150e-01 }
            -
               depth: 3
               value: 5.
               norm_class_idx: 4
               splits:
                  - { var:131, quality:6.0096775054931641e+01,
                      le:3.2314282655715942e-01 }
            -
               depth: 4
               value: 3.
               norm_class_idx: 2
            -
               depth: 4
               value: 5.
               norm_class_idx: 4
               splits:
                  - { var:97, quality:6.0032787322998047e+01,
                      le:4.1704076528549194e-01 }
            -
               depth: 5
               value: 5.
               norm_class_idx: 4
            -
               depth: 5
               value: 4.
               norm_class_idx: 3
            -
               depth: 3
               value: 2.
               norm_class_idx: 1
            -
               depth: 2
               value: 3.
               norm_class_idx: 2
               splits:
                  - { var:106, quality:4.3566631317138672e+01,
                      le:1.5978857874870300e-01 }
            -
               depth: 3
               value: 7.
               norm_class_idx: 6
               splits:
                  - { var:121, quality:2.2782608032226563e+01,
                      le:4.3192291259765625e-01 }
            -
               depth: 4
               value: 1.
               norm_class_idx: 0
            -
               depth: 4
               value: 7.
               norm_class_idx: 6
               splits:
                  - { var:135, quality:23., le:4.7557288408279419e-01 }
            -
               depth: 5
               value: 6.
               norm_class_idx: 5
            -
               depth: 5
               value: 7.
               norm_class_idx: 6
            -
               depth: 3
               value: 3.
               norm_class_idx: 2
               splits:
                  - { var:63, quality:3.9366359710693359e+01,
                      le:7.8460678458213806e-02 }
            -
               depth: 4
               value: 3.
               norm_class_idx: 2
               splits:
                  - { var:130, quality:1.8380952835083008e+01,
                      le:7.5730904936790466e-02 }
            -
               depth: 5
               value: 1.
               norm_class_idx: 0
            -
               depth: 5
               value: 3.
               norm_class_idx: 2
            -
               depth: 4
               value: 1.
               norm_class_idx: 0
               splits:
                  - { var:133, quality:3.3185356140136719e+01,
                      le:4.3789631128311157e-01 }
            -
               depth: 5
               value: 1.
               norm_class_idx: 0
            -
               depth: 5
               value: 4.
               norm_class_idx: 3
            -
               depth: 1
               value: 7.
               norm_class_idx: 6
               splits:
                  - { var:97, quality:7.4714286804199219e+01,
                      le:4.1051375865936279e-01 }
            -
               depth: 2
               value: 3.
               norm_class_idx: 2
            -
               depth: 2
               value: 7.
               norm_class_idx: 6
      -
         nodes:
            -
               depth: 0
               value: 7.
               norm_class_idx: 6
               splits:
                  - { var:133, quality:1.2664252471923828e+02,
                      le:5.2479708194732666e-01 }
            -
               depth: 1
               value: 5.
               norm_class_idx: 4
               splits:
                  - { var:65, quality:6.5082046508789063e+01,
                      le:1.3884332776069641e-01 }
            -
               depth: 2
               value: 5.
               norm_class_idx: 4
               splits:
                  - { var:106, quality:6.8772346496582031e+01,
                      le:2.3344102501869202e-01 }
            -
               depth: 3
               value: 3.
               norm_class_idx: 2
               splits:
                  - { var:114, quality:2.8071428298950195e+01,
                      le:1.4261452481150627e-02 }
            -
               depth: 4
               value: 3.
               norm_class_idx: 2
               splits:
                  - { var:86, quality:2.3219942092895508e+01,
                      le:2.7734917402267456e-01 }
            -
               depth: 5
               value: 5.
               norm_class_idx: 4
            -
               depth: 5
               value: 3.
               norm_class_idx: 2
            -
               depth: 4
               value: 1.
               norm_class_idx: 0
               splits:
                  - { var:47, quality:1.5476190567016602e+01,
                      le:-6.1490863561630249e-01 }
            -
               depth: 5
               value: 6.
               norm_class_idx: 5
            -
               depth: 5
               value: 1.
               norm_class_idx: 0
            -
               depth: 3
               value: 5.
               norm_class_idx: 4
               splits:
                  - { var:99, quality:6.2733333587646484e+01,
                      le:2.9762521386146545e-01 }
            -
               depth: 4
               value: 5.
               norm_class_idx: 4
               splits:
                  - { var:122, quality:5.8666667938232422e+01,
                      le:-5.4128691554069519e-02 }
            -
               depth: 5
               value: 5.
               norm_class_idx: 4
            -
               depth: 5
               value: 3.
               norm_class_idx: 2
            -
               depth: 4
               value: 3.
               norm_class_idx: 2
            -
               depth: 2
               value: 4.
               norm_class_idx: 3
               splits:
                  - { var:135, quality:2.9988376617431641e+01,
                      le:4.8411792516708374e-01 }
            -
               depth: 3
               value: 1.
               norm_class_idx: 0
               splits:
                  - { var:43, quality:2.2852380752563477e+01,
                      le:-5.5441832542419434e-01 }
            -
               depth: 4
               value: 6.
               norm_class_idx: 5
               splits:
                  - { var:121, quality:1.6666666030883789e+01,
                      le:4.3911811709403992e-01 }
            -
               depth: 5
               value: 2.
               norm_class_idx: 1
            -
               depth: 5
               value: 6.
               norm_class_idx: 5
            -
               depth: 4
               value: 1.
               norm_class_idx: 0
               splits:
                  - { var:103, quality:1.8177885055541992e+01,
                      le:3.5900223255157471e-01 }
            -
               depth: 5
               value: 3.
               norm_class_idx: 2
            -
               depth: 5
               value: 1.
               norm_class_idx: 0
            -
               depth: 3
               value: 4.
               norm_class_idx: 3
               splits:
                  - { var:74, quality:2.3040000915527344e+01,
                      le:-3.8726586103439331e-01 }
            -
               depth: 4
               value: 4.
               norm_class_idx: 3
               splits:
                  - { var:98, quality:2.1757575988769531e+01,
                      le:-1.6865178942680359e-01 }
            -
               depth: 5
               value: 4.
               norm_class_idx: 3
            -
               depth: 5
               value: 6.
               norm_class_idx: 5
            -
               depth: 4
               value: 7.
               norm_class_idx: 6
            -
               depth: 1
               value: 7.
               norm_class_idx: 6
               splits:
                  - { var:129, quality:8.3160919189453125e+01,
                      le:5.6995260715484619e-01 }
            -
               depth: 2
               value: 7.
               norm_class_idx: 6
               splits:
                  - { var:24, quality:8.5666664123535156e+01,
                      le:6.7962110042572021e-01 }
            -
               depth: 3
               value: 7.
               norm_class_idx: 6
            -
               depth: 3
               value: 4.
               norm_class_idx: 3
            -
               depth: 2
               value: 2.
               norm_class_idx: 1
      -
         nodes:
            -
               depth: 0
               value: 7.
               norm_class_idx: 6
               splits:
                  - { var:32, quality:1.1588283538818359e+02,
                      le:7.6786398887634277e-01 }
            -
               depth: 1
               value: 7.
               norm_class_idx: 6
               splits:
                  - { var:113, quality:8.3235290527343750e+01,
                      le:6.2561553716659546e-01 }
            -
               depth: 2
               value: 3.
               norm_class_idx: 2
               splits:
                  - { var:130, quality:5.9000000953674316e+00,
                      le:1.0363532602787018e-01 }
            -
               depth: 3
               value: 1.
               norm_class_idx: 0
               splits:
                  - { var:115, quality:5.2571430206298828e+00,
                      le:4.3745106458663940e-01 }
            -
               depth: 4
               value: 1.
               norm_class_idx: 0
            -
               depth: 4
               value: 4.
               norm_class_idx: 3
            -
               depth: 3
               value: 3.
               norm_class_idx: 2
            -
               depth: 2
               value: 7.
               norm_class_idx: 6
            -
               depth: 1
               value: 3.
               norm_class_idx: 2
               splits:
                  - { var:128, quality:7.7106071472167969e+01,
                      le:3.1554919481277466e-01 }
            -
               depth: 2
               value: 3.
               norm_class_idx: 2
               splits:
                  - { var:63, quality:5.3684921264648438e+01,
                      le:9.0009324252605438e-02 }
            -
               depth: 3
               value: 3.
               norm_class_idx: 2
               splits:
                  - { var:11, quality:3.9387386322021484e+01,
                      le:5.1164644956588745e-01 }
            -
               depth: 4
               value: 1.
               norm_class_idx: 0
            -
               depth: 4
               value: 3.
               norm_class_idx: 2
               splits:
                  - { var:59, quality:37., le:-1.6217571496963501e-01 }
            -
               depth: 5
               value: 5.
               norm_class_idx: 4
            -
               depth: 5
               value: 3.
               norm_class_idx: 2
            -
               depth: 3
               value: 1.
               norm_class_idx: 0
               splits:
                  - { var:59, quality:2.9618867874145508e+01,
                      le:-1.3081669807434082e-01 }
            -
               depth: 4
               value: 1.
               norm_class_idx: 0
               splits:
                  - { var:41, quality:2.7515151977539063e+01,
                      le:-6.2567019462585449e-01 }
            -
               depth: 5
               value: 2.
               norm_class_idx: 1
            -
               depth: 5
               value: 1.
               norm_class_idx: 0
            -
               depth: 4
               value: 3.
               norm_class_idx: 2
               splits:
                  - { var:123, quality:1.7635328292846680e+01,
                      le:3.7999826669692993e-01 }
            -
               depth: 5
               value: 3.
               norm_class_idx: 2
            -
               depth: 5
               value: 1.
               norm_class_idx: 0
            -
               depth: 2
               value: 5.
               norm_class_idx: 4
               splits:
                  - { var:129, quality:5.4958873748779297e+01,
                      le:3.8268277049064636e-01 }
            -
               depth: 3
               value: 5.
               norm_class_idx: 4
               splits:
                  - { var:26, quality:6.0875000000000000e+01,
                      le:8.7708985805511475e-01 }
            -
               depth: 4
               value: 5.
               norm_class_idx: 4
            -
               depth: 4
               value: 3.
               norm_class_idx: 2
               splits:
                  - { var:54, quality:1.4142857551574707e+01,
                      le:1.2428778223693371e-02 }
            -
               depth: 5
               value: 3.
               norm_class_idx: 2
            -
               depth: 5
               value: 2.
               norm_class_idx: 1
            -
               depth: 3
               value: 4.
               norm_class_idx: 3
               splits:
                  - { var:97, quality:1.8083333969116211e+01,
                      le:3.5643711686134338e-01 }
            -
               depth: 4
               value: 5.
               norm_class_idx: 4
            -
               depth: 4
               value: 4.
               norm_class_idx: 3
               splits:
                  - { var:133, quality:1.7333333969116211e+01,
                      le:4.3555405735969543e-01 }
            -
               depth: 5
               value: 6.
               norm_class_idx: 5
            -
               depth: 5
               value: 4.
               norm_class_idx: 3
      -
         nodes:
            -
               depth: 0
               value: 7.
               norm_class_idx: 6
               splits:
                  - { var:115, quality:1.1819742584228516e+02,
                      le:6.4128965139389038e-01 }
            -
               depth: 1
               value: 5.
               norm_class_idx: 4
               splits:
                  - { var:96, quality:9.2793029785156250e+01,
                      le:-3.7401577830314636e-01 }
            -
               depth: 2
               value: 5.
               norm_class_idx: 4
               splits:
                  - { var:42, quality:5.1754901885986328e+01,
                      le:-9.9721863865852356e-02 }
            -
               depth: 3
               value: 5.
               norm_class_idx: 4
               splits:
                  - { var:123, quality:6.0909091949462891e+01,
                      le:3.7490695714950562e-01 }
            -
               depth: 4
               value: 5.
               norm_class_idx: 4
            -
               depth: 4
               value: 4.
               norm_class_idx: 3
               splits:
                  - { var:105, quality:8., le:3.1520193815231323e-01 }
            -
               depth: 5
               value: 4.
               norm_class_idx: 3
            -
               depth: 5
               value: 2.
               norm_class_idx: 1
            -
               depth: 3
               value: 2.
               norm_class_idx: 1
            -
               depth: 2
               value: 1.
               norm_class_idx: 0
               splits:
                  - { var:69, quality:5.6287910461425781e+01,
                      le:1.2869477272033691e-01 }
            -
               depth: 3
               value: 3.
               norm_class_idx: 2
               splits:
                  - { var:118, quality:3.8506668090820313e+01,
                      le:-1.6099971532821655e-01 }
            -
               depth: 4
               value: 3.
               norm_class_idx: 2
               splits:
                  - { var:77, quality:3.0618461608886719e+01,
                      le:-4.2781716585159302e-01 }
            -
               depth: 5
               value: 3.
               norm_class_idx: 2
            -
               depth: 5
               value: 3.
               norm_class_idx: 2
            -
               depth: 4
               value: 1.
               norm_class_idx: 0
               splits:
                  - { var:105, quality:2.1333333969116211e+01,
                      le:2.4668388068675995e-01 }
            -
               depth: 5
               value: 3.
               norm_class_idx: 2
            -
               depth: 5
               value: 1.
               norm_class_idx: 0
            -
               depth: 3
               value: 1.
               norm_class_idx: 0
               splits:
                  - { var:129, quality:3.4776527404785156e+01,
                      le:4.5298039913177490e-01 }
            -
               depth: 4
               value: 1.
               norm_class_idx: 0
               splits:
                  - { var:98, quality:2.2671794891357422e+01,
                      le:-1.8495932221412659e-01 }
            -
               depth: 5
