<?xml version="1.0"?>
<opencv_storage>
<opencv_ml_svm>
  <format>3</format>
  <svmType>C_SVC</svmType>
  <kernel>
    <type>LINEAR</type></kernel>
  <C>50.</C>
  <term_criteria><epsilon>1.1920928955078125e-07</epsilon>
    <iterations>1000</iterations></term_criteria>
  <var_count>136</var_count>
  <class_count>7</class_count>
  <class_labels type_id="opencv-matrix">
    <rows>7</rows>
    <cols>1</cols>
    <dt>i</dt>
    <data>
      1 2 3 4 5 6 7</data></class_labels>
  <sv_total>21</sv_total>
  <support_vectors>
    <_>
      -3.92585993e+00 -1.22596550e+00 -2.61215949e+00 2.74412066e-01
      -1.59840465e+00 9.59176660e-01 -5.47828734e-01 1.48475254e+00
      1.33674228e+00 1.89496970e+00 2.42390084e+00 8.72950673e-01
      1.71156085e+00 7.51797929e-02 1.04977238e+00 -4.97104973e-01
      6.89924806e-02 -1.02473509e+00 3.55958581e-01 1.53749079e-01
      6.31516576e-01 1.12353265e+00 -1.16535366e+00 2.07305565e-01
      -1.26223731e+00 6.89593673e-01 -2.95671582e-01 2.84791023e-01
      -6.27968073e-01 -2.60108054e-01 6.60727024e-01 -8.05873454e-01
      2.18093944e+00 -2.44189048e+00 -2.41972780e+00 3.24234933e-01
      -6.14174362e-03 6.30190015e-01 2.11871290e+00 1.47255099e+00
      3.61090636e+00 3.23920631e+00 6.77190256e+00 1.86358392e+00
      -6.08911371e+00 3.53886628e+00 -3.32395005e+00 4.43474722e+00
      -1.33713257e+00 2.87905455e+00 2.11734867e+00 1.81987834e+00
      3.99310136e+00 2.42475653e+00 -5.75014174e-01 -4.66187298e-01
      -4.95002091e-01 -7.63834774e-01 -2.87448913e-01 -7.49915540e-02 0.
      0. -1.93018591e+00 -1.54805636e+00 -1.24791336e+00 -1.60520113e+00
      -7.98035324e-01 -2.36466312e+00 5.61989367e-01 -1.82153416e+00
      1.47002673e+00 -9.85248208e-01 -1.32726026e+00 -2.04581070e+00
      -6.62817776e-01 2.00581923e-02 -5.65946996e-01 -1.01131403e+00
      -2.53366530e-01 -2.38185859e+00 4.67294790e-02 -3.15597463e+00
      1.45059824e-01 -3.18467188e+00 -1.28418827e+00 -2.41949964e+00
      3.81646037e-01 -1.51841748e+00 9.81669784e-01 -7.97166944e-01
      2.20563769e+00 -9.61065531e-01 4.46978152e-01 -2.46957660e+00
      -4.38746601e-01 -3.21423483e+00 3.83662057e+00 1.88145471e+00
      1.05257094e+00 7.77148545e-01 -5.00793636e-01 1.06054676e+00
      -5.29756963e-01 1.34874320e+00 -6.25000596e-02 1.13135147e+00
      -1.72761166e+00 7.17000723e-01 -2.73976564e+00 3.84076905e+00
      -7.70071983e-01 1.30157924e+00 5.65489307e-02 -8.90888333e-01
      -9.82465148e-02 -9.78311777e-01 -6.20884538e-01 -1.89290047e+00
      7.78248310e-01 -7.79757857e-01 3.37103033e+00 -2.51514316e-01
      -8.23609293e-01 -1.82248271e+00 -4.36468631e-01 -1.27516472e+00
      -2.24281356e-01 -1.65028369e+00 -3.25846982e+00 1.48719454e+00
      -4.49289620e-01 5.79746723e-01 -4.19003516e-01 7.39441693e-01
      -8.09734404e-01 2.14235578e-03</_>
    <_>
      7.79881775e-01 -2.29832220e+00 2.38962084e-01 8.87000978e-01
      3.11683416e-01 1.59847796e+00 -3.75643760e-01 9.02704895e-01
      8.00560474e-01 6.68783069e-01 3.16444397e-01 -2.66006291e-01
      -5.38702263e-03 -5.43349206e-01 1.24493945e+00 -1.27392006e+00
      -3.67710531e-01 -1.87522614e+00 -3.16809011e+00 -1.72178364e+00
      -2.06450963e+00 9.82861936e-01 -3.11668777e+00 8.53044450e-01
      -3.07835221e+00 7.46912539e-01 2.10955113e-01 7.01089978e-01
      -8.71454835e-01 -2.34430805e-01 -1.14461112e+00 -8.27359438e-01
      -8.54471326e-01 -2.33500910e+00 1.52499115e+00 6.82050765e-01
      7.03624904e-01 1.78869203e-01 9.08783302e-02 6.01449549e-01
      9.08392608e-01 7.57637501e-01 3.49281597e+00 8.77875835e-02
      -7.29259205e+00 7.99938321e-01 -2.77863121e+00 -5.15362382e-01
      -4.50410277e-01 -8.93914521e-01 2.25125670e+00 -2.47205520e+00
      3.25927043e+00 -1.31183767e+00 -1.10596406e+00 -1.34224617e+00
      -3.62882733e-01 -1.63254762e+00 -9.18339193e-01 -3.18725467e-01 0.
      0. 2.32675743e+00 6.86462879e+00 1.16788399e+00 1.81271529e+00
      -6.39307201e-01 -1.73418307e+00 -9.70120251e-01 2.63157749e+00
      -1.76786458e+00 5.30690670e+00 1.92199194e+00 -9.56825733e-01
      -5.65548360e-01 -9.39376533e-01 2.31426263e+00 -3.83506656e+00
      7.53313899e-01 -2.93882203e+00 2.36613369e+00 2.80727053e+00
      1.20698285e+00 3.44784594e+00 -5.37810743e-01 -3.10455203e+00
      -8.96366775e-01 -4.52984142e+00 2.48802352e+00 -2.94463921e+00
      1.05154383e+00 -1.66301715e+00 -1.16697446e-01 1.85406351e+00
      -1.16952288e+00 4.02998865e-01 -2.75507689e+00 4.34277916e+00
      8.36192489e-01 7.30877209e+00 1.51362503e+00 5.03847885e+00
      -1.12827539e+00 3.39739084e+00 -4.46757936e+00 4.42429876e+00
      -4.72146243e-01 4.77443314e+00 5.12623501e+00 1.78536499e+00
      4.78659362e-01 -1.67588103e+00 -4.91712856e+00 -3.34407067e+00
      7.16556787e-01 -4.67425680e+00 2.34393787e+00 -3.37192202e+00
      9.53360796e-02 -6.82015061e-01 -4.03932381e+00 3.84757042e+00
      1.97067416e+00 -5.80612898e-01 -2.52350837e-01 -1.79502055e-01
      -4.58087826e+00 -1.70753837e+00 5.06173706e+00 2.39729214e+00
      -3.96533251e+00 -1.06599450e+00 -9.06718895e-02 -9.81379092e-01
      2.25994420e+00 -3.70250016e-01</_>
    <_>
      -1.52488256e+00 -6.21769428e-01 -1.13520586e+00 -3.62543553e-01
      -8.36614966e-01 1.35390088e-01 -3.19689929e-01 2.80470382e-02
      8.49532664e-01 -1.74243107e-01 8.73862624e-01 -9.51970145e-02
      8.24713826e-01 4.42140967e-01 6.37649238e-01 5.48348486e-01
      1.72869816e-01 6.15838945e-01 -3.34529966e-01 6.82917416e-01
      -2.17828676e-01 5.37870884e-01 -5.70754111e-01 -9.71704200e-02
      -5.88145852e-01 -4.59542632e-01 -9.41631123e-02 -5.87832153e-01
      -2.15836599e-01 -6.86724365e-01 -5.90780139e-01 -1.03170538e+00
      -9.78711307e-01 -1.09309590e+00 -1.55280817e+00 4.43538666e-01
      -7.78725564e-01 1.85131595e-01 -4.97874282e-02 7.09178507e-01
      7.84032583e-01 1.62457418e+00 1.80208468e+00 2.12001705e+00
      -1.21669436e+00 2.01688266e+00 -5.93288958e-01 1.06400168e+00
      1.87098473e-01 -2.62253191e-02 1.20420599e+00 -7.62970895e-02
      1.51245224e+00 6.97686136e-01 1.49669826e-01 -8.18844605e-03
      1.09036081e-01 -2.40918368e-01 6.35248795e-02 -7.01209754e-02 0.
      0. -1.46291375e-01 -3.31230253e-01 -1.35282800e-02 -1.66566491e-01
      -5.53089054e-03 -3.86693776e-02 8.29161853e-02 9.85026807e-02
      2.84890622e-01 2.03578949e-01 -8.52691710e-01 -7.87229359e-01
      -6.46224022e-01 4.02728885e-01 -8.82913649e-01 1.64293334e-01
      -5.78795433e-01 -8.49512100e-01 -7.25917399e-01 -8.27141881e-01
      -7.00786829e-01 -7.60335743e-01 4.22272742e-01 -6.10735714e-01
      6.36322379e-01 2.62833327e-01 6.81200802e-01 3.73828590e-01
      7.33475447e-01 -5.29111564e-01 6.46388173e-01 -5.26243091e-01
      6.32896900e-01 -6.17247701e-01 1.71341777e+00 -1.55913043e+00
      1.26242959e+00 1.77689284e-01 2.91865766e-01 1.45664644e+00
      -5.82320988e-02 1.85673690e+00 -3.76184583e-01 1.70880163e+00
      -1.12736201e+00 9.98585343e-01 -9.47178900e-01 -8.45547020e-01
      -9.99263823e-01 -9.32544231e-01 -4.12287414e-01 -8.66855264e-01
      1.28598928e-01 -1.02626729e+00 2.37121686e-01 -1.39857817e+00
      1.18610620e+00 -1.88945544e+00 1.26446617e+00 -1.68225873e+00
      1.72397882e-01 4.92385983e-01 2.29930114e-02 9.60357606e-01
      -3.18918914e-01 6.57744169e-01 -9.66344178e-01 -8.75799477e-01
      -5.26425540e-01 -1.35174584e+00 3.41840051e-02 -1.14046681e+00
      2.47594789e-01 -1.61229491e+00</_>
    <_>
      -2.17745996e+00 -2.14216065e+00 -1.05031204e+00 -1.06597364e+00
      -9.81349349e-01 3.86684030e-01 -1.39101863e-01 5.97340286e-01
      1.65446687e+00 5.64625144e-01 1.86596501e+00 -2.25343287e-01
      6.99538827e-01 -3.80264401e-01 -4.57847416e-01 -8.94193113e-01
      -8.08530211e-01 -1.32386148e+00 -1.06242764e+00 3.84334475e-01
      -1.00201619e+00 1.44522679e+00 -1.61733639e+00 1.80336666e+00
      -1.10668504e+00 1.42882526e+00 8.87984574e-01 1.33896506e+00
      1.01423764e+00 8.41758370e-01 7.21259117e-01 -5.83569705e-01
      1.29911017e+00 -1.80462229e+00 -3.37701619e-01 1.22722661e+00
      -1.93917662e-01 7.04269767e-01 6.52231514e-01 6.25506699e-01
      1.86624885e+00 8.49606752e-01 2.99254298e+00 1.33648658e+00
      -3.68077374e+00 1.59043205e+00 -2.05528355e+00 1.19262481e+00
      -1.49405158e+00 4.82630044e-01 -1.91662356e-01 3.74805689e-01
      4.88709092e-01 6.32336974e-01 -4.27889556e-01 -1.05035996e+00
      -3.85808825e-01 -1.02496195e+00 -3.35949033e-01 -5.30642986e-01 0.
      0. -6.08852327e-01 -8.20335090e-01 -2.05223203e-01 -1.13836610e+00
      5.66265285e-01 -8.92173290e-01 9.72974122e-01 -7.64988005e-01
      1.67194009e+00 -3.14299941e-01 6.44809663e-01 -3.14006537e-01
      2.38517821e-01 -4.55936864e-02 8.51836562e-01 -1.07334781e+00
      4.14205223e-01 -1.66984928e+00 1.42425716e+00 -8.19412172e-02
      2.15838447e-01 3.60656708e-01 -4.10685897e-01 -1.80733490e+00
      -1.25962508e+00 -1.86993790e+00 2.28138864e-01 -1.85282385e+00
      3.11399311e-01 -1.72235048e+00 1.50839508e-01 -1.20331776e+00
      -8.02537918e-01 -1.22456563e+00 3.51165462e+00 3.29684043e+00
      4.43827003e-01 1.59759700e+00 -9.08171296e-01 1.20241725e+00
      -1.28236994e-01 1.36600578e+00 -3.25922340e-01 8.37979794e-01
      -6.80118144e-01 9.82512057e-01 -2.16733932e+00 2.93215919e+00
      -3.34713101e-01 8.32263380e-02 9.20363665e-02 -1.32520247e+00
      5.45176983e-01 -1.82325315e+00 -5.85650578e-02 -1.19991684e+00
      1.01176965e+00 -1.09585561e-01 3.64226723e+00 1.74465775e+00
      -7.92271256e-01 -1.83996975e-01 1.89543590e-01 3.24971139e-01
      -1.66685313e-01 -5.40019989e-01 -2.05745268e+00 1.80143797e+00
      3.84296775e-01 -5.56345105e-01 5.02507865e-01 -3.91078413e-01
      -3.56800497e-01 -7.50744104e-01</_>
    <_>
      -2.17228031e+00 -1.93261063e+00 -1.41348922e+00 -6.42810881e-01
      -1.28803015e-01 3.47522855e-01 5.89439213e-01 -9.70966578e-01
      1.74552655e+00 -5.77597618e-01 3.37863898e+00 6.22535408e-01
      2.22938156e+00 1.48421085e+00 1.54101157e+00 1.53942084e+00
      -1.37186468e-01 1.89700079e+00 -1.39717388e+00 1.41370320e+00
      -1.75293934e+00 5.20407319e-01 -3.31693649e+00 3.91914010e-01
      -1.52185082e+00 1.48768806e+00 8.16364527e-01 2.61504948e-01
      5.74598491e-01 1.24422029e-01 -8.29148650e-01 6.70181140e-02
      8.06839347e-01 -4.49261785e-01 -8.30008030e-01 -1.28381640e-01
      -1.21698582e+00 -1.44500566e+00 3.09923708e-01 -9.16255295e-01
      3.04966837e-01 2.06868768e+00 1.14764214e-01 4.44913340e+00
      -1.18788528e+00 6.77273321e+00 -9.02914882e-01 4.77892494e+00
      4.20559019e-01 -6.00889087e-01 1.71712863e+00 -9.12378848e-01
      1.38698900e+00 1.67417598e+00 -7.28807300e-02 -4.49679971e-01
      -7.40371943e-01 2.51368195e-01 5.88137470e-02 1.62305191e-01 0. 0.
      -3.62158036e+00 -2.50265288e+00 -1.37546051e+00 -2.02926278e+00
      1.19931328e+00 -4.87893671e-01 4.00666094e+00 -2.70951486e+00
      5.11105394e+00 -3.90559292e+00 -1.53916526e+00 3.55462618e-02
      -1.56369102e+00 -1.65949985e-01 1.99390203e-02 -4.77662414e-01
      -7.19420254e-01 6.71860933e-01 -8.18279028e-01 -1.02769685e+00
      -1.47564101e+00 -1.12463534e+00 1.21742964e+00 1.65508533e+00
      1.25629580e+00 -2.85439372e-01 2.19366455e+00 -2.89121568e-01
      3.83795714e+00 9.81331944e-01 2.14012337e+00 -6.29444838e-01
      1.27459419e+00 -3.54663759e-01 -2.75438368e-01 -5.91200256e+00
      1.46271145e+00 8.20801675e-01 8.96436572e-01 3.79953241e+00
      1.48663431e-01 3.01931310e+00 -9.86960411e-01 1.86288702e+00
      -1.34405136e+00 -1.13936341e+00 -7.93549299e-01 -5.22522402e+00
      -9.19350505e-01 -2.98246312e+00 -6.04476668e-02 -1.78528702e+00
      1.10932648e+00 -7.31974304e-01 1.89376771e+00 -9.11689162e-01
      1.76093924e+00 -2.25522780e+00 -1.37460303e+00 -4.18333864e+00
      6.01925433e-01 1.98924613e+00 -9.62984711e-02 1.65384901e+00
      -5.08845925e-01 6.07944369e-01 -4.70177054e-01 -4.57062340e+00
      -4.22020912e-01 8.96015644e-01 9.94461775e-01 2.53682256e+00
      8.59074295e-01 2.15074873e+00</_>
    <_>
      -2.09143448e+00 1.68724805e-01 -1.42530310e+00 5.48718631e-01
      -9.07931566e-01 4.44035083e-01 -9.45072293e-01 2.37439439e-01
      -1.91407442e-01 1.12309657e-01 4.13582236e-01 -3.65892351e-01
      -3.09703141e-01 -3.28254133e-01 -3.12831461e-01 4.28151399e-01
      -1.74203128e-01 4.48565520e-02 1.81302816e-01 7.63910353e-01
      3.87533307e-01 3.33462328e-01 2.60627419e-02 2.12110952e-01
      3.21741462e-01 -1.55475745e-02 2.76036352e-01 -1.92624584e-01
      2.55468607e-01 -2.15433836e-01 3.24235052e-01 8.44593048e-02
      9.32742834e-01 3.36680524e-02 -7.15089142e-01 3.97699207e-01
      1.19291745e-01 1.16700125e+00 9.66218174e-01 1.50814950e+00
      1.74737334e+00 1.75856209e+00 2.30580997e+00 1.36327827e+00
      -1.53299963e+00 1.67268384e+00 -9.72814620e-01 2.32953763e+00
      -3.46188433e-02 2.30070090e+00 9.99656498e-01 2.07828856e+00
      1.97558260e+00 1.59857178e+00 -5.80250174e-02 -3.46447676e-01
      -2.28736371e-01 -2.80031025e-01 -4.41251025e-02 -1.60713062e-01 0.
      0. -5.41372061e-01 2.28688002e-01 -2.12808385e-01 -8.13066065e-02
      -2.76766345e-03 -2.28896111e-01 3.60061496e-01 -9.45463032e-02
      5.91150939e-01 2.49953821e-01 -5.92468321e-01 -1.18236816e+00
      1.82350308e-01 -1.83877304e-01 6.88099265e-02 -2.22787812e-01
      6.39955401e-02 -1.30499184e+00 -1.75748095e-01 -2.02069187e+00
      -9.37665328e-02 -2.16884542e+00 5.59770584e-01 -1.18822694e+00
      9.14446473e-01 -3.46710086e-01 4.67296958e-01 1.73649907e-01
      1.28394544e+00 -7.42339671e-01 2.47938037e-01 -1.83767259e+00
      3.22595835e-01 -2.00581121e+00 4.08189416e-01 6.03940606e-01
      4.05839503e-01 1.27090871e+00 5.51486969e-01 1.63895810e+00
      -2.28111949e-02 1.31566834e+00 -5.53702474e-01 1.01886642e+00
      -5.96918702e-01 5.11101544e-01 -1.17486560e+00 5.03444195e-01
      -3.26217681e-01 -6.83133066e-01 3.84313911e-02 -5.30028999e-01
      -1.25376165e-01 -1.06259990e+00 4.42405879e-01 -3.99301052e-01
      3.49301338e-01 -1.75992355e-01 5.77688813e-01 2.49046624e-01
      7.61120692e-02 5.37608266e-01 -9.11334455e-02 8.31546068e-01
      -5.27265370e-01 5.98227084e-01 -1.10804951e+00 -3.08645219e-01
      -2.95945227e-01 -1.14707327e+00 4.22009043e-02 -9.79468584e-01
      3.50423694e-01 -1.08294165e+00</_>
    <_>
      1.47647548e+00 -2.28334159e-01 1.20593023e+00 -2.31141865e-01
      5.04645705e-01 -1.56578541e-01 -2.83148080e-01 -2.59237569e-02
      -7.37600699e-02 -1.04118958e-01 -6.85792148e-01 -5.49824595e-01
      -5.87022841e-01 -5.26533723e-01 -7.88564444e-01 -1.65141284e+00
      -6.36112511e-01 -1.48408437e+00 -7.65717030e-01 -1.09507382e+00
      -4.48564082e-01 -6.21694505e-01 3.12088668e-01 -3.04925084e-01
      6.34304166e-01 -2.96718657e-01 4.01335865e-01 1.77999020e-01
      2.75363952e-01 -7.21274465e-02 -5.79152226e-01 1.74885944e-01
      -1.01779711e+00 6.68905139e-01 1.73648584e+00 -6.20041609e-01
      8.16453040e-01 -1.43876457e+00 -4.77389246e-01 -1.07219970e+00
      -1.03581262e+00 -1.73779976e+00 -9.85613823e-01 -2.61941791e+00
      1.37661815e-01 -1.77072287e+00 2.27705777e-06 -7.88782716e-01
      -1.34164199e-01 -4.87420410e-01 -1.09493053e+00 -5.94293296e-01
      -1.68648565e+00 -2.89571971e-01 -6.79551840e-01 -5.75468302e-01
      -5.77786684e-01 -2.96697706e-01 -4.17907983e-01 -2.89309889e-01 0.
      0. -7.78653612e-03 3.36340261e+00 3.34868520e-01 1.78366816e+00
      2.38592371e-01 7.06588328e-01 -4.40234005e-01 2.06334972e+00
      -4.58419681e-01 3.54845357e+00 2.58410037e-01 2.19602287e-01
      -1.08918393e+00 -1.02815259e+00 -2.98454501e-02 -7.47816920e-01
      -8.65282774e-01 1.03194773e+00 -7.42468178e-01 2.96318531e+00
      -1.24064124e+00 2.63516784e+00 1.05661340e-01 8.78904939e-01
      -1.42956817e+00 -6.11286044e-01 -5.29576004e-01 -5.93504369e-01
      -1.03060091e+00 3.59848887e-01 6.05565608e-02 2.34686255e+00
      -4.83051658e-01 2.61103010e+00 -2.14840651e+00 7.72435606e-01
      1.33330058e-02 3.17335892e+00 1.02854300e+00 2.60479975e+00
      6.79156780e-01 2.21687293e+00 -8.30661178e-01 2.39081311e+00
      2.82811493e-01 2.36832523e+00 2.73968744e+00 -6.78565800e-01
      4.56959084e-02 -1.29077852e+00 -9.60129142e-01 -1.37327766e+00
      3.02423202e-02 -1.65422595e+00 8.35996687e-01 -9.02725697e-01
      -1.70535550e-01 -3.56375903e-01 -2.34872556e+00 1.14445651e+00
      1.16643155e+00 1.10478437e+00 8.73651862e-01 1.19436872e+00
      -4.33411300e-01 1.10034299e+00 3.21683693e+00 1.53035045e-01
      -9.06953037e-01 1.58429801e-01 3.88834625e-01 4.18198202e-03
      7.99560726e-01 4.55538124e-01</_>
    <_>
      -2.15986466e+00 5.76457232e-02 -1.75314641e+00 -1.04554445e-01
      -1.19885600e+00 -5.78808129e-01 -2.06739362e-02 -9.42572236e-01
      9.43927348e-01 -1.93917537e+00 7.31623173e-01 -1.46859217e+00
      1.79668203e-01 2.69672602e-01 -1.35974780e-01 1.47161528e-01
      -6.00415349e-01 8.39824975e-01 -1.27746880e+00 1.07378614e+00
      -7.82387406e-02 2.00158811e+00 -1.84150204e-01 1.36064494e+00
      -5.93184590e-01 6.98755085e-01 -7.95250595e-01 5.57548761e-01
      -1.27813530e+00 3.14221144e-01 -1.29066265e+00 -1.04004002e+00
      -1.86499929e+00 -1.50512469e+00 -2.47126675e+00 -2.56048322e-01
      -1.50619578e+00 -5.36695063e-01 -7.96493113e-01 -1.02507460e+00
      -3.11142832e-01 -2.52774626e-01 -4.03944492e-01 1.59085679e+00
      1.34605742e+00 9.61824834e-01 4.14769500e-01 -1.23943460e+00
      2.46147022e-01 -7.26758182e-01 8.56983244e-01 -8.27155113e-01
      1.73481238e+00 -9.74254251e-01 1.12487781e+00 -1.32980049e+00
      5.67635357e-01 -1.03208780e+00 5.77627480e-01 -4.90036070e-01 0.
      0. 3.09343338e-01 2.25764409e-01 6.70147717e-01 9.31046546e-01
      6.99836850e-01 1.06711364e+00 8.08394730e-01 9.26545560e-01
      6.30260706e-01 5.46861410e-01 -7.85546243e-01 3.42237294e-01
      -4.95555431e-01 2.76638889e+00 -8.50486696e-01 1.91149020e+00
      -2.69331068e-01 -2.47717977e-01 -2.56821483e-01 -1.01445472e+00
      3.17752212e-01 -1.72118261e-01 1.89386272e+00 -1.38666594e+00
      1.93116915e+00 1.34112930e+00 1.13731134e+00 1.77909935e+00
      1.17479801e+00 -1.18607700e+00 7.55163968e-01 -1.19606876e+00
      1.82118022e+00 -1.32821250e+00 3.60976243e+00 -1.80954802e+00
      2.68125796e+00 -6.09101448e-03 1.40755165e+00 6.66813552e-01
      4.39036340e-01 1.11262870e+00 2.57957548e-01 1.24171901e+00
      -9.35826957e-01 4.01881516e-01 -1.98610091e+00 -4.11346070e-02
      -1.41374350e+00 -8.81620049e-01 -4.94634777e-01 -1.11971295e+00
      -1.48450360e-01 -1.22937703e+00 7.24376202e-01 -1.48528612e+00
      2.75208259e+00 -2.18144751e+00 3.20768476e+00 -1.24422753e+00
      9.21142161e-01 2.14737844e+00 6.91134036e-01 2.98697114e+00
      3.26328009e-01 2.43190217e+00 -1.87434125e+00 1.80644751e-01
      -5.70857048e-01 -3.76408362e+00 2.20416054e-01 -3.57190156e+00
      9.61719930e-01 -4.42623854e+00</_>
    <_>
      1.18064296e+00 -8.06904137e-01 1.20867252e+00 -3.27683419e-01
      5.58968246e-01 1.91475958e-01 5.77288389e-01 9.01892707e-02
      4.89034534e-01 1.33815371e-02 2.56314069e-01 -6.49198472e-01
      -1.66363254e-01 -6.15012109e-01 -8.36858869e-01 -1.03937995e+00
      -4.95650262e-01 -1.28927350e+00 -2.01056749e-01 -3.57484668e-01
      -2.19542682e-01 3.36377919e-01 -1.53855354e-01 8.56841803e-01
      1.65143102e-01 9.02409196e-01 4.56081927e-01 1.06488669e+00
      7.94990301e-01 5.80363870e-01 2.89941758e-01 1.96108982e-01
      -2.88617816e-02 -9.67264473e-02 6.54215574e-01 -6.41818941e-01
      2.38365501e-01 -9.89299119e-01 -1.25543773e-02 -1.23798943e+00
      -3.33259165e-01 -1.04771507e+00 -6.35126710e-01 -6.40150845e-01
      2.23833010e-01 -1.31750882e+00 5.09205163e-01 -1.39093816e+00
      1.10510930e-01 -1.33552921e+00 -4.15370882e-01 -7.13037312e-01
      -9.39502180e-01 -4.68208939e-01 -1.30450308e-01 -1.16912484e-01
      -4.39147279e-02 -1.57675430e-01 3.54775116e-02 -1.15770087e-01 0.
      0. -4.79238153e-01 3.60965252e-01 -2.11094171e-01 4.16788124e-02
      2.43205190e-01 1.68816209e-01 2.31931567e-01 2.00119257e-01
      7.68102109e-01 7.64899075e-01 -3.39940906e-01 2.60335878e-02
      -5.30132294e-01 -2.38967821e-01 -3.50174189e-01 -2.46428460e-01
      -6.30413830e-01 3.64178279e-03 -1.79488480e-01 8.50454092e-01
      -8.20771813e-01 9.22944903e-01 4.83080983e-01 -4.29526158e-02
      3.22525054e-02 -3.13881218e-01 5.31685472e-01 -4.61439341e-01
      2.49034777e-01 -4.71284509e-01 7.53047585e-01 3.69119346e-01
      2.98344523e-01 4.97742027e-01 1.98998392e+00 2.64536595e+00
      1.36960113e+00 2.46210527e+00 5.42583525e-01 1.82881296e+00
      1.26185924e-01 2.18988132e+00 -6.65445089e-01 1.92163384e+00
      -1.32380188e+00 2.52702451e+00 -1.48931181e+00 3.03583026e+00
      -1.22610974e+00 -2.04191878e-01 -6.86176836e-01 -1.58816648e+00
      1.80274323e-01 -2.09319997e+00 6.17647529e-01 -1.62132871e+00
      1.62026656e+00 -5.39847791e-01 2.39090514e+00 2.03024340e+00
      5.35814881e-01 2.49638891e+00 1.61595866e-01 2.66670609e+00
      -7.28202701e-01 2.61721873e+00 -1.58560693e+00 2.48221397e+00
      -5.60636461e-01 -1.44815969e+00 2.83117503e-01 -1.44820452e+00
      6.23016417e-01 -1.52628160e+00</_>
    <_>
      1.24233031e+00 -3.26508641e+00 3.12285453e-01 -2.27396011e+00
      4.66518044e-01 -1.34069574e+00 1.59033034e-02 -2.51337230e-01
      -1.41424388e-01 -3.42011243e-01 -1.12703100e-01 -4.45871770e-01
      1.67768621e+00 3.84871691e-01 2.07887959e+00 7.54665732e-01
      1.06943154e+00 7.96759367e-01 -1.70106983e+00 -3.55224490e-01
      -2.22929907e+00 -1.27192903e+00 -1.24335341e-01 9.05203000e-02
      5.38745821e-01 -2.16595843e-01 1.20606613e+00 3.15793514e-01
      9.16356564e-01 2.83949614e-01 -2.47428715e-01 1.13373078e-01
      -1.42610073e+00 8.19061518e-01 1.43638146e+00 -5.63334107e-01
      -3.88384819e-01 -8.72670889e-01 -1.39387751e+00 -8.51244748e-01
      -3.60061669e+00 -5.06937325e-01 -6.41759682e+00 3.14330602e+00
      4.67390680e+00 4.12614727e+00 2.51978588e+00 1.46574819e+00
      6.07766330e-01 -4.92030501e-01 -1.27415788e+00 -1.52847648e+00
      -1.52856457e+00 -2.45871496e+00 1.17563285e-01 1.32250178e+00
      2.99152792e-01 8.19203675e-01 2.93428123e-01 4.77346808e-01 0. 0.
      1.01585925e+00 2.10226655e+00 1.00675094e+00 3.22660112e+00
      9.63536441e-01 3.01863885e+00 -2.63408292e-02 2.02063036e+00
      -1.10674751e+00 1.50250471e+00 2.16113210e+00 4.07077074e-01
      8.70316625e-01 -3.70325178e-01 1.29893959e+00 7.08351672e-01
      5.46438396e-01 2.41723418e+00 4.22840595e-01 2.12134576e+00
      2.96816170e-01 1.38491845e+00 1.88271952e+00 2.09728718e+00
      2.28375345e-01 1.40148318e+00 2.20145226e-01 1.14885139e+00
      -6.08899713e-01 1.92755580e-01 6.27682924e-01 1.17079353e+00
      1.06404400e+00 1.77514589e+00 -4.24497366e+00 -4.65537596e+00
      7.66471863e-01 3.29131335e-01 1.08427846e+00 2.41450548e+00
      1.76669702e-01 1.60445106e+00 -1.08832133e+00 6.54418588e-01
      -3.44833583e-01 -7.70087898e-01 1.65047896e+00 -4.82247162e+00
      2.96690226e-01 -1.74259543e+00 -6.23100579e-01 -7.13851908e-03
      -1.54776229e-02 9.76046026e-02 1.29148412e+00 4.66717690e-01
      -1.88229367e-01 -6.90026104e-01 -3.20253897e+00 -2.45069671e+00
      1.03238630e+00 1.73393047e+00 4.36098576e-01 1.37149727e+00
      -8.92776966e-01 4.41700161e-01 2.39908624e+00 -2.84843183e+00
      -3.03262740e-01 3.14669609e+00 2.31770739e-01 2.75783086e+00
      5.16960084e-01 3.20235014e+00</_>
    <_>
      -2.11232209e+00 1.77237391e+00 -1.86653173e+00 1.47586775e+00
      -1.86238813e+00 9.16184485e-01 -1.71845901e+00 4.27330762e-01
      -1.11188734e+00 -5.28383970e-01 -1.15079433e-01 -1.32955194e+00
      -1.66938871e-01 -1.24634528e+00 -4.79856372e-01 -1.40185237e-01
      -7.01541781e-01 -5.77578127e-01 -1.10986948e+00 5.90637773e-02
      -7.41957247e-01 -7.82299757e-01 -4.34098929e-01 -4.00503695e-01
      2.00199634e-01 -4.97456193e-02 -1.96180388e-01 3.48026901e-01
      -1.04116237e+00 4.22790408e-01 -1.48771131e+00 8.21765661e-01
      -1.59000063e+00 1.50361073e+00 -5.11525393e-01 -3.64185482e-01
      -7.14651421e-02 6.42504275e-01 4.39674318e-01 5.68555295e-01
      8.36671472e-01 3.96990985e-01 1.19191563e+00 6.94587409e-01
      3.05671275e-01 6.73412502e-01 3.72642577e-01 9.80597317e-01
      8.38781655e-01 1.43167925e+00 1.17297554e+00 1.07966566e+00
      1.68909395e+00 7.20393136e-02 1.65405646e-01 -7.03537345e-01
      -6.00508638e-02 -7.83832729e-01 2.27366015e-01 -3.98262352e-01 0.
      0. 1.48069286e+00 1.08906221e+00 1.11363292e+00 5.83870292e-01
      4.57302153e-01 2.19462767e-01 -3.15818310e-01 3.06703538e-01
      -7.05177665e-01 1.20069456e+00 -3.92219275e-01 -1.23537453e-02
      4.86459956e-03 2.06572905e-01 1.72549233e-01 3.59214693e-01
      -3.28608930e-01 -1.08148165e-01 -3.78937036e-01 -3.23347807e-01
      -3.61155748e-01 -2.90922314e-01 2.14926386e+00 -4.07289237e-01
      1.55836284e+00 -1.00209244e-01 1.41644907e+00 1.94789171e-01
      1.65645516e+00 -4.88736242e-01 1.28762829e+00 -4.60698813e-01
      1.46809685e+00 -4.31086361e-01 -8.59941006e-01 1.29057959e-01
      1.58366665e-01 1.95645285e+00 5.82678378e-01 2.63826346e+00
      1.44852072e-01 2.33120465e+00 1.49107017e-02 1.74496019e+00
      3.82750005e-01 9.28864419e-01 6.44897461e-01 2.12202176e-01
      9.34386313e-01 -1.69306743e+00 8.15084696e-01 -1.60581160e+00
      4.45652485e-01 -1.95300090e+00 8.96512210e-01 -1.39732754e+00
      3.75305772e-01 -8.47662866e-01 -6.16576374e-01 2.34468713e-01
      2.98815221e-01 1.98765445e+00 2.57592529e-01 1.88527536e+00
      6.39813840e-02 1.53219295e+00 1.17483103e+00 -2.15373784e-02
      4.20881331e-01 -1.21348894e+00 6.44800365e-01 -1.04175556e+00
      6.89338624e-01 -1.03819120e+00</_>
    <_>
      -8.25776756e-01 -9.33486164e-01 -8.90683711e-01 -6.22142375e-01
      -3.65974605e-01 -2.69016355e-01 1.59045413e-01 -1.51655585e-01
      3.50920469e-01 -1.46401778e-01 6.72805369e-01 1.42728731e-01
      6.20182395e-01 3.44565332e-01 4.35487747e-01 3.55762452e-01
      9.76186633e-01 3.24920446e-01 6.14089549e-01 -9.75483432e-02
      2.89371852e-02 -2.48180348e-02 -8.73824656e-01 -4.43346858e-01
      -1.25261712e+00 -4.78373677e-01 -1.33642161e+00 -5.26502788e-01
      -1.18614089e+00 -4.96402830e-01 -7.49663830e-01 -6.33830905e-01
      -4.12916929e-01 -4.42972332e-01 -1.66707909e+00 -2.49221891e-01
      -1.05971527e+00 -1.63585663e-01 -4.15210575e-01 6.86999977e-01
      -1.77873410e-02 1.41314709e+00 3.15156460e-01 1.97873616e+00
      -5.05299978e-02 1.53027081e+00 -1.18145116e-01 1.18195391e+00
      3.44704419e-01 7.85837352e-01 7.75532544e-01 3.38992655e-01
      1.09926283e+00 5.73030829e-01 9.19506922e-02 2.15150431e-01
      -9.50678214e-02 1.18682101e-01 3.55579890e-02 -5.32151051e-02 0.
      0. -1.28075391e-01 -7.78007090e-01 -4.22096588e-02 -4.45976317e-01
      -1.62475754e-03 -3.52071553e-01 1.39644489e-01 -2.11922988e-01
      2.45165303e-02 -1.75768808e-01 -1.14314318e+00 -1.55724868e-01
      -6.86104238e-01 1.00920105e+00 -1.11988842e+00 9.92381871e-01
      -1.04543877e+00 -3.27733815e-01 -1.08851624e+00 -5.30324042e-01
      -7.81741858e-01 -5.84441364e-01 4.75331157e-01 1.97335824e-01
      3.10011804e-01 1.46484745e+00 9.52648968e-02 1.57024205e+00
      4.11790282e-01 5.36410272e-01 6.14985228e-02 1.46240890e-01
      3.27790797e-01 4.83140275e-02 1.54571569e+00 -8.47829223e-01
      9.02939200e-01 -7.77697027e-01 6.79241642e-02 -4.99475390e-01
      3.23057532e-01 -1.51484579e-01 -1.97202608e-01 -3.19462985e-01
      -1.38217664e+00 -6.27558172e-01 -2.74134445e+00 -5.29846489e-01
      -1.49867702e+00 -1.28088737e+00 -8.32470357e-02 -1.17012823e+00
      -1.04052098e-02 -1.12411129e+00 8.17822888e-02 -1.15960026e+00
      7.87308514e-01 -1.47656262e+00 1.69073200e+00 -9.33345675e-01
      1.36317775e-01 -4.18670803e-01 1.41709223e-01 -3.08284283e-01
      1.03734232e-01 -4.45497066e-01 -2.60559249e+00 -8.80199790e-01
      -1.30429089e-01 -2.11042571e+00 6.58927113e-02 -1.55673575e+00
      1.07855722e-01 -2.22737169e+00</_>
    <_>
      -1.03658605e+00 -2.03356934e+00 -5.12692273e-01 -4.66157019e-01
      -2.22508907e-01 7.03536153e-01 4.68325198e-01 1.24077296e+00
      8.92502069e-01 1.28125358e+00 8.41088891e-01 1.14128518e+00
      1.18948005e-01 6.24600887e-01 -6.24187291e-01 -3.42423975e-01
      1.39186263e-01 -5.01644790e-01 7.61204183e-01 -1.88264251e-01
      8.13939810e-01 2.50536621e-01 1.55486092e-01 5.42265117e-01
      -2.50342786e-01 3.19749743e-01 7.20787272e-02 5.39212286e-01
      3.94600004e-01 5.20475090e-01 7.08088756e-01 4.51599527e-03
      1.43580186e+00 -1.08012247e+00 -7.34478593e-01 -1.88199711e+00
      8.15040171e-02 -5.87328255e-01 3.37397844e-01 7.85601497e-01
      3.34865272e-01 1.27253318e+00 2.09951043e-01 2.00076318e+00
      -2.15992972e-01 1.55599701e+00 -6.52697027e-01 1.43882287e+00
      -1.00580525e+00 8.13810110e-01 -1.22825849e+00 -2.60189772e-01
      -3.98334503e-01 -1.84735894e+00 -1.93718404e-01 1.48567379e-01
      -4.27229911e-01 1.40203312e-01 -7.24941567e-02 -1.56193912e-01 0.
      0. -4.59633380e-01 -2.30207586e+00 -1.20188899e-01 -1.51666725e+00
      6.41209483e-02 -1.23447013e+00 4.78608936e-01 -1.52269328e+00
      5.89129210e-01 -1.88352990e+00 -1.03277576e+00 2.49993667e-01
      -5.52368641e-01 1.90545905e+00 -1.12515748e+00 1.57854545e+00
      -1.08631206e+00 -7.67669022e-01 -6.47486448e-01 -7.60628641e-01
      -4.91237700e-01 -4.93813992e-01 1.19877100e+00 -3.18328261e-01
      9.50334489e-01 1.57813931e+00 5.15004277e-01 1.38332307e+00
      1.08823872e+00 -1.97852775e-01 7.44325459e-01 -8.43897045e-01
      9.60164011e-01 -5.86791992e-01 3.81817293e+00 2.74274516e+00
      9.27658677e-01 -9.65108812e-01 -4.74807769e-01 -1.81906843e+00
      -6.98119551e-02 -1.50765407e+00 -6.41996786e-02 -1.80049992e+00
      -1.66329014e+00 -1.46072316e+00 -4.19627953e+00 2.78884649e+00
      -1.38468730e+00 4.59201127e-01 2.41085216e-01 -2.79893994e-01
      5.95181361e-02 -4.20092642e-01 -1.67396352e-01 -1.32340521e-01
      1.25735128e+00 4.99851882e-01 4.47651005e+00 1.57122850e+00
      -2.63179868e-01 -8.05655301e-01 7.62165636e-02 -8.62431526e-01
      9.84242633e-02 -9.26496089e-01 -4.49733114e+00 1.67158639e+00
      1.92715779e-01 -1.35147297e+00 2.21208274e-01 -1.16855478e+00
      -3.25378537e-01 -1.31596339e+00</_>
    <_>
      -1.30561078e+00 -9.05030131e-01 -1.07725203e+00 -1.24936020e+00
      -3.78701121e-01 -8.64557922e-01 6.71651438e-02 -6.10132813e-01
      -3.85137767e-01 -1.51296919e-02 -4.10040349e-01 8.98078918e-01
      1.82698190e-01 1.59204531e+00 4.03707683e-01 3.04357386e+00
      6.04777634e-01 3.08476996e+00 -6.42727166e-02 1.39197838e+00
      -1.18336193e-01 2.15925612e-02 -3.40674579e-01 3.33805345e-02
      1.84904169e-02 1.45411521e-01 2.71684855e-01 -1.36049792e-01
      3.73494446e-01 5.63383162e-01 6.49010301e-01 7.68108904e-01
      1.06969321e+00 9.62835133e-01 -9.13515031e-01 -6.77281320e-01
      -6.94672823e-01 -8.30623567e-01 2.45383427e-01 -7.76958585e-01
      3.01119243e-03 8.95280182e-01 -1.32831907e+00 3.99895835e+00
      1.32301867e+00 4.45722198e+00 6.86523736e-01 2.21356654e+00
      -9.39081088e-02 2.74091333e-01 3.34202558e-01 3.32659900e-01
      -1.27899691e-01 6.39777005e-01 1.21723855e+00 5.60054839e-01
      6.91632569e-01 4.29057568e-01 6.97469115e-01 2.06820875e-01 0. 0.
      5.42218864e-01 -3.64610243e+00 2.92494237e-01 -1.75406551e+00
      -8.71015415e-02 1.11697735e-02 3.38580936e-01 -2.14524531e+00
      -1.87154636e-01 -3.80171657e+00 -4.13254529e-01 3.52282107e-01
      1.58844143e-02 7.98384011e-01 -8.02597225e-01 1.02471471e+00
      -2.63048738e-01 2.76814371e-01 -4.88201618e-01 -2.00015616e+00
      -2.28968889e-01 -1.93946314e+00 8.39672163e-02 1.28476501e+00
      5.75867057e-01 1.67666829e+00 -5.67815363e-01 1.35866332e+00
      -5.86675346e-01 1.49223554e+00 -7.16631234e-01 -9.84791458e-01
      -3.00937761e-02 -9.51796293e-01 2.07627726e+00 -4.04903269e+00
      1.70589280e+00 -2.12225842e+00 3.02176476e-01 -1.99506134e-01
      2.53022015e-01 -2.48525236e-02 8.22779894e-01 -8.12965482e-02
      -1.73539087e-01 -2.03802991e+00 -5.28327346e-01 -4.75266933e+00
      -1.45573929e-01 -1.09800172e+00 1.59120774e+00 5.30735612e-01
      6.49902761e-01 1.21422803e+00 5.34784734e-01 8.96754563e-01
      1.57862556e+00 -2.81192929e-01 1.96546412e+00 -2.85088468e+00
      1.14998393e-01 -3.10910344e-01 3.32961768e-01 -6.35962427e-01
      8.22907984e-01 -8.88080239e-01 -6.66628420e-01 -3.68846035e+00
      1.20658898e+00 5.99707007e-01 5.62566340e-01 1.02832305e+00
      3.19315135e-01 1.18029559e+00</_>
    <_>
      -1.70914245e+00 4.58017886e-01 -1.54019701e+00 3.96834850e-01
      -1.07486010e+00 1.23529725e-01 -9.87930238e-01 9.37719131e-04
      -6.49253905e-01 -1.02958575e-01 -2.91235428e-02 -2.92264652e-02
      -6.10854208e-01 2.20404983e-01 -6.19746089e-01 1.24004674e+00
      -9.05030668e-02 7.61296511e-01 4.66200352e-01 1.09467471e+00
      3.80049914e-01 -1.06544361e-01 2.43859813e-01 -4.15340245e-01
      2.07379773e-01 -3.47424865e-01 5.38447261e-01 -2.91003793e-01
      1.67720661e-01 -8.22325721e-02 -3.29778284e-01 3.80569398e-01
      -3.63057822e-01 9.51987803e-01 -4.93471712e-01 -8.04090858e-01
      6.09159887e-01 7.77343273e-01 1.44592130e+00 1.45711112e+00
      1.91764927e+00 2.10965610e+00 1.86980903e+00 2.03273630e+00
      -7.19122052e-01 1.90583873e+00 -6.76908374e-01 2.21788526e+00
      -3.44971597e-01 2.11955714e+00 1.16537377e-01 1.49762642e+00
      8.24209630e-01 6.39335096e-01 4.08125699e-01 2.03925580e-01
      8.99312347e-02 3.18795703e-02 1.53236920e-02 -8.32972303e-02 0. 0.
      -8.16210032e-01 -1.02424514e+00 -4.54681665e-01 -6.37264371e-01
      1.18476443e-01 -3.49837124e-01 5.89525402e-01 -1.05074441e+00
      8.66783679e-01 -1.43379724e+00 -8.81726801e-01 -8.24751198e-01
      1.88944891e-01 5.23713231e-01 -2.65162528e-01 7.84309387e-01
      -1.09017037e-01 -8.39054525e-01 -3.79895806e-01 -2.04097629e+00
      -1.64433926e-01 -2.14013886e+00 6.65925503e-01 -5.02322197e-01
      1.20288837e+00 9.22361493e-01 3.57134491e-01 9.99020815e-01
      1.25737166e+00 -3.75747800e-01 2.58790672e-01 -1.64514327e+00
      4.68849599e-01 -1.69368029e+00 1.72153115e-01 -1.62801221e-01
      -4.09959823e-01 -8.95455718e-01 -1.26526058e-01 -2.42779240e-01
      1.22180097e-01 -2.90431768e-01 8.14066172e-01 -9.93515313e-01
      3.70592237e-01 -1.71033704e+00 -1.03360450e+00 -7.99657524e-01
      8.34889293e-01 -1.25642014e+00 1.60292530e+00 -5.56187451e-01
      7.23874152e-01 -5.66864371e-01 4.95166063e-01 -9.05748382e-02
      1.96010381e-01 -3.42071950e-01 3.17599952e-01 -6.16586030e-01
      -4.08635199e-01 -1.41015664e-01 2.99931001e-02 -1.34055808e-01
      7.36996949e-01 -5.03139973e-01 -8.39485884e-01 -1.42649984e+00
      1.38589036e+00 -1.54733932e+00 6.45296812e-01 -1.07344174e+00
      1.33157536e-01 -1.29032600e+00</_>
    <_>
      -4.62524861e-01 -1.16517387e-01 2.36554351e-03 7.43033066e-02
      4.45469350e-01 2.48581633e-01 2.37718150e-01 -4.09464270e-01
      -3.59907866e-01 -4.16055858e-01 -6.10211730e-01 -4.55864847e-01
      -1.06780088e+00 -7.50684798e-01 -6.99966729e-01 -8.97230506e-01
      -9.38450336e-01 -1.58039725e+00 -5.26594296e-02 -4.58532244e-01
      6.02801144e-01 -4.73771662e-01 1.11107504e+00 6.52721107e-01
      1.81338370e+00 1.11100864e+00 1.51718318e+00 5.98479211e-01
      1.63185012e+00 6.13703549e-01 1.53857160e+00 8.65337178e-02
      1.09763885e+00 -1.33719258e-02 2.18684840e+00 9.82351303e-01
      1.39359546e+00 1.15941894e+00 6.92928433e-01 -1.14365123e-01
      3.84187579e-01 -2.11470485e+00 3.47787350e-01 -3.09045267e+00
      -1.28153110e+00 -3.02393007e+00 -4.60539997e-01 -1.56183481e+00
      -8.13123167e-01 3.07605416e-01 -2.21702719e+00 9.30665791e-01
      -2.35096622e+00 3.49362671e-01 -8.57675791e-01 1.78845048e-01
      -4.54775184e-01 8.43560621e-02 -1.73278868e-01 3.89715225e-01 0.
      0. -3.41444969e-01 2.75834978e-01 -9.01439637e-02 -1.55931309e-01
      -1.82045728e-01 3.92921031e-01 -6.14348203e-02 -2.32476339e-01
      1.54910937e-01 -3.85227382e-01 7.41046011e-01 -1.81477591e-01
      4.44725841e-01 -1.09996819e+00 1.08939123e+00 -1.27435184e+00
      6.01636529e-01 -1.01456985e-01 1.25347733e+00 3.77145588e-01
      5.21574378e-01 4.00356650e-01 -9.12842274e-01 -8.88921380e-01
      -1.02083015e+00 -1.38565755e+00 -1.52094632e-01 -1.21861827e+00
      -4.45068568e-01 -2.92067111e-01 -5.40834665e-01 2.72631049e-01
      -1.17368305e+00 1.68301493e-01 1.29241431e+00 4.34801960e+00
      -6.71881974e-01 9.13366556e-01 -9.09057558e-01 -4.13439512e-01
      -8.26519668e-01 1.28161520e-01 1.31146789e-01 -3.74679774e-01
      2.59721130e-01 1.38923347e-01 -1.38541961e+00 3.93923831e+00
      3.19295496e-01 1.65811157e+00 3.10229838e-01 5.48447847e-01
      -3.81033689e-01 1.89106479e-01 -6.91509545e-01 2.71416068e-01
      -2.82193303e-01 1.83591807e+00 1.73677230e+00 3.33906221e+00
      -9.17939603e-01 1.99493921e+00 -3.14793378e-01 1.31610501e+00
      5.05517386e-02 1.69545269e+00 -2.00541234e+00 3.67551470e+00
      -1.19413622e-01 -2.01181307e-01 -4.32413220e-01 -5.32287538e-01
      -8.26394200e-01 1.33341802e-02</_>
    <_>
      1.07613671e+00 2.90696144e-01 9.62353885e-01 -1.48926154e-01
      1.39171708e+00 -4.32591885e-01 9.93832886e-01 -2.22517624e-01
      -4.31158096e-01 8.73732492e-02 -1.40279353e+00 2.34888047e-01
      -1.44792330e+00 1.10729203e-01 -1.06599081e+00 6.60502374e-01
      -8.57361913e-01 5.30329704e-01 -9.74273801e-01 3.43706399e-01
      -3.02025616e-01 -5.07220328e-01 5.90659499e-01 -2.11868092e-01
      6.85283780e-01 -1.79974988e-01 5.55353165e-01 -2.78822809e-01
      4.88180518e-01 -2.46206641e-01 6.83229685e-01 4.60579783e-01
      1.13142276e+00 5.02646208e-01 1.03885651e+00 -3.92799824e-01
      5.14873385e-01 -2.05771685e-01 -6.55921847e-02 -2.66173899e-01
      -1.04220510e+00 -4.46731031e-01 -1.62468123e+00 -1.97706223e-01
      6.48199737e-01 5.25319874e-01 3.53934109e-01 9.18834686e-01
      -6.13275111e-01 9.46505904e-01 -8.98078322e-01 7.06869602e-01
      -1.01477146e+00 -2.36997772e-02 -1.10914461e-01 7.06876338e-01
      2.94735166e-03 6.21954501e-01 -5.82018346e-02 3.16954911e-01 0. 0.
      7.32140064e-01 3.51322303e-03 5.00448406e-01 1.31985351e-01
      2.15526477e-01 1.17173940e-01 -2.42001221e-01 -4.69655961e-01
      -7.65620947e-01 -6.46460593e-01 8.79773736e-01 5.23890615e-01
      7.97861457e-01 -1.35921907e+00 1.19339788e+00 -7.96620071e-01
      7.41214335e-01 1.11604023e+00 8.62645149e-01 1.00397956e+00
      5.05697191e-01 5.32944381e-01 -2.68035084e-01 1.10100019e+00
      -6.37034297e-01 -8.04861903e-01 -5.32666683e-01 -1.34148598e+00
      -5.60988188e-01 5.65626800e-01 -3.51475447e-01 3.55396062e-01
      -6.07861519e-01 6.75244927e-01 -2.58398438e+00 7.30294213e-02
      -1.25359166e+00 5.68373561e-01 -6.87081516e-01 1.78240106e-01
      -2.24275276e-01 -6.06434584e-01 3.22253406e-01 -6.48484349e-01
      1.18505931e+00 -9.48427975e-01 2.40681720e+00 -1.74174047e+00
      1.32888782e+00 -7.82937109e-02 7.15711713e-01 1.16724837e+00
      1.36858663e-02 1.67834449e+00 -2.06461191e-01 2.00483370e+00
      -1.42265260e+00 2.36449790e+00 -2.32308602e+00 8.02611053e-01
      -5.92521667e-01 -7.94150889e-01 -2.59032875e-01 -1.48708427e+00
      2.70410359e-01 -1.35660386e+00 2.56781602e+00 -9.70394790e-01
      8.01738441e-01 3.24530602e+00 8.35004374e-02 3.34009933e+00
      -5.55762887e-01 4.32260895e+00</_>
    <_>
      2.79989302e-01 1.03343761e+00 2.45540924e-02 6.57834113e-01
      -5.77766187e-02 -1.29866544e-02 -5.58142006e-01 -1.66837484e-01
      -1.27619076e+00 -4.02879193e-02 -1.07336724e+00 -1.95705250e-01
      -1.54196382e+00 -2.60949880e-01 -1.46800375e+00 1.46549892e+00
      -9.34849620e-01 1.32427943e+00 -5.85737824e-01 1.39419329e+00
      3.87031585e-02 -3.27936143e-01 4.07716155e-01 -4.28694934e-01
      1.01007473e+00 -2.37570271e-01 9.56751645e-01 -3.40624779e-01
      1.01399779e-01 -5.52956402e-01 -2.42383882e-01 1.01652376e-01
      5.14168013e-03 2.83024549e-01 9.68124151e-01 1.57274032e+00
      8.83613825e-01 1.99286830e+00 1.12406659e+00 1.91209650e+00
      1.20753706e+00 1.46697271e+00 1.97110605e+00 8.33066285e-01
      -9.90169585e-01 -2.66168922e-01 -1.12713277e-01 1.09445596e+00
      2.88507164e-01 8.54309618e-01 5.91405749e-01 7.68734574e-01
      3.59007865e-01 6.13720953e-01 7.01483339e-02 -6.36548698e-01
      2.01776214e-02 -5.19577622e-01 1.67307794e-01 -3.04723203e-01 0.
      0. 3.83758754e-01 5.29739797e-01 1.98881060e-01 -4.32069860e-02
      2.66032815e-01 -4.02559489e-01 -2.45418161e-01 -3.86609197e-01
      -2.83916146e-01 3.25343430e-01 1.31340817e-01 -1.27500638e-01
      4.54994380e-01 -8.75485420e-01 4.84550685e-01 -5.05028188e-01
      -1.85345799e-01 1.34350315e-01 2.46582776e-02 -1.27395838e-01
      4.76998128e-02 -4.02156353e-01 1.28595436e+00 -4.64252681e-02
      9.10147369e-01 -9.55029488e-01 7.54985273e-01 -1.16799450e+00
      1.16824675e+00 -6.77361131e-01 9.62865293e-01 -7.29992747e-01
      8.68064821e-01 -3.45710456e-01 -3.88015127e+00 1.04952705e+00
      -2.00588965e+00 2.18879986e+00 -6.29501343e-01 2.16012859e+00
      7.30718719e-04 1.68694603e+00 8.24508309e-01 1.57990444e+00
      2.02951121e+00 8.87104869e-01 3.41231823e+00 -3.33583087e-01
      2.48521113e+00 -7.91344106e-01 1.49250758e+00 -5.44090927e-01
      2.46325105e-01 -4.59177375e-01 -4.58859712e-01 1.45022258e-01
      -2.32488775e+00 1.21022844e+00 -3.79834843e+00 8.28427255e-01
      -8.69097471e-01 1.65673614e+00 -1.44273669e-01 1.13228714e+00
      8.64729881e-01 1.18771887e+00 3.73912811e+00 -1.60174847e-01
      1.35642254e+00 7.47553766e-01 2.73739427e-01 8.49537849e-01
      -7.94526219e-01 1.64092457e+00</_>
    <_>
      -6.54298067e-01 5.93152463e-01 -4.42617148e-01 2.21600130e-01
      5.30108102e-02 1.26301005e-01 -1.89407364e-01 1.73265249e-01
      -5.65985918e-01 1.37333333e-01 -5.29126704e-01 3.02429438e-01
      2.56733894e-01 2.37778768e-01 5.61568439e-01 8.36462855e-01
      3.77942890e-01 1.10872698e+00 -9.17398706e-02 3.45587730e-01
      -2.94495642e-01 -5.70449889e-01 -1.81560129e-01 -5.31008005e-01
      -1.74388215e-01 -3.63537312e-01 -6.05571091e-01 -3.99502128e-01
      -6.46559238e-01 -2.12916777e-01 -3.31639320e-01 1.65130079e-01
      8.59742705e-03 2.04196513e-01 -7.39330173e-01 -3.45957220e-01
      -9.40979302e-01 -1.91521555e-01 -1.12829602e+00 -1.63092077e-01
      -1.31683934e+00 2.00514663e-02 -1.73980033e+00 8.12901616e-01
      1.25356042e+00 1.31770182e+00 9.07587230e-01 1.04644847e+00
      4.97145891e-01 9.68430221e-01 6.06405079e-01 8.73534739e-01
      5.55680156e-01 5.27248561e-01 5.71446158e-02 -4.77300733e-02
      -7.62257352e-02 -1.76078737e-01 2.76605338e-02 2.81795897e-02 0.
      0. 5.85662127e-01 -3.09609473e-01 4.30712730e-01 8.98672491e-02
      5.66338114e-02 2.69085109e-01 6.05654418e-02 -4.59678322e-02
      -3.77394080e-01 -4.36316341e-01 -2.74212182e-01 -1.80624843e-01
      -3.04136753e-01 -3.13890755e-01 -3.97766173e-01 4.20652553e-02
      -2.00527996e-01 3.53054404e-01 -5.99953771e-01 -4.66090083e-01
      -2.25991726e-01 -7.25989103e-01 -1.73172913e-02 5.33329666e-01
      2.63878077e-01 4.08869624e-01 -1.31892979e-01 4.92263079e-01
      -1.25348553e-01 8.68369877e-01 -3.06429625e-01 1.26849040e-02
      7.49971271e-02 3.57325152e-02 -1.48397470e+00 -2.89783812e+00
      -2.68975019e-01 -7.76069283e-01 4.94397283e-02 4.37986255e-01
      2.63249367e-01 3.71303856e-01 6.69473052e-01 6.97292626e-01
      8.90134752e-01 -9.37406898e-01 1.66894090e+00 -3.13279104e+00
      8.99729192e-01 -9.36324775e-01 6.67761624e-01 3.94112110e-01
      2.08909616e-01 8.16273451e-01 7.20211715e-02 4.79889452e-01
      -5.76115906e-01 -4.90034848e-01 -1.89762115e+00 -1.88119638e+00
      2.34164745e-02 -9.01567042e-01 2.01568902e-01 -9.16421771e-01
      6.29521310e-01 -1.03131175e+00 1.81296861e+00 -2.19149852e+00
      5.66088319e-01 1.34478879e+00 2.73243517e-01 1.42750287e+00
      -1.39578924e-01 1.54600561e+00</_>
    <_>
      -6.44206107e-01 2.14428026e-02 -6.33603334e-01 7.82462358e-02
      -7.67535627e-01 -4.12405748e-03 -1.05401814e+00 2.33126104e-01
      -7.85531044e-01 1.30303502e-01 -3.85867178e-01 8.17760006e-02
      -3.73881608e-01 2.20776275e-01 -2.20696107e-01 8.24649453e-01
      1.68577414e-02 9.97471094e-01 -1.29746357e-02 6.77619994e-01
      -5.04555702e-02 -8.54994282e-02 1.31806657e-01 -2.54012227e-01
      3.53040695e-01 -2.02444375e-01 5.37081420e-01 2.35732701e-02
      3.09540689e-01 7.41417110e-02 4.01059054e-02 3.00073594e-01
      3.39304321e-02 5.01223743e-01 -2.24419590e-02 -3.43263000e-01
      1.77953899e-01 3.48340154e-01 4.53532755e-01 7.47227371e-01
      5.66394985e-01 9.03329134e-01 7.25570619e-01 7.73439646e-01
      -1.19223995e-02 1.00154138e+00 -1.20774232e-01 1.32743740e+00
      6.17846251e-02 1.29844356e+00 3.40372890e-01 8.64208579e-01
      7.80023456e-01 3.41453344e-01 1.19870327e-01 5.39580211e-02
      5.52805141e-02 4.88069430e-02 2.45525893e-02 7.57497326e-02 0. 0.
      -1.93815753e-01 1.90893218e-01 -7.48769492e-02 3.82918119e-02
      -7.86655396e-02 1.95158869e-02 -1.01430118e-01 -6.83055222e-02
      -2.70343404e-02 7.23662153e-02 7.93346390e-02 -4.26244766e-01
      4.34800863e-01 -1.80344313e-01 3.54216307e-01 5.13686091e-02
      2.27455974e-01 4.70361672e-02 5.62074445e-02 -3.91245365e-01
      1.51538819e-01 -6.05287015e-01 1.90508425e-01 1.33660093e-01
      2.19651625e-01 1.54572681e-01 -2.38829195e-01 1.53205782e-01
      1.20806620e-01 -2.01359421e-01 -1.84330136e-01 -4.00298387e-01
      -7.07180500e-02 -2.45287120e-01 -2.18745542e+00 -1.70707989e+00
      -1.17899621e+00 -5.69821835e-01 -3.25667351e-01 8.05810913e-02
      1.17566727e-01 -1.36231944e-01 4.64964718e-01 -1.72557592e-01
      1.19806647e+00 -9.78118062e-01 1.67544210e+00 -2.13091969e+00
      1.34280777e+00 -5.90633273e-01 7.81476617e-01 5.43417215e-01
      1.29705027e-01 6.74995720e-01 -2.02319071e-01 6.99726641e-01
      -1.16980815e+00 -5.68681657e-02 -2.32754302e+00 -1.32721448e+00
      -4.31622267e-01 -4.84968692e-01 1.16117783e-02 -5.23732841e-01
      4.02040780e-01 -6.30564094e-01 1.94519377e+00 -1.90253723e+00
      6.82755470e-01 4.48486686e-01 1.63764983e-01 6.42636001e-01
      -2.88195372e-01 5.61840355e-01</_>
    <_>
      -1.62788701e+00 2.32914925e+00 -1.24807823e+00 2.59147120e+00
      -1.10983837e+00 1.79765987e+00 -4.93051857e-01 1.13687658e+00
      4.59725291e-01 2.08926007e-01 1.32450020e+00 -8.76806259e-01
      9.64317769e-02 -1.06576431e+00 -7.88339019e-01 -3.43488544e-01
      -8.58529925e-01 -2.13483527e-01 -6.64326191e-01 -1.63212046e-01
      -8.30650926e-02 -6.16737723e-01 -3.65981191e-01 -6.89749420e-01
      -1.22366510e-02 -5.05720198e-01 3.86504292e-01 -3.89383167e-01
      1.11191720e-01 -3.51669461e-01 -5.08125424e-01 -2.57267624e-01
      -7.31425464e-01 -7.47961998e-02 -7.09133327e-01 2.42176700e+00
      4.14562151e-02 3.17340183e+00 7.57989287e-01 2.24924946e+00
      2.49470472e+00 3.37380886e-01 4.04780531e+00 -1.83092022e+00
      -2.55548763e+00 -3.03946233e+00 -1.46346223e+00 -7.23272920e-01
      -1.37808487e-01 6.96527898e-01 4.67634588e-01 1.17937171e+00
      1.19121349e+00 9.63477314e-01 -3.64261776e-01 -1.34069657e+00
      -3.48950654e-01 -1.06186283e+00 -1.67285457e-01 -5.54765403e-01 0.
      0. 5.31721294e-01 7.54394829e-01 1.21318966e-01 -1.85724273e-01
      -3.22377145e-01 -5.96809447e-01 -5.04462004e-01 -4.51048799e-02
      -1.36554047e-01 7.74500906e-01 -1.08046317e+00 2.99135566e-01
      -3.38327646e-01 9.90524411e-01 -6.20852113e-01 4.28227425e-01
      -6.88396037e-01 -1.23873496e+00 -5.02184570e-01 -1.53165543e+00
      -3.49762559e-01 -1.11765146e+00 1.22893131e+00 -1.58007061e+00
      9.96183276e-01 -4.52887982e-01 4.88091350e-01 -4.69365567e-02
      1.31181550e+00 -8.76508713e-01 5.31585932e-01 -2.00051689e+00
      6.56492114e-01 -1.99675000e+00 2.81228334e-01 1.10727930e+00
      -4.55384701e-01 7.80403733e-01 1.11580431e-01 1.75986791e+00
      8.41404796e-02 1.80125880e+00 1.12874649e-01 1.73633122e+00
      -4.05689925e-01 5.67677319e-01 -1.23472941e+00 1.48227620e+00
      -1.56998083e-01 -3.63034695e-01 1.73573136e-01 -9.43637431e-01
      -1.80835485e-01 -1.48918402e+00 -1.14189930e-01 -1.17367506e+00
      4.93055098e-02 -7.28577375e-01 -2.88616061e-01 -2.67884701e-01
      -1.04470149e-01 2.46097207e-01 -1.31452799e-01 8.59869063e-01
      -1.54286429e-01 7.08994746e-01 -7.17955887e-01 -2.22370774e-03
      -3.75855602e-02 -1.66045523e+00 1.62746966e-01 -1.30113411e+00
      1.17963485e-01 -1.93656528e+00</_></support_vectors>
  <uncompressed_sv_total>154</uncompressed_sv_total>
  <uncompressed_support_vectors>
    <_>
      -8.19380879e-01 -3.59377593e-01 -8.05005789e-01 -1.29375935e-01
      -7.83443153e-01 8.62506181e-02 -7.40317822e-01 2.94689626e-01
      -6.61254764e-01 4.88753498e-01 -5.24691284e-01 6.61254764e-01
      -3.66565138e-01 8.19380879e-01 -1.65313691e-01 9.34381723e-01
      5.75004146e-02 9.55944359e-01 2.73126960e-01 9.34381723e-01
      4.67190862e-01 8.26568425e-01 6.32504523e-01 6.68442309e-01
      7.54692912e-01 4.81565952e-01 8.19380879e-01 2.58751869e-01
      8.55318666e-01 2.87502073e-02 8.91256392e-01 -1.86876342e-01
      9.05631483e-01 -4.24065530e-01 -7.54692912e-01 -5.75004101e-01
      -6.46879613e-01 -6.82817400e-01 -4.81565952e-01 -7.18755186e-01
      -3.01877171e-01 -7.11567581e-01 -1.29375935e-01 -6.75629854e-01
      9.34381709e-02 -6.82817400e-01 2.80314505e-01 -7.25942731e-01
      4.74378407e-01 -7.47505367e-01 6.54067218e-01 -7.11567581e-01
      7.76255548e-01 -6.03754342e-01 -1.43751036e-02 -5.10316133e-01
      -7.18755182e-03 -3.37814927e-01 -7.18755182e-03 -1.72501236e-01 0.
      0. -1.65313691e-01 1.22188374e-01 -7.90630654e-02 1.50938585e-01
      2.15626545e-02 1.72501236e-01 1.22188374e-01 1.36563480e-01
      2.15626553e-01 1.00625724e-01 -5.89379251e-01 -4.45628196e-01
      -4.88753498e-01 -4.95941073e-01 -3.73752683e-01 -5.10316133e-01
      -2.51564294e-01 -4.52815741e-01 -3.66565138e-01 -4.38440651e-01
      -4.81565952e-01 -4.24065530e-01 2.37189204e-01 -4.67190862e-01
      3.66565138e-01 -5.39066374e-01 4.81565952e-01 -5.31878829e-01
      5.96566796e-01 -4.81565952e-01 4.88753498e-01 -4.60003316e-01
      3.66565138e-01 -4.67190862e-01 -2.80314505e-01 4.38440651e-01
      -1.65313691e-01 3.73752683e-01 -5.03128618e-02 3.45002472e-01
      3.59377563e-02 3.59377593e-01 1.07813276e-01 3.37814927e-01
      2.37189204e-01 3.52190018e-01 3.95315349e-01 3.95315349e-01
      2.58751869e-01 4.67190862e-01 1.29375935e-01 4.95941073e-01
      5.03128618e-02 5.10316133e-01 -4.31253091e-02 5.03128588e-01
      -1.58126131e-01 4.88753498e-01 -2.37189204e-01 4.16877985e-01
      -5.03128618e-02 3.95315349e-01 4.31253091e-02 4.09690440e-01
      1.15000829e-01 3.95315349e-01 3.37814927e-01 3.88127774e-01
      1.15000829e-01 3.95315349e-01 3.59377563e-02 4.09690440e-01
      -5.03128618e-02 3.95315349e-01</_>
    <_>
      -9.48683321e-01 -3.16227764e-01 -9.15742934e-01 -8.56450200e-02
      -8.56450200e-01 1.31761566e-01 -7.77393281e-01 3.49168152e-01
      -6.85160160e-01 5.46810508e-01 -5.46810508e-01 7.11512446e-01
      -3.62344325e-01 8.49862099e-01 -1.58113882e-01 9.42095220e-01
      5.27046286e-02 9.55271363e-01 2.50346988e-01 8.95978689e-01
      4.15048957e-01 7.64217079e-01 5.66574752e-01 6.19279385e-01
      6.71984017e-01 4.41401243e-01 7.31276691e-01 2.37170830e-01
      7.77393281e-01 1.97642352e-02 8.16921711e-01 -1.91054270e-01
      8.16921711e-01 -4.01872784e-01 -7.70805180e-01 -4.54577416e-01
      -6.52219772e-01 -5.66574752e-01 -4.87517804e-01 -6.19279385e-01
      -2.96463519e-01 -6.25867426e-01 -1.11997336e-01 -5.99515140e-01
      5.92927076e-02 -6.06103241e-01 2.30582744e-01 -6.39043629e-01
      4.08460855e-01 -6.58807874e-01 5.73162854e-01 -6.39043629e-01
      6.85160160e-01 -5.33634365e-01 -1.97642352e-02 -3.95284712e-01
      -1.31761571e-02 -2.70111203e-01 -6.58807857e-03 -1.38349652e-01 0.
      0. -1.51525810e-01 1.71290040e-01 -7.24688619e-02 1.71290040e-01
      1.31761571e-02 1.71290040e-01 8.56450200e-02 1.64701968e-01
      1.51525810e-01 1.58113882e-01 -5.59986651e-01 -3.42580080e-01
      -4.67753559e-01 -4.08460855e-01 -3.49168152e-01 -4.15048957e-01
      -2.56935060e-01 -3.35992008e-01 -3.49168152e-01 -3.03051621e-01
      -4.67753559e-01 -2.96463519e-01 1.97642356e-01 -3.68932396e-01
      2.89875448e-01 -4.54577416e-01 4.08460855e-01 -4.61165488e-01
      5.07282019e-01 -4.01872784e-01 4.21637028e-01 -3.49168152e-01
      3.03051621e-01 -3.42580080e-01 -2.96463519e-01 5.00693977e-01
      -1.77878112e-01 4.01872784e-01 -5.92927076e-02 3.55756223e-01
      6.58807857e-03 3.75520468e-01 6.58807829e-02 3.55756223e-01
      1.77878112e-01 3.95284712e-01 2.83287376e-01 4.61165488e-01
      1.77878112e-01 5.40222406e-01 7.24688619e-02 5.59986651e-01
      6.58807857e-03 5.66574752e-01 -6.58807829e-02 5.66574752e-01
      -1.84466198e-01 5.59986651e-01 -2.50346988e-01 4.80929732e-01
      -5.92927076e-02 4.41401243e-01 1.31761571e-02 4.47989345e-01
      6.58807829e-02 4.41401243e-01 2.23994672e-01 4.54577416e-01
      5.92927076e-02 4.34813172e-01 0. 4.41401243e-01 -6.58807829e-02
      4.41401243e-01</_>
    <_>
      -9.17292893e-01 -2.25999698e-01 -8.97351742e-01 -1.32940998e-02
      -8.57469440e-01 1.92764446e-01 -8.17587137e-01 4.05470043e-01
      -7.44469583e-01 5.98234475e-01 -6.11528575e-01 7.64410734e-01
      -4.25411195e-01 8.84057641e-01 -2.12705597e-01 9.77116346e-01
      1.99411493e-02 9.97057498e-01 2.52587885e-01 9.63822246e-01
      4.51999396e-01 8.50822389e-01 6.18175626e-01 7.04587281e-01
      7.37822533e-01 5.25116920e-01 7.90998936e-01 3.12411338e-01
      8.30881238e-01 9.30586979e-02 8.50822389e-01 -1.19646899e-01
      8.57469440e-01 -3.38999540e-01 -7.57763684e-01 -3.98822993e-01
      -6.58057928e-01 -5.31763971e-01 -4.91881698e-01 -6.04881525e-01
      -2.99117237e-01 -6.24822676e-01 -1.19646899e-01 -5.91587424e-01
      4.65293489e-02 -5.98234475e-01 2.32646748e-01 -6.31469727e-01
      4.18764144e-01 -6.31469727e-01 5.91587424e-01 -5.98234475e-01
      6.97940230e-01 -4.78587598e-01 -1.99411493e-02 -3.85528892e-01
      -1.32940998e-02 -2.59234935e-01 -6.64704992e-03 -1.32940993e-01 0.
      0. -1.79470345e-01 1.86117396e-01 -8.64116475e-02 1.99411497e-01
      1.32940998e-02 2.06058547e-01 1.06352799e-01 1.86117396e-01
      1.92764446e-01 1.66176245e-01 -5.58352172e-01 -2.85823137e-01
      -4.71940547e-01 -3.65587741e-01 -3.52293640e-01 -3.72234792e-01
      -2.45940849e-01 -2.99117237e-01 -3.52293640e-01 -2.65881985e-01
      -4.65293497e-01 -2.59234935e-01 2.06058547e-01 -3.25705439e-01
      3.05764288e-01 -4.18764144e-01 4.18764144e-01 -4.25411195e-01
      5.25116920e-01 -3.52293640e-01 4.32058245e-01 -3.19058388e-01
      3.19058388e-01 -3.05764288e-01 -3.98822993e-01 5.05175769e-01
      -2.52587885e-01 4.25411195e-01 -9.30586979e-02 3.72234792e-01
      1.32940998e-02 3.85528892e-01 1.12999849e-01 3.65587741e-01
      2.65881985e-01 3.98822993e-01 3.98822993e-01 4.78587598e-01
      2.65881985e-01 5.98234475e-01 1.19646899e-01 6.44763827e-01
      6.64704992e-03 6.51410878e-01 -1.06352799e-01 6.51410878e-01
      -2.65881985e-01 6.11528575e-01 -3.38999540e-01 4.98528749e-01
      -9.30586979e-02 4.51999396e-01 1.32940998e-02 4.51999396e-01
      1.12999849e-01 4.45352346e-01 3.38999540e-01 4.85234648e-01
      1.12999849e-01 5.25116920e-01 6.64704992e-03 5.31763971e-01
      -1.06352799e-01 5.31763971e-01</_>
    <_>
      -9.06793892e-01 -2.73995280e-01 -8.87222826e-01 -6.52369708e-02
      -8.48080635e-01 1.43521339e-01 -7.89367378e-01 3.45755935e-01
      -7.04559267e-01 5.28419495e-01 -5.74085355e-01 6.98035598e-01
      -4.17516619e-01 8.41556907e-01 -2.34853104e-01 9.72030878e-01
      -6.52369717e-03 9.98125672e-01 2.15282008e-01 9.52459812e-01
      3.84898126e-01 8.21985841e-01 5.28419495e-01 6.84988201e-01
      6.58893406e-01 5.08848369e-01 7.37177789e-01 3.06613773e-01
      7.82843649e-01 9.13317576e-02 8.08938444e-01 -1.30473942e-01
      8.15462172e-01 -3.52279633e-01 -7.11082995e-01 -3.97945523e-01
      -5.87132752e-01 -4.89277273e-01 -4.30564016e-01 -5.28419495e-01
      -2.60947883e-01 -5.34943163e-01 -1.10902853e-01 -4.82753575e-01
      5.21895774e-02 -4.82753575e-01 1.89187214e-01 -5.54514229e-01
      3.52279633e-01 -5.74085355e-01 5.08848369e-01 -5.54514229e-01
      6.32798612e-01 -4.69706208e-01 -2.60947887e-02 -3.32708567e-01
      -1.30473943e-02 -2.21805707e-01 -6.52369717e-03 -1.17426552e-01 0.
      0. -1.76139817e-01 1.36997640e-01 -9.13317576e-02 1.50045037e-01
      0. 1.69616133e-01 8.48080665e-02 1.43521339e-01 1.63092434e-01
      1.10902853e-01 -5.34943163e-01 -2.87042677e-01 -4.43611413e-01
      -3.32708567e-01 -3.45755935e-01 -3.39232266e-01 -2.47900486e-01
      -3.00090075e-01 -3.45755935e-01 -2.80518979e-01 -4.43611413e-01
      -2.73995280e-01 1.95710912e-01 -3.26184869e-01 2.80518979e-01
      -3.78374428e-01 3.84898126e-01 -3.78374428e-01 4.76229906e-01
      -3.39232266e-01 3.84898126e-01 -3.26184869e-01 2.93566376e-01
      -3.26184869e-01 -3.13137472e-01 4.43611413e-01 -2.28329405e-01
      3.26184869e-01 -1.04379155e-01 2.93566376e-01 0. 3.13137472e-01
      9.13317576e-02 2.87042677e-01 2.08758309e-01 3.13137472e-01
      3.00090075e-01 4.24040318e-01 2.08758309e-01 5.54514229e-01
      1.04379155e-01 6.13227546e-01 0. 6.32798612e-01 -1.10902853e-01
      6.26274943e-01 -2.34853104e-01 5.61037958e-01 -2.54424185e-01
      4.30564016e-01 -1.04379155e-01 3.65327030e-01 0. 3.71850729e-01
      9.78554562e-02 3.52279633e-01 2.41376787e-01 4.17516619e-01
      9.13317576e-02 4.69706208e-01 -6.52369717e-03 4.95800972e-01
      -1.10902853e-01 4.82753575e-01</_>
    <_>
      -8.41399312e-01 -3.65525931e-01 -8.06915760e-01 -1.51727751e-01
      -7.51742005e-01 5.51737249e-02 -7.03464985e-01 2.55178481e-01
      -6.41394556e-01 4.48286533e-01 -5.37943840e-01 6.13807678e-01
      -3.72422636e-01 7.44845271e-01 -1.86211318e-01 8.48296046e-01
      2.06901468e-02 8.75882924e-01 2.48281762e-01 8.62089455e-01
      4.55183238e-01 7.79328883e-01 6.27601147e-01 6.41394556e-01
      7.44845271e-01 4.62079942e-01 8.00019026e-01 2.48281762e-01
      8.41399312e-01 2.75868624e-02 8.96573067e-01 -1.86211318e-01
      9.10366476e-01 -4.13802952e-01 -7.03464985e-01 -5.10356963e-01
      -5.93117535e-01 -6.13807678e-01 -4.41389799e-01 -6.55188024e-01
      -2.68971920e-01 -6.48291290e-01 -1.03450738e-01 -6.20704412e-01
      1.10347450e-01 -6.34497821e-01 2.75868624e-01 -6.75878167e-01
      4.48286533e-01 -6.96568310e-01 6.06911004e-01 -6.55188024e-01
      7.17258453e-01 -5.58633983e-01 0. -4.68976676e-01 0.
      -3.17248911e-01 0. -1.58624455e-01 0. 0. -1.72417894e-01
      1.10347450e-01 -8.27605873e-02 1.37934312e-01 6.89671561e-03
      1.51727751e-01 1.03450738e-01 1.31037593e-01 1.93108037e-01
      1.10347450e-01 -5.24150372e-01 -4.06906217e-01 -4.34493095e-01
      -4.48286533e-01 -3.31042349e-01 -4.55183238e-01 -2.27591619e-01
      -4.06906217e-01 -3.31042349e-01 -3.79319370e-01 -4.34493095e-01
      -3.72422636e-01 2.48281762e-01 -4.13802952e-01 3.51732492e-01
      -4.68976676e-01 4.62079942e-01 -4.68976676e-01 5.58633983e-01
      -4.20699656e-01 4.68976676e-01 -3.86216074e-01 3.58629227e-01
      -3.86216074e-01 -3.10352206e-01 4.34493095e-01 -2.06901476e-01
      3.31042349e-01 -1.03450738e-01 2.89662063e-01 -6.89671561e-03
      3.10352206e-01 8.96573067e-02 2.96558768e-01 2.06901476e-01
      3.37939084e-01 3.10352206e-01 4.48286533e-01 2.00004756e-01
      4.62079942e-01 8.96573067e-02 4.68976676e-01 -1.37934312e-02
      4.68976676e-01 -1.10347450e-01 4.62079942e-01 -2.06901476e-01
      4.55183238e-01 -2.68971920e-01 4.13802952e-01 -1.03450738e-01
      3.58629227e-01 -6.89671561e-03 3.72422636e-01 8.96573067e-02
      3.65525931e-01 2.62075186e-01 4.27596390e-01 8.27605873e-02
      3.58629227e-01 -1.37934312e-02 3.65525931e-01 -1.10347450e-01
      3.58629227e-01</_>
    <_>
      -8.62335920e-01 -3.23375970e-01 -8.37460816e-01 -9.12086070e-02
      -7.87710667e-01 1.32667065e-01 -7.29668856e-01 3.39959353e-01
      -6.38460219e-01 5.47251642e-01 -5.05793154e-01 7.21377134e-01
      -3.48251045e-01 8.78919303e-01 -1.57542139e-01 9.78419602e-01
      5.80418408e-02 9.95002985e-01 2.73625821e-01 9.61836219e-01
      4.47751343e-01 8.37460816e-01 5.97001791e-01 6.71626985e-01
      7.04793751e-01 4.72626418e-01 7.71127284e-01 2.48750746e-01
      7.87710667e-01 2.48750746e-02 8.04294050e-01 -2.07292289e-01
      8.04294050e-01 -4.39459652e-01 -7.21377134e-01 -4.64334726e-01
      -5.97001791e-01 -5.55543303e-01 -4.39459652e-01 -5.72126687e-01
      -2.73625821e-01 -5.30668259e-01 -1.07791990e-01 -4.97501493e-01
      5.80418408e-02 -5.14084876e-01 2.15583980e-01 -5.72126687e-01
      3.64834428e-01 -6.30168557e-01 5.30668259e-01 -6.30168557e-01
      6.55043602e-01 -5.47251642e-01 -1.65833831e-02 -3.81417811e-01
      -8.29169154e-03 -2.57042438e-01 0. -1.32667065e-01 0. 0.
      -1.57542139e-01 1.65833831e-01 -7.46252239e-02 1.74125522e-01
      2.48750746e-02 1.82417214e-01 1.16083682e-01 1.65833831e-01
      1.90708905e-01 1.40958756e-01 -5.30668259e-01 -3.15084279e-01
      -4.31167960e-01 -3.64834428e-01 -3.15084279e-01 -3.81417811e-01
      -2.07292289e-01 -3.15084279e-01 -3.15084279e-01 -2.81917512e-01
      -4.31167960e-01 -2.73625821e-01 1.82417214e-01 -3.39959353e-01
      2.73625821e-01 -4.14584577e-01 3.89709502e-01 -4.14584577e-01
      4.89209801e-01 -3.73126119e-01 4.06292886e-01 -3.23375970e-01
      2.90209204e-01 -3.23375970e-01 -2.73625821e-01 4.97501493e-01
      -1.40958756e-01 4.31167960e-01 -3.31667662e-02 3.89709502e-01
      4.14584577e-02 4.06292886e-01 1.07791990e-01 3.81417811e-01
      2.23875672e-01 4.06292886e-01 3.56542736e-01 4.56043035e-01
      2.32167363e-01 5.30668259e-01 1.24375373e-01 5.63835025e-01
      4.97501493e-02 5.72126687e-01 -2.48750746e-02 5.72126687e-01
      -1.32667065e-01 5.55543303e-01 -2.15583980e-01 4.97501493e-01
      -3.31667662e-02 4.56043035e-01 4.14584577e-02 4.64334726e-01
      1.16083682e-01 4.56043035e-01 2.98500896e-01 4.56043035e-01
      1.16083682e-01 4.56043035e-01 4.97501493e-02 4.72626418e-01
      -2.48750746e-02 4.64334726e-01</_>
    <_>
      -8.09166372e-01 -2.67024904e-01 -7.84891367e-01 -5.66416457e-02
      -7.36341417e-01 1.53741613e-01 -6.79699779e-01 3.56033206e-01
      -5.98783135e-01 5.50233126e-01 -4.69316483e-01 7.28249729e-01
      -3.15574884e-01 8.81991327e-01 -1.21374957e-01 9.87182975e-01
      9.70999673e-02 9.95274663e-01 3.15574884e-01 9.46724653e-01
      4.93591487e-01 8.09166372e-01 6.47333086e-01 6.47333086e-01
      7.44433045e-01 4.69316483e-01 8.09166372e-01 2.58933246e-01
      8.25349689e-01 4.85499837e-02 8.25349689e-01 -1.61833271e-01
      8.17258060e-01 -3.72216523e-01 -7.03974724e-01 -4.12674844e-01
      -6.06874764e-01 -5.09774804e-01 -4.45041507e-01 -5.42141438e-01
      -2.83208221e-01 -5.01683176e-01 -1.29466623e-01 -4.61224824e-01
      8.09166357e-02 -4.77408171e-01 2.26566583e-01 -5.42141438e-01
      3.80308181e-01 -5.82599759e-01 5.42141438e-01 -5.74508131e-01
      6.47333086e-01 -4.85499829e-01 -1.61833279e-02 -3.56033206e-01
      -8.09166394e-03 -2.42749915e-01 -8.09166394e-03 -1.29466623e-01 0.
      0. -1.69924945e-01 1.21374957e-01 -8.09166357e-02 1.53741613e-01
      2.42749918e-02 1.78016603e-01 1.21374957e-01 1.37558281e-01
      2.02291593e-01 8.90083015e-02 -5.09774804e-01 -2.99391568e-01
      -4.20766503e-01 -3.31758201e-01 -3.23666543e-01 -3.39849889e-01
      -2.18474925e-01 -3.07483226e-01 -3.15574884e-01 -2.91299880e-01
      -4.20766503e-01 -2.83208221e-01 1.94199935e-01 -3.31758201e-01
      2.99391568e-01 -3.72216523e-01 3.96491528e-01 -3.80308181e-01
      4.93591487e-01 -3.56033206e-01 4.04583186e-01 -3.31758201e-01
      2.99391568e-01 -3.31758201e-01 -2.67024904e-01 4.61224824e-01
      -1.78016603e-01 3.72216523e-01 -6.47333115e-02 3.39849889e-01
      2.42749918e-02 3.56033206e-01 1.21374957e-01 3.15574884e-01
      2.34658241e-01 3.39849889e-01 3.31758201e-01 4.12674844e-01
      2.58933246e-01 5.01683176e-01 1.53741613e-01 5.50233126e-01
      6.47333115e-02 5.74508131e-01 -3.23666558e-02 5.74508131e-01
      -1.53741613e-01 5.42141438e-01 -2.10383251e-01 4.53133166e-01
      -5.66416457e-02 4.28858161e-01 3.23666558e-02 4.28858161e-01
      1.29466623e-01 4.12674844e-01 2.83208221e-01 4.12674844e-01
      1.45649940e-01 4.28858161e-01 4.85499837e-02 4.53133166e-01
      -4.85499837e-02 4.45041507e-01</_>
    <_>
      -9.21797454e-01 -3.87671828e-01 -8.87337744e-01 -1.80913523e-01
      -8.44263077e-01 2.58447882e-02 -7.75343657e-01 2.32603103e-01
      -6.89194381e-01 4.22131538e-01 -5.68585336e-01 6.03045046e-01
      -4.22131538e-01 7.66728699e-01 -2.23988160e-01 8.95952642e-01 0.
      9.21797454e-01 2.23988160e-01 8.87337744e-01 4.04901683e-01
      7.58113801e-01 5.59970438e-01 5.85815191e-01 6.54734671e-01
      3.87671828e-01 7.15039134e-01 1.80913523e-01 7.66728699e-01
      -3.44597176e-02 8.01188469e-01 -2.58447886e-01 8.09803367e-01
      -4.73821133e-01 -7.49498844e-01 -4.91050988e-01 -6.46119714e-01
      -5.85815191e-01 -5.08280814e-01 -6.37504756e-01 -3.44597191e-01
      -6.54734671e-01 -1.89528450e-01 -6.20274901e-01 1.29223943e-01
      -6.46119714e-01 2.75677741e-01 -7.15039134e-01 4.39361393e-01
      -7.23654091e-01 5.85815191e-01 -6.71964526e-01 6.80579424e-01
      -5.59970438e-01 -2.58447882e-02 -3.96286756e-01 -1.72298588e-02
      -2.58447886e-01 -8.61492939e-03 -1.29223943e-01 0. 0.
      -1.72298595e-01 1.03379153e-01 -8.61492977e-02 1.29223943e-01 0.
      1.55068725e-01 7.75343627e-02 1.29223943e-01 1.55068725e-01
      9.47642252e-02 -5.59970438e-01 -3.53212118e-01 -4.65206206e-01
      -4.13516611e-01 -3.61827046e-01 -4.13516611e-01 -2.58447886e-01
      -3.61827046e-01 -3.53212118e-01 -3.27367336e-01 -4.65206206e-01
      -3.18752378e-01 1.89528450e-01 -3.79056901e-01 2.84292668e-01
      -4.39361393e-01 3.96286756e-01 -4.56591278e-01 4.99665916e-01
      -4.04901683e-01 4.13516611e-01 -3.61827046e-01 3.01522523e-01
      -3.53212118e-01 -2.84292668e-01 4.13516611e-01 -1.98143378e-01
      3.01522523e-01 -1.03379153e-01 2.75677741e-01 -1.72298588e-02
      2.92907596e-01 6.89194351e-02 2.75677741e-01 1.63683668e-01
      3.01522523e-01 2.67062813e-01 4.04901683e-01 1.72298595e-01
      4.56591278e-01 7.75343627e-02 4.73821133e-01 -8.61492939e-03
      4.82436061e-01 -9.47642252e-02 4.73821133e-01 -1.89528450e-01
      4.56591278e-01 -2.41218030e-01 3.87671828e-01 -1.03379153e-01
      3.53212118e-01 -1.72298588e-02 3.61827046e-01 6.89194351e-02
      3.61827046e-01 2.15373233e-01 3.87671828e-01 7.75343627e-02
      3.61827046e-01 -1.72298588e-02 3.79056901e-01 -9.47642252e-02
      3.61827046e-01</_>
    <_>
      -8.75697017e-01 -4.82860982e-01 -8.67512941e-01 -2.61890709e-01
      -8.26592505e-01 -4.91045043e-02 -7.93856204e-01 1.63681686e-01
      -7.03831255e-01 3.60099703e-01 -5.56517720e-01 5.15597284e-01
      -3.84651959e-01 6.46542668e-01 -1.96418017e-01 7.61119843e-01
      8.18408467e-03 7.93856204e-01 2.04602107e-01 7.61119843e-01
      3.84651959e-01 6.38358593e-01 5.48333645e-01 5.07413208e-01
      6.79279029e-01 3.43731552e-01 7.52935767e-01 1.47313520e-01
      7.85672069e-01 -4.91045043e-02 8.02040279e-01 -2.61890709e-01
      8.10224354e-01 -4.82860982e-01 -7.12015331e-01 -5.07413208e-01
      -5.89254081e-01 -5.72885931e-01 -4.25572395e-01 -5.89254081e-01
      -2.70074785e-01 -5.56517720e-01 -1.14577182e-01 -4.91045058e-01
      7.36567602e-02 -4.66492802e-01 2.20970273e-01 -5.40149570e-01
      3.68283808e-01 -5.89254081e-01 5.31965494e-01 -5.89254081e-01
      6.62910819e-01 -5.31965494e-01 -1.63681693e-02 -3.92836034e-01
      -8.18408467e-03 -2.61890709e-01 -8.18408467e-03 -1.30945355e-01 0.
      0. -1.47313520e-01 9.82090086e-02 -8.18408430e-02 1.06393099e-01
      0. 1.30945355e-01 7.36567602e-02 1.06393099e-01 1.39129430e-01
      7.36567602e-02 -5.15597284e-01 -3.92836034e-01 -4.25572395e-01
      -4.33756471e-01 -3.10995191e-01 -4.41940546e-01 -2.20970273e-01
      -3.76467884e-01 -3.19179296e-01 -3.51915628e-01 -4.25572395e-01
      -3.51915628e-01 1.88233942e-01 -3.76467884e-01 2.70074785e-01
      -4.50124651e-01 3.84651959e-01 -4.50124651e-01 4.74676877e-01
      -4.09204215e-01 3.92836034e-01 -3.68283808e-01 2.86442965e-01
      -3.68283808e-01 -3.27363372e-01 3.02811116e-01 -2.12786198e-01
      2.53706604e-01 -9.00249258e-02 2.29154363e-01 0. 2.37338439e-01
      8.18408430e-02 2.20970273e-01 2.04602107e-01 2.37338439e-01
      3.27363372e-01 2.70074785e-01 2.12786198e-01 3.60099703e-01
      9.00249258e-02 4.09204215e-01 8.18408467e-03 4.17388290e-01
      -9.00249258e-02 4.17388290e-01 -2.12786198e-01 3.84651959e-01
      -2.86442965e-01 3.02811116e-01 -9.00249258e-02 3.10995191e-01 0.
      3.10995191e-01 8.18408430e-02 3.02811116e-01 2.86442965e-01
      2.86442965e-01 9.00249258e-02 3.10995191e-01 8.18408467e-03
      3.19179296e-01 -8.18408430e-02 3.10995191e-01</_>
    <_>
      -8.29733908e-01 -3.40627581e-01 -8.12265813e-01 -1.13542534e-01
      -7.68595576e-01 9.60744470e-02 -7.16191351e-01 3.14425468e-01
      -6.28850937e-01 5.06574392e-01 -4.97840315e-01 6.72521174e-01
      -3.40627581e-01 8.12265813e-01 -1.57212734e-01 9.17074263e-01
      5.24042435e-02 9.52010453e-01 2.62021214e-01 9.08340275e-01
      4.54170138e-01 7.94797719e-01 6.20116889e-01 6.46319032e-01
      7.42393494e-01 4.62904155e-01 8.29733908e-01 2.53287196e-01
      8.64670038e-01 2.62021217e-02 8.90872180e-01 -2.00882941e-01
      8.99606228e-01 -4.36702043e-01 -7.07457304e-01 -4.27967995e-01
      -5.93914747e-01 -5.15308380e-01 -4.36702043e-01 -5.41510522e-01
      -2.70755261e-01 -5.15308380e-01 -1.04808487e-01 -4.54170138e-01
      9.60744470e-02 -4.62904155e-01 2.53287196e-01 -5.32776475e-01
      4.19233948e-01 -5.85180759e-01 5.93914747e-01 -5.76446712e-01
      7.33659446e-01 -4.97840315e-01 0. -3.49361628e-01 0.
      -2.35819101e-01 0. -1.22276574e-01 0. 0. -1.74680814e-01
      1.13542534e-01 -8.73404071e-02 1.31010607e-01 8.73404089e-03
      1.39744654e-01 1.04808487e-01 1.22276574e-01 2.00882941e-01
      9.60744470e-02 -5.32776475e-01 -3.23159516e-01 -4.36702043e-01
      -3.49361628e-01 -3.31893563e-01 -3.58095676e-01 -2.27085069e-01
      -3.14425468e-01 -3.31893563e-01 -2.96957374e-01 -4.36702043e-01
      -2.88223356e-01 2.44553149e-01 -3.31893563e-01 3.40627581e-01
      -3.84297788e-01 4.45436090e-01 -3.84297788e-01 5.50244570e-01
      -3.66829723e-01 4.54170138e-01 -3.23159516e-01 3.49361628e-01
      -3.23159516e-01 -2.62021214e-01 4.19233948e-01 -1.48478687e-01
      3.40627581e-01 -4.36702035e-02 2.96957374e-01 2.62021217e-02
      3.14425468e-01 1.04808487e-01 2.88223356e-01 2.18351021e-01
      3.23159516e-01 3.31893563e-01 4.01765883e-01 2.27085069e-01
      4.97840315e-01 1.13542534e-01 5.41510522e-01 3.49361636e-02
      5.50244570e-01 -4.36702035e-02 5.41510522e-01 -1.48478687e-01
      5.06574392e-01 -2.00882941e-01 4.19233948e-01 -4.36702035e-02
      3.93031836e-01 2.62021217e-02 4.01765883e-01 1.04808487e-01
      3.93031836e-01 2.70755261e-01 4.01765883e-01 1.04808487e-01
      4.01765883e-01 3.49361636e-02 4.19233948e-01 -4.36702035e-02
      4.10499930e-01</_>
    <_>
      -5.47214270e-01 -1.73169062e-01 -5.33360720e-01 6.92676241e-03
      -5.05653679e-01 1.87022597e-01 -4.64093089e-01 3.60191643e-01
      -4.08679008e-01 5.26433945e-01 -3.46338123e-01 6.92676246e-01
      -2.49363452e-01 8.51991773e-01 -1.31608486e-01 9.62819993e-01
      4.15605754e-02 9.97453809e-01 2.14729637e-01 9.76673543e-01
      3.74045193e-01 8.86625588e-01 4.98726904e-01 7.41163611e-01
      5.88774800e-01 5.74921310e-01 6.44188941e-01 3.94825459e-01
      6.71895981e-01 2.00876117e-01 6.99603021e-01 0. 7.13456571e-01
      -1.87022597e-01 -4.84873384e-01 -3.25557828e-01 -4.15605754e-01
      -4.15605754e-01 -3.11704308e-01 -4.50239569e-01 -1.93949357e-01
      -4.29459274e-01 -8.31211507e-02 -3.80971938e-01 9.69746783e-02
      -3.74045193e-01 2.21656397e-01 -4.22532529e-01 3.53264898e-01
      -4.36386049e-01 4.71019864e-01 -4.01752234e-01 5.61067760e-01
      -3.18631083e-01 6.92676241e-03 -2.56290227e-01 6.92676241e-03
      -1.73169062e-01 6.92676241e-03 -9.00479108e-02 0. 0.
      -9.69746783e-02 1.31608486e-01 -4.84873392e-02 1.45462021e-01
      6.92676241e-03 1.59315541e-01 6.92676231e-02 1.45462021e-01
      1.24681726e-01 1.31608486e-01 -3.67118418e-01 -2.14729637e-01
      -3.04777563e-01 -2.70143747e-01 -2.00876117e-01 -2.77070493e-01
      -1.24681726e-01 -2.07802877e-01 -2.07802877e-01 -1.80095822e-01
      -3.04777563e-01 -1.73169062e-01 1.80095822e-01 -2.07802877e-01
      2.56290227e-01 -2.70143747e-01 3.60191643e-01 -2.70143747e-01
      4.29459274e-01 -2.07802877e-01 3.67118418e-01 -1.73169062e-01
      2.70143747e-01 -1.73169062e-01 -2.07802877e-01 4.77946609e-01
      -1.52388781e-01 3.25557828e-01 -5.54140992e-02 2.63216972e-01
      6.92676241e-03 2.83997267e-01 6.23408630e-02 2.77070493e-01
      1.80095822e-01 3.39411378e-01 2.63216972e-01 4.91800159e-01
      1.87022597e-01 6.58042431e-01 7.61943907e-02 7.34236836e-01
      6.92676241e-03 7.34236836e-01 -6.23408630e-02 7.20383286e-01
      -1.52388781e-01 6.37262166e-01 -1.66242301e-01 4.71019864e-01
      -5.54140992e-02 3.32484603e-01 6.92676241e-03 3.32484603e-01
      6.92676231e-02 3.39411378e-01 2.21656397e-01 4.84873384e-01
      6.92676231e-02 6.30335391e-01 6.92676241e-03 6.30335391e-01
      -5.54140992e-02 6.16481900e-01</_>
    <_>
      -7.10282922e-01 -2.68521577e-01 -6.92958951e-01 -6.92958906e-02
      -6.66972995e-01 1.38591781e-01 -6.32324994e-01 3.37817490e-01
      -5.80353081e-01 5.28381169e-01 -4.76409256e-01 6.92958951e-01
      -3.46479475e-01 8.40212703e-01 -1.90563709e-01 9.61480498e-01
      1.73239727e-02 9.96128440e-01 2.42535621e-01 9.70142484e-01
      4.41761315e-01 8.57536674e-01 6.15001023e-01 7.27606893e-01
      7.44930863e-01 5.63029110e-01 8.05564761e-01 3.72465432e-01
      8.40212703e-01 1.64577752e-01 8.74860644e-01 -3.46479453e-02
      9.00846601e-01 -2.42535621e-01 -5.89015067e-01 -3.89789402e-01
      -4.93733227e-01 -4.59085286e-01 -3.63803446e-01 -4.85071242e-01
      -2.25211650e-01 -4.76409256e-01 -8.66198689e-02 -4.33099329e-01
      1.38591781e-01 -4.24437344e-01 2.77183563e-01 -4.67747271e-01
      4.24437344e-01 -4.76409256e-01 5.63029110e-01 -4.41761315e-01
      6.66972995e-01 -3.72465432e-01 8.66198633e-03 -3.20493519e-01
      8.66198633e-03 -2.16549665e-01 8.66198633e-03 -1.12605825e-01 0.
      0. -1.47253767e-01 1.47253767e-01 -7.79578760e-02 1.64577752e-01
      0. 1.81901723e-01 7.79578760e-02 1.64577752e-01 1.55915752e-01
      1.47253767e-01 -4.41761315e-01 -2.85845548e-01 -3.63803446e-01
      -3.29155505e-01 -2.59859592e-01 -3.29155505e-01 -1.81901723e-01
      -2.77183563e-01 -2.68521577e-01 -2.68521577e-01 -3.63803446e-01
      -2.68521577e-01 2.33873636e-01 -2.68521577e-01 3.20493519e-01
      -3.29155505e-01 4.15775359e-01 -3.20493519e-01 5.11057198e-01
      -2.77183563e-01 4.24437344e-01 -2.59859592e-01 3.29155505e-01
      -2.59859592e-01 -3.37817490e-01 4.41761315e-01 -2.42535621e-01
      3.55141461e-01 -1.03943840e-01 3.20493519e-01 -8.66198633e-03
      3.46479475e-01 9.52818543e-02 3.29155505e-01 2.42535621e-01
      3.72465432e-01 3.81127417e-01 4.67747271e-01 2.51197606e-01
      5.89015067e-01 9.52818543e-02 6.32324994e-01 -8.66198633e-03
      6.40987039e-01 -1.21267810e-01 6.23663008e-01 -2.42535621e-01
      5.63029110e-01 -2.94507533e-01 4.41761315e-01 -1.03943840e-01
      3.89789402e-01 -8.66198633e-03 4.07113373e-01 9.52818543e-02
      3.98451388e-01 3.29155505e-01 4.67747271e-01 9.52818543e-02
      5.37043154e-01 -8.66198633e-03 5.37043154e-01 -1.12605825e-01
      5.28381169e-01</_>
    <_>
      -6.88686669e-01 -2.35161304e-01 -6.80288076e-01 -4.19930890e-02
      -6.46693587e-01 1.59573749e-01 -6.13099098e-01 3.52741957e-01
      -5.71106017e-01 5.29112935e-01 -4.70322609e-01 6.97085321e-01
      -3.35944712e-01 8.48260403e-01 -1.76370978e-01 9.65841055e-01
      3.35944705e-02 9.99435544e-01 2.35161304e-01 9.65841055e-01
      4.19930905e-01 8.65057647e-01 5.87903261e-01 7.39078403e-01
      7.13882506e-01 5.87903261e-01 7.72672832e-01 4.03133661e-01
      8.06267321e-01 2.01566830e-01 8.39861810e-01 0. 8.73456299e-01
      -1.93168208e-01 -5.79504669e-01 -3.61140579e-01 -4.95518476e-01
      -4.28329527e-01 -3.69539201e-01 -4.53525364e-01 -2.35161304e-01
      -4.36728150e-01 -1.00783415e-01 -3.94735038e-01 1.51175126e-01
      -3.94735038e-01 2.85553008e-01 -4.28329527e-01 4.28329527e-01
      -4.36728150e-01 5.54308772e-01 -4.03133661e-01 6.55092180e-01
      -3.27546090e-01 1.67972352e-02 -3.10748875e-01 8.39861762e-03
      -2.09965453e-01 8.39861762e-03 -1.09182037e-01 0. 0.
      -1.34377882e-01 1.09182037e-01 -6.71889409e-02 1.34377882e-01 0.
      1.59573749e-01 8.39861780e-02 1.42776504e-01 1.51175126e-01
      1.25979275e-01 -4.28329527e-01 -2.77154386e-01 -3.44343334e-01
      -3.02350253e-01 -2.51958549e-01 -3.02350253e-01 -1.76370978e-01
      -2.68755764e-01 -2.60357171e-01 -2.60357171e-01 -3.44343334e-01
      -2.60357171e-01 2.26762682e-01 -2.51958549e-01 3.02350253e-01
      -2.93951631e-01 3.94735038e-01 -2.85553008e-01 4.87119853e-01
      -2.51958549e-01 3.94735038e-01 -2.43559927e-01 3.10748875e-01
      -2.43559927e-01 -3.02350253e-01 4.03133661e-01 -2.18364075e-01
      3.10748875e-01 -1.00783415e-01 2.77154386e-01 0. 3.10748875e-01
      9.23848003e-02 2.93951631e-01 2.18364075e-01 3.27546090e-01
      3.19147497e-01 4.28329527e-01 2.18364075e-01 5.20714343e-01
      9.23848003e-02 5.71106017e-01 -1.67972352e-02 5.79504669e-01
      -1.17580652e-01 5.62707424e-01 -2.26762682e-01 5.03917098e-01
      -2.60357171e-01 4.03133661e-01 -1.00783415e-01 3.61140579e-01 0.
      3.69539201e-01 1.00783415e-01 3.69539201e-01 2.77154386e-01
      4.19930905e-01 9.23848003e-02 4.70322609e-01 -8.39861762e-03
      4.87119853e-01 -1.09182037e-01 4.61923987e-01</_>
    <_>
      -8.09889376e-01 -1.69097781e-01 -7.65389979e-01 3.55995335e-02
      -7.11990654e-01 2.31396958e-01 -6.49691463e-01 4.27194387e-01
      -5.78492403e-01 6.05192065e-01 -4.71693814e-01 7.65389979e-01
      -3.20395797e-01 8.63288641e-01 -1.24598362e-01 9.43387628e-01
      1.06798597e-01 9.52287495e-01 3.38195562e-01 9.34487760e-01
      5.33993006e-01 8.45488906e-01 6.76391125e-01 7.20890522e-01
      7.65389979e-01 5.51792741e-01 8.27689111e-01 3.55995327e-01
      8.63288641e-01 1.60197899e-01 8.89988303e-01 -4.44994159e-02
      8.89988303e-01 -2.58096606e-01 -6.58591330e-01 -4.00494754e-01
      -5.60692668e-01 -4.80593681e-01 -4.27194387e-01 -5.25093079e-01
      -2.66996503e-01 -5.25093079e-01 -1.15698479e-01 -4.89493579e-01
      8.00989494e-02 -4.98393446e-01 2.31396958e-01 -5.42892873e-01
      3.91594857e-01 -5.69592535e-01 5.42892873e-01 -5.60692668e-01
      6.67491257e-01 -4.89493579e-01 -8.89988337e-03 -4.00494754e-01
      -8.89988337e-03 -2.66996503e-01 -8.89988337e-03 -1.33498251e-01 0.
      0. -1.33498251e-01 1.15698479e-01 -7.11990669e-02 1.42398134e-01
      1.77997667e-02 1.69097781e-01 9.78987142e-02 1.33498251e-01
      1.77997664e-01 1.06798597e-01 -4.89493579e-01 -3.02596033e-01
      -4.18294519e-01 -3.64895225e-01 -3.29295665e-01 -3.73795092e-01
      -2.22497076e-01 -3.47095430e-01 -3.11495900e-01 -3.20395797e-01
      -4.09394622e-01 -3.02596033e-01 2.40296841e-01 -3.47095430e-01
      3.29295665e-01 -3.91594857e-01 4.27194387e-01 -3.91594857e-01
      5.16193211e-01 -3.47095430e-01 4.27194387e-01 -3.38195562e-01
      3.29295665e-01 -3.38195562e-01 -2.04697311e-01 4.71693814e-01
      -1.33498251e-01 3.73795092e-01 -4.44994159e-02 3.38195562e-01
      2.66996492e-02 3.55995327e-01 9.78987142e-02 3.38195562e-01
      2.04697311e-01 3.64895225e-01 2.93696135e-01 4.62793916e-01
      2.04697311e-01 4.36094284e-01 1.15698479e-01 4.36094284e-01
      4.44994159e-02 4.44994152e-01 -3.55995335e-02 4.44994152e-01
      -1.24598362e-01 4.44994152e-01 -1.86897546e-01 4.44994152e-01
      -3.55995335e-02 4.27194387e-01 3.55995335e-02 4.27194387e-01
      1.06798597e-01 4.18294519e-01 2.58096606e-01 4.44994152e-01
      1.06798597e-01 3.64895225e-01 3.55995335e-02 3.73795092e-01
      -3.55995335e-02 3.64895225e-01</_>
    <_>
      -8.13404679e-01 -2.46763214e-01 -7.95125902e-01 -3.65575142e-02
      -7.67707765e-01 1.46230057e-01 -7.31150270e-01 3.47296357e-01
      -6.48895860e-01 5.30083954e-01 -5.02665818e-01 6.94592714e-01
      -3.19878221e-01 8.22544038e-01 -1.18811913e-01 9.32216585e-01
      9.13937837e-02 9.50495303e-01 3.10738862e-01 9.23077166e-01
      5.11805177e-01 8.22544038e-01 6.85453355e-01 6.85453355e-01
      8.22544038e-01 5.20944536e-01 9.13937807e-01 3.19878221e-01
      9.32216585e-01 1.09672539e-01 9.41355944e-01 -9.13937837e-02
      9.50495303e-01 -3.10738862e-01 -6.94592714e-01 -4.47829515e-01
      -6.12338364e-01 -5.66641450e-01 -4.75247651e-01 -6.30617082e-01
      -3.19878221e-01 -6.39756441e-01 -1.64508805e-01 -6.03198946e-01
      1.00533158e-01 -6.21477723e-01 2.65041977e-01 -6.85453355e-01
      4.38690156e-01 -6.94592714e-01 6.03198946e-01 -6.58035219e-01
      7.22010851e-01 -5.48362672e-01 -9.13937856e-03 -4.47829515e-01 0.
      -2.92460114e-01 0. -1.46230057e-01 0. 0. -1.64508805e-01
      9.13937837e-02 -7.31150284e-02 1.09672539e-01 1.82787571e-02
      1.37090668e-01 1.18811913e-01 1.00533158e-01 2.19345078e-01
      7.31150284e-02 -5.20944536e-01 -3.74714494e-01 -4.38690156e-01
      -4.29550767e-01 -3.38156998e-01 -4.38690156e-01 -2.37623826e-01
      -3.92993271e-01 -3.38156998e-01 -3.74714494e-01 -4.29550767e-01
      -3.65575135e-01 2.74181336e-01 -4.11272019e-01 3.56435746e-01
      -4.66108292e-01 4.56968904e-01 -4.66108292e-01 5.48362672e-01
      -4.20411408e-01 4.56968904e-01 -4.02132630e-01 3.65575135e-01
      -4.02132630e-01 -3.29017609e-01 3.01599473e-01 -1.91926941e-01
      2.74181336e-01 -5.48362695e-02 2.46763214e-01 3.65575142e-02
      2.55902588e-01 1.37090668e-01 2.37623826e-01 2.92460114e-01
      2.46763214e-01 4.75247651e-01 2.65041977e-01 3.10738862e-01
      3.83853883e-01 1.64508805e-01 4.38690156e-01 6.39756471e-02
      4.56968904e-01 -3.65575142e-02 4.47829515e-01 -1.73648179e-01
      4.02132630e-01 -2.83320725e-01 3.10738862e-01 -5.48362695e-02
      3.29017609e-01 4.56968918e-02 3.29017609e-01 1.37090668e-01
      3.19878221e-01 4.29550767e-01 2.74181336e-01 1.55369431e-01
      3.38156998e-01 5.48362695e-02 3.56435746e-01 -3.65575142e-02
      3.47296357e-01</_>
    <_>
      -9.45091009e-01 -3.26807171e-01 -9.09760535e-01 -1.05991520e-01
      -8.65597427e-01 1.14824146e-01 -8.03768992e-01 3.26807171e-01
      -6.97777510e-01 5.21124959e-01 -5.65288067e-01 6.97777510e-01
      -4.06300813e-01 8.47932160e-01 -2.11983040e-01 9.62756276e-01 0.
      9.89254177e-01 2.03150406e-01 9.53923643e-01 3.97468179e-01
      8.39099526e-01 5.74120700e-01 6.88944876e-01 7.06610143e-01
      5.12292325e-01 8.03768992e-01 3.09141934e-01 8.39099526e-01
      9.71588939e-02 8.65597427e-01 -1.23656772e-01 8.83262634e-01
      -3.44472438e-01 -7.41940618e-01 -5.12292325e-01 -6.27116501e-01
      -6.27116501e-01 -4.59296584e-01 -6.80112243e-01 -2.73811430e-01
      -6.80112243e-01 -9.71588939e-02 -6.18283868e-01 7.06610084e-02
      -6.09451234e-01 2.47313544e-01 -6.71279609e-01 4.23966080e-01
      -6.88944876e-01 6.00618601e-01 -6.44781709e-01 7.06610143e-01
      -5.29957592e-01 -8.83262604e-03 -4.85794455e-01 -8.83262604e-03
      -3.26807171e-01 -8.83262604e-03 -1.58987284e-01 0. 0.
      -1.76652536e-01 7.94936419e-02 -9.71588939e-02 1.14824146e-01 0.
      1.41322017e-01 9.71588939e-02 1.14824146e-01 1.85485154e-01
      7.94936419e-02 -5.21124959e-01 -4.32798713e-01 -4.32798713e-01
      -4.68129218e-01 -3.26807171e-01 -4.76961821e-01 -2.29648292e-01
      -4.41631317e-01 -3.26807171e-01 -4.15133446e-01 -4.32798713e-01
      -4.15133446e-01 2.11983040e-01 -4.32798713e-01 3.09141934e-01
      -4.76961821e-01 4.23966080e-01 -4.68129218e-01 5.12292325e-01
      -4.23966080e-01 4.15133446e-01 -4.06300813e-01 3.09141934e-01
      -4.15133446e-01 -3.70970309e-01 3.44472438e-01 -2.56146163e-01
      3.09141934e-01 -1.23656772e-01 3.09141934e-01 -8.83262604e-03
      3.26807171e-01 1.05991520e-01 3.00309300e-01 2.47313544e-01
      2.91476667e-01 3.70970309e-01 3.26807171e-01 2.56146163e-01
      4.32798713e-01 1.23656772e-01 4.94627088e-01 8.83262604e-03
      5.12292325e-01 -1.14824146e-01 5.03459692e-01 -2.56146163e-01
      4.50463951e-01 -3.35639805e-01 3.35639805e-01 -1.23656772e-01
      3.26807171e-01 0. 3.44472438e-01 1.14824146e-01 3.17974567e-01
      3.35639805e-01 3.26807171e-01 1.23656772e-01 4.06300813e-01 0.
      4.32798713e-01 -1.14824146e-01 4.15133446e-01</_>
    <_>
      -8.44569981e-01 -3.94744664e-01 -8.62930238e-01 -1.65241957e-01
      -8.53750110e-01 5.50806522e-02 -8.26209784e-01 2.84583360e-01
      -7.52768934e-01 5.04905999e-01 -6.24247372e-01 6.97688282e-01
      -4.59005445e-01 8.53750110e-01 -2.66223162e-01 9.63911414e-01
      -2.75403261e-02 9.82271612e-01 2.20322609e-01 9.63911414e-01
      4.22284991e-01 8.72110307e-01 6.05887175e-01 7.16048479e-01
      7.43588805e-01 5.23266196e-01 8.17029655e-01 3.21303815e-01
      8.53750110e-01 1.00981198e-01 8.72110307e-01 -1.19341411e-01
      8.72110307e-01 -3.30483913e-01 -6.97688282e-01 -5.41626394e-01
      -5.69166720e-01 -6.33427501e-01 -4.03924793e-01 -6.51787698e-01
      -2.38682821e-01 -6.24247372e-01 -7.34408721e-02 -5.87526977e-01
      1.10161304e-01 -5.78346848e-01 2.75403261e-01 -6.24247372e-01
      4.49825317e-01 -6.51787698e-01 6.05887175e-01 -6.33427501e-01
      7.16048479e-01 -5.32446325e-01 9.18010902e-03 -4.49825317e-01
      9.18010902e-03 -3.02943587e-01 0. -1.56061843e-01 0. 0.
      -1.92782283e-01 1.10161304e-01 -1.10161304e-01 1.28521517e-01
      -9.18010902e-03 1.46881744e-01 8.26209784e-02 1.37701631e-01
      1.74422070e-01 1.19341411e-01 -5.32446325e-01 -4.40645218e-01
      -4.31465119e-01 -4.95725870e-01 -3.12123686e-01 -4.95725870e-01
      -2.11142495e-01 -4.22284991e-01 -3.21303815e-01 -3.94744664e-01
      -4.40645218e-01 -3.94744664e-01 2.29502723e-01 -4.13104892e-01
      3.39664012e-01 -4.86545771e-01 4.68185544e-01 -4.77365643e-01
      5.59986651e-01 -4.31465119e-01 4.68185544e-01 -3.76384467e-01
      3.48844141e-01 -3.85564566e-01 -3.94744664e-01 4.13104892e-01
      -2.66223162e-01 3.12123686e-01 -1.19341411e-01 2.66223162e-01
      -1.83602180e-02 2.93763489e-01 8.26209784e-02 2.66223162e-01
      2.20322609e-01 3.39664012e-01 3.39664012e-01 4.40645218e-01
      2.11142495e-01 5.04905999e-01 7.34408721e-02 5.23266196e-01
      -3.67204361e-02 5.23266196e-01 -1.46881744e-01 5.14086068e-01
      -2.75403261e-01 4.77365643e-01 -3.30483913e-01 3.94744664e-01
      -1.19341411e-01 3.67204338e-01 -1.83602180e-02 3.85564566e-01
      8.26209784e-02 3.76384467e-01 2.84583360e-01 4.22284991e-01
      7.34408721e-02 3.76384467e-01 -3.67204361e-02 3.85564566e-01
      -1.28521517e-01 3.67204338e-01</_>
    <_>
      -8.04791331e-01 -3.66627157e-01 -8.22675586e-01 -1.43074021e-01
      -8.13733459e-01 8.94212574e-02 -7.69022822e-01 3.04032296e-01
      -6.97485805e-01 5.18643320e-01 -5.81238210e-01 7.06427932e-01
      -4.20279920e-01 8.76328349e-01 -2.23553151e-01 9.74691749e-01
      8.94212630e-03 9.92576003e-01 2.50379533e-01 9.65749621e-01
      4.56048429e-01 8.58444095e-01 6.17006719e-01 6.88543677e-01
      7.42196441e-01 5.00759065e-01 8.22675586e-01 2.95090169e-01
      8.49501967e-01 8.94212574e-02 8.67386222e-01 -1.16247639e-01
      8.58444095e-01 -3.21916550e-01 -6.70659482e-01 -4.91816938e-01
      -5.45469701e-01 -5.81238210e-01 -3.75569284e-01 -5.90180337e-01
      -2.14611024e-01 -5.54411829e-01 -5.36527559e-02 -5.09701192e-01
      1.16247639e-01 -5.00759065e-01 2.68263787e-01 -5.45469701e-01
      4.38164175e-01 -5.81238210e-01 5.90180337e-01 -5.63353956e-01
      7.06427932e-01 -4.73932683e-01 1.78842526e-02 -4.02395666e-01
      1.78842526e-02 -2.68263787e-01 8.94212630e-03 -1.43074021e-01 0.
      0. -1.78842515e-01 1.07305512e-01 -8.94212574e-02 1.25189766e-01
      0. 1.52016148e-01 1.07305512e-01 1.25189766e-01 1.96726769e-01
      1.07305512e-01 -5.00759065e-01 -4.02395666e-01 -4.02395666e-01
      -4.29222047e-01 -2.95090169e-01 -4.38164175e-01 -1.96726769e-01
      -3.84511411e-01 -2.95090169e-01 -3.66627157e-01 -4.02395666e-01
      -3.66627157e-01 2.50379533e-01 -3.75569284e-01 3.48742902e-01
      -4.20279920e-01 4.64990556e-01 -4.20279920e-01 5.54411829e-01
      -3.84511411e-01 4.56048429e-01 -3.48742902e-01 3.48742902e-01
      -3.57685030e-01 -3.39800805e-01 3.93453538e-01 -2.05668896e-01
      3.21916550e-01 -8.04791376e-02 2.86148041e-01 0. 3.12974423e-01
      9.83633846e-02 2.86148041e-01 2.32495278e-01 3.21916550e-01
      3.66627157e-01 3.93453538e-01 2.32495278e-01 4.64990556e-01
      9.83633846e-02 4.91816938e-01 8.94212630e-03 5.00759065e-01
      -8.04791376e-02 4.91816938e-01 -2.05668896e-01 4.64990556e-01
      -2.86148041e-01 3.93453538e-01 -8.04791376e-02 3.84511411e-01
      8.94212630e-03 4.02395666e-01 9.83633846e-02 3.84511411e-01
      3.12974423e-01 3.93453538e-01 9.83633846e-02 3.66627157e-01
      8.94212630e-03 3.84511411e-01 -8.04791376e-02 3.66627157e-01</_>
    <_>
      -7.13190615e-01 -2.59342045e-01 -7.05986619e-01 -7.20394552e-02
      -6.91578746e-01 1.29671022e-01 -6.69966936e-01 3.16973597e-01
      -6.12335384e-01 4.97072220e-01 -5.33091962e-01 6.69966936e-01
      -4.10624892e-01 8.42861593e-01 -2.73749918e-01 9.50920820e-01
      -1.08059183e-01 9.94144440e-01 5.04276194e-02 9.65328693e-01
      1.94506526e-01 8.50065529e-01 3.09769660e-01 6.91578746e-01
      3.89013052e-01 5.18684089e-01 4.61052507e-01 3.38585436e-01
      5.11480093e-01 1.51282847e-01 5.40295899e-01 -3.60197276e-02
      5.61907768e-01 -2.23322302e-01 -5.54703772e-01 -3.67401212e-01
      -4.68256444e-01 -4.61052507e-01 -3.38585436e-01 -4.97072220e-01
      -2.08914414e-01 -4.75460410e-01 -9.36512873e-02 -4.17828828e-01
      7.20394552e-02 -4.03420955e-01 1.94506526e-01 -4.46644604e-01
      3.16973597e-01 -4.53848571e-01 4.25032765e-01 -4.25032765e-01
      4.82664347e-01 -3.09769660e-01 -7.20394542e-03 -2.73749918e-01
      -7.20394542e-03 -1.87302575e-01 0. -9.36512873e-02 0. 0.
      -1.58486798e-01 1.08059183e-01 -9.36512873e-02 1.29671022e-01
      -2.88157817e-02 1.44078910e-01 3.60197276e-02 1.36874959e-01
      9.36512873e-02 1.22467071e-01 -4.17828828e-01 -2.59342045e-01
      -3.52993309e-01 -3.16973597e-01 -2.59342045e-01 -3.16973597e-01
      -1.80098638e-01 -2.52138078e-01 -2.66545981e-01 -2.23322302e-01
      -3.60197276e-01 -2.23322302e-01 1.22467071e-01 -2.30526254e-01
      2.01710477e-01 -2.95361757e-01 2.95361757e-01 -2.88157821e-01
      3.45789373e-01 -2.23322302e-01 2.95361757e-01 -1.94506526e-01
      2.01710477e-01 -2.01710477e-01 -2.52138078e-01 4.61052507e-01
      -2.08914414e-01 3.38585436e-01 -1.08059183e-01 2.73749918e-01
      -4.32236716e-02 2.95361757e-01 2.16118358e-02 2.80953884e-01
      1.00855239e-01 3.52993309e-01 1.22467071e-01 4.89868283e-01
      8.64473432e-02 6.26743257e-01 7.20394542e-03 6.91578746e-01
      -6.48355111e-02 6.98782682e-01 -1.36874959e-01 6.77170873e-01
      -2.23322302e-01 6.05131388e-01 -2.16118366e-01 4.61052507e-01
      -1.08059183e-01 3.60197276e-01 -5.04276194e-02 3.67401212e-01
      1.44078908e-02 3.67401212e-01 8.64473432e-02 4.89868283e-01
      7.20394542e-03 5.61907768e-01 -5.76315634e-02 5.76315641e-01
      -1.22467071e-01 5.61907768e-01</_>
    <_>
      -9.27179277e-01 -3.74617904e-01 -9.27179277e-01 -1.49847165e-01
      -9.17813838e-01 6.55581281e-02 -8.99082959e-01 2.90328860e-01
      -8.24159384e-01 4.96368706e-01 -6.83677673e-01 6.64946735e-01
      -4.96368706e-01 8.05428445e-01 -3.09059769e-01 9.27179277e-01
      -1.03019923e-01 9.64641094e-01 9.36544761e-02 9.36544716e-01
      2.71597981e-01 8.05428445e-01 4.49541479e-01 6.64946735e-01
      5.80657721e-01 4.96368706e-01 6.46215856e-01 3.09059769e-01
      6.74312234e-01 9.36544761e-02 6.93043113e-01 -1.12385370e-01
      7.11773992e-01 -3.09059769e-01 -7.21139431e-01 -4.58906919e-01
      -5.99388659e-01 -5.61926842e-01 -4.40176040e-01 -6.08754098e-01
      -2.71597981e-01 -5.90023160e-01 -1.12385370e-01 -5.43195963e-01
      8.42890292e-02 -5.24465024e-01 2.43501633e-01 -5.61926842e-01
      4.12079692e-01 -5.61926842e-01 5.52561402e-01 -5.05734146e-01
      6.27484977e-01 -3.74617904e-01 -9.36544780e-03 -3.83983344e-01
      -9.36544780e-03 -2.62232512e-01 0. -1.31116256e-01 0. 0.
      -2.34136179e-01 6.55581281e-02 -1.31116256e-01 1.03019923e-01
      -2.80963425e-02 1.31116256e-01 6.55581281e-02 1.12385370e-01
      1.49847165e-01 8.42890292e-02 -5.24465024e-01 -3.74617904e-01
      -4.40176040e-01 -4.21445131e-01 -3.37156117e-01 -4.21445131e-01
      -2.43501633e-01 -3.55886996e-01 -3.46521556e-01 -3.46521556e-01
      -4.40176040e-01 -3.46521556e-01 1.68578058e-01 -3.37156117e-01
      2.62232512e-01 -3.83983344e-01 3.65252435e-01 -3.74617904e-01
      4.40176040e-01 -3.27790648e-01 3.55886996e-01 -2.99694330e-01
      2.62232512e-01 -3.09059769e-01 -4.58906919e-01 2.99694330e-01
      -3.27790648e-01 2.71597981e-01 -1.77943498e-01 2.62232512e-01
      -6.55581281e-02 2.90328860e-01 4.68272381e-02 2.71597981e-01
      1.77943498e-01 2.90328860e-01 2.80963421e-01 3.37156117e-01
      1.77943498e-01 5.05734146e-01 3.74617912e-02 5.80657721e-01
      -7.49235824e-02 5.90023160e-01 -1.96674392e-01 5.71292281e-01
      -3.37156117e-01 4.77637827e-01 -4.21445131e-01 3.09059769e-01
      -1.77943498e-01 3.18425208e-01 -6.55581281e-02 3.46521556e-01
      4.68272381e-02 3.37156117e-01 2.43501633e-01 3.46521556e-01
      4.68272381e-02 4.49541479e-01 -6.55581281e-02 4.68272358e-01
      -1.87308952e-01 4.40176040e-01</_>
    <_>
      -9.20382857e-01 -3.06794286e-01 -9.11086023e-01 -1.02264762e-01
      -9.11086023e-01 1.02264762e-01 -8.83195639e-01 3.06794286e-01
      -8.18118095e-01 4.92730200e-01 -6.97259724e-01 6.69369340e-01
      -5.39214194e-01 8.18118095e-01 -3.43981475e-01 9.38976467e-01
      -1.11561559e-01 9.76163626e-01 1.20858356e-01 9.48273242e-01
      3.06794286e-01 8.36711705e-01 4.46246237e-01 6.87962949e-01
      5.57807803e-01 5.11323810e-01 6.22885346e-01 3.25387865e-01
      6.50775731e-01 1.30155146e-01 6.78666115e-01 -6.50775731e-02
      6.87962949e-01 -2.60310292e-01 -7.25150108e-01 -4.55543011e-01
      -6.13588572e-01 -5.48510969e-01 -4.46246237e-01 -5.76401353e-01
      -2.78903902e-01 -5.57807803e-01 -1.39451951e-01 -4.83433425e-01
      1.02264762e-01 -4.64839816e-01 2.41716713e-01 -5.20620584e-01
      3.90465438e-01 -5.48510969e-01 5.29917419e-01 -5.20620584e-01
      5.94994962e-01 -3.99762243e-01 -9.29679628e-03 -3.34684670e-01 0.
      -2.23123118e-01 0. -1.11561559e-01 0. 0. -2.04529524e-01
      7.43743703e-02 -1.20858356e-01 1.11561559e-01 -2.78903898e-02
      1.58045545e-01 6.50775731e-02 1.30155146e-01 1.39451951e-01
      1.02264762e-01 -5.39214194e-01 -3.16091090e-01 -4.46246237e-01
      -3.81168664e-01 -3.43981475e-01 -3.81168664e-01 -2.51013517e-01
      -3.06794286e-01 -3.43981475e-01 -2.97497481e-01 -4.55543011e-01
      -2.97497481e-01 1.48748741e-01 -2.88200676e-01 2.60310292e-01
      -3.43981475e-01 3.62575054e-01 -3.43981475e-01 4.27652627e-01
      -2.78903902e-01 3.62575054e-01 -2.60310292e-01 2.51013517e-01
      -2.69607097e-01 -3.43981475e-01 3.99762243e-01 -2.41716713e-01
      3.16091090e-01 -1.30155146e-01 2.78903902e-01 -5.57807796e-02
      3.06794286e-01 2.78903898e-02 2.88200676e-01 1.20858356e-01
      3.43981475e-01 1.95232719e-01 4.36949432e-01 1.11561559e-01
      5.20620584e-01 1.85935926e-02 5.29917419e-01 -6.50775731e-02
      5.39214194e-01 -1.48748741e-01 5.20620584e-01 -2.51013517e-01
      5.02027035e-01 -2.88200676e-01 3.90465438e-01 -1.39451951e-01
      3.81168664e-01 -5.57807796e-02 3.90465438e-01 2.78903898e-02
      3.90465438e-01 1.39451951e-01 4.27652627e-01 2.78903898e-02
      3.99762243e-01 -6.50775731e-02 3.99762243e-01 -1.39451951e-01
      3.90465438e-01</_>
    <_>
      -8.50540280e-01 -2.12635070e-01 -8.32050323e-01 0. -8.04315269e-01
      2.12635070e-01 -7.48845279e-01 4.16025162e-01 -6.74885213e-01
      6.00925207e-01 -5.26965201e-01 7.58090258e-01 -3.23575109e-01
      8.59785318e-01 -1.01695038e-01 9.61480319e-01 1.10940039e-01
      9.79970336e-01 3.32820117e-01 9.42990363e-01 5.17720163e-01
      8.13560307e-01 7.02620268e-01 6.84130251e-01 8.50540280e-01
      5.08475184e-01 9.06010330e-01 2.86595106e-01 9.15255308e-01
      5.54700196e-02 9.15255308e-01 -1.75655067e-01 8.96765292e-01
      -3.97535145e-01 -7.30355263e-01 -5.26965201e-01 -6.47150218e-01
      -6.37905240e-01 -4.89985168e-01 -6.84130251e-01 -3.32820117e-01
      -6.74885213e-01 -1.75655067e-01 -6.19415224e-01 9.24500301e-02
      -6.74885213e-01 2.40370080e-01 -7.39600241e-01 4.06780154e-01
      -7.58090258e-01 5.73190212e-01 -7.30355263e-01 6.84130251e-01
      -6.37905240e-01 -2.77350098e-02 -4.80740160e-01 -1.84900071e-02
      -3.23575109e-01 -9.24500357e-03 -1.57165051e-01 0. 0.
      -1.38675049e-01 1.29430041e-01 -5.54700196e-02 1.47920057e-01
      2.77350098e-02 1.57165051e-01 1.20185040e-01 1.38675049e-01
      2.03390077e-01 1.01695038e-01 -5.63945174e-01 -3.79045129e-01
      -4.80740160e-01 -4.62250173e-01 -3.69800121e-01 -4.71495181e-01
      -2.49615088e-01 -4.06780154e-01 -3.60555142e-01 -3.69800121e-01
      -4.71495181e-01 -3.51310134e-01 2.40370080e-01 -4.34515148e-01
      3.32820117e-01 -5.26965201e-01 4.53005165e-01 -5.26965201e-01
      5.54700196e-01 -4.62250173e-01 4.62250173e-01 -4.25270140e-01
      3.51310134e-01 -4.25270140e-01 -3.42065126e-01 4.71495181e-01
      -2.31125087e-01 3.42065126e-01 -7.39600286e-02 2.95840114e-01
      4.62250151e-02 3.14330101e-01 1.66410059e-01 2.77350098e-01
      3.32820117e-01 2.95840114e-01 4.89985168e-01 3.88290137e-01
